svm_type c_svc
kernel_type rbf
gamma 0.25
nr_class 2
total_sv 188
rho 0.148742
label -1 1
probA -5.09009
probB -0.0992954
nr_sv 96 92
SV
0.8074886993522757 1:0.17632 2:-0.48162 3:0.34369 4:0.08028 5:-1 6:0.3316 7:-0.40559 8:0.47946 9:0.17192 10:-0.57078 11:-0.34045 12:0.19086 13:-0.82729 14:-0.89774 15:-0.34995 16:-0.53496 17:1 18:-0.83482 19:-1 20:-1 21:0.07646 22:-0.19451 23:-0.10467 24:-0.37115 25:0.07103 26:0.34092 27:-0.48036 28:-0.565 29:-1 30:-0.11776 31:0.59501 32:-0.85607 33:-0.97989 34:-1 35:-1 36:1 37:-0.81513 38:-1 39:0.16048 40:0.32231 41:-0.45578 42:-0.3818 43:-0.86791 44:0.23279 45:1 46:-0.40933 47:0.44997 48:0.8432 49:-0.21133 50:-0.09708 51:-0.42568 52:0.62529 53:0.20249 54:-0.02621 55:0.124 56:-0.41478 
0.2739329809560912 1:-1 2:0.51052 3:-0.09546 4:0.33532 5:-0.39435 6:0.1328 7:-1 8:0.57124 9:0.2486 10:-0.81595 11:-0.01967 12:-0.08994 13:-0.7987 14:-0.9404 15:-0.14076 16:-0.18694 17:-1 18:0.04099 19:-1 20:-0.64656 21:0.03475 22:0.08447 23:-0.47822 24:-0.4655 25:-0.58389 26:0.61046 27:0.21134 28:-0.61973 29:-0.28105 30:0.71386 31:-0.53523 32:-0.66449 33:-0.33351 34:-0.82983 35:0.23747 36:-0.53378 37:-0.79832 38:0.17211 39:-0.45765 40:0.55498 41:-0.20254 42:-0.06801 43:-0.84605 44:0.10442 45:0.55956 46:-1 47:0.30716 48:0.96029 49:-0.33652 50:-0.16554 51:-0.60468 52:0.61814 53:0.01271 54:0.11316 55:-0.10914 56:-0.26568 
0.09440704891341233 1:-0.66597 2:-0.11678 3:0.1443 4:0.62995 5:-1 6:0.03438 7:-1 8:0.56219 9:0.33393 10:-0.65576 11:0.1306 12:0.13565 13:-0.80383 14:-0.94192 15:-0.55132 16:-0.47176 17:-0.62138 18:0.87057 19:-1 20:-1 21:0.52734 22:-0.00408 23:0.52548 24:0.38713 25:-0.59449 26:0.00768 27:-1 28:-0.75294 29:-1 30:0.00212 31:-0.09412 32:-0.67303 33:-0.37102 34:-1 35:-1 36:-1 37:-0.7479 38:-1 39:-0.62184 40:0.77092 41:-0.19348 42:-0.21133 43:-0.84997 44:0.0373 45:0.45412 46:-0.3291 47:0.70668 48:0.78949 49:0.2891 50:-0.72727 51:-0.58801 52:0.6778 53:0.14724 54:0.12269 55:-0.07871 56:-0.55008 
1.847184113874337 1:-1 2:-0.71967 3:0.23633 4:0.32338 5:-0.81265 6:0.23806 7:-0.7857 8:0.37863 9:-0.24248 10:-0.58298 11:0.32097 12:0.25557 13:-0.68868 14:-0.85254 15:-0.08993 16:-0.83235 17:-0.63948 18:0.22958 19:-1 20:-0.92712 21:0.44439 22:-0.32815 23:-0.8386 24:-0.42144 25:-0.61387 26:0.30225 27:-0.81265 28:-0.52952 29:-0.55526 30:-0.57592 31:-0.71249 32:-0.79245 33:-0.1215 34:-0.73682 35:-0.80861 36:-0.56738 37:-0.32773 38:-0.03325 39:-0.33952 40:0.4749 41:0.14549 42:-0.239 43:-0.80953 44:0.27241 45:0.24725 46:-0.78705 47:0.46105 48:0.60901 49:0.33959 50:0.22278 51:-0.04267 52:0.71774 53:0.17845 54:0.3109 55:0.08518 56:0.32085 
0.09163233146755309 1:-0.23127 2:-0.32248 3:0.12936 4:0.14787 5:-1 6:0.00766 7:-1 8:0.21732 9:0.09487 10:-0.56536 11:0.13884 12:0.06322 13:-0.84951 14:-1 15:-0.10704 16:-0.39218 17:-1 18:-0.01079 19:-1 20:-0.82386 21:0.26321 22:-0.15767 23:-1 24:-0.08187 25:-1 26:0.18681 27:-0.54722 28:-0.71572 29:-1 30:-0.74375 31:-0.65254 32:-0.74919 33:-0.13237 34:-0.87278 35:-1 36:-1 37:-0.63025 38:-1 39:0.04532 40:0.21554 41:0.0323 42:-0.24161 43:-0.88491 44:0.20651 45:0.43277 46:-0.48533 47:0.15954 48:0.52985 49:0.0261 50:-0.10887 51:-0.53523 52:0.70221 53:-0.08978 54:0.1626 55:-0.17527 56:-0.36026 
0.09644835162486677 1:-0.72493 2:-1 3:0.37962 4:0.40105 5:-0.51397 6:0.60209 7:-1 8:0.52298 9:0.08803 10:-0.73409 11:0.15008 12:0.31671 13:-0.83846 14:-0.90435 15:-0.34897 16:-0.56504 17:-0.68822 18:0.22465 19:-1 20:-0.81092 21:0.04124 22:0.105 23:-1 24:0.0499 25:-0.66607 26:0.65425 27:-0.51397 28:-0.89828 29:-0.23077 30:-0.72493 31:-0.62703 32:-0.73077 33:-0.36613 34:-0.86344 35:-0.50349 36:-1 37:-0.79832 38:-0.37296 39:0.0052 40:0.47171 41:0.03018 42:0.44315 43:-0.87645 44:0.19135 45:0.39206 46:-0.44754 47:0.47502 48:0.79585 49:0.21576 50:-0.70651 51:-0.27525 52:0.77296 53:0.48867 54:0.26742 55:0.00827 56:-0.16256 
0.0694516115362159 1:-0.17339 2:-1 3:0.11524 4:0.09111 5:-0.02627 6:0.34528 7:-1 8:0.38279 9:0.15248 10:-0.4797 11:0.18231 12:-0.3832 13:-0.83818 14:-0.80837 15:-0.24291 16:-1 17:-1 18:0.30724 19:-1 20:-0.71589 21:0.28174 22:-0.16141 23:-1 24:-0.22066 25:-0.6655 26:0.62923 27:-0.51314 28:-0.49053 29:-0.80736 30:-0.44893 31:-0.62639 32:-0.46059 33:-0.53357 34:-0.8632 35:-0.00527 36:-0.62522 37:-0.86555 38:-0.68593 39:-0.05795 40:0.36693 41:0.46363 42:0.23744 43:-0.75248 44:0.15577 45:-0.27928 46:-1 47:0.37965 48:0.60621 49:0.14003 50:-0.63636 51:-0.58643 52:0.69728 53:0.00608 54:-0.1489 55:0.13262 56:-0.62299 
0.3008895475737177 1:-1 2:-0.36391 3:0.19556 4:-0.21546 5:0.27525 6:0.19896 7:-1 8:0.68026 9:-0.14383 10:-0.11351 11:0.23515 12:-0.17008 13:-0.57614 14:-0.93726 15:-0.09189 16:-0.71468 17:-1 18:0.35963 19:-1 20:-0.87597 21:0.13809 22:-0.25361 23:0.09864 24:-0.28382 25:-0.12384 26:0.22206 27:-0.36238 28:-0.73311 29:-0.7477 30:0.08256 31:-0.5107 32:-0.64679 33:0.15303 34:-1 35:-1 36:-1 37:-0.76471 38:-1 39:-0.01783 40:0.43068 41:0.12436 42:-0.06879 43:-0.83792 44:0.03043 45:0.1378 46:-1 47:0.31198 48:0.79051 49:-0.03121 50:0.02694 51:-0.25541 52:0.4054 53:0.24365 54:-0.24777 55:-0.22799 56:0.50213 
1.643996287973019 1:-0.16755 2:-0.75543 3:0.24884 4:0.16393 5:-1 6:0.08229 7:-1 8:0.1343 9:-0.32205 10:-0.61835 11:0.47761 12:0.50193 13:-0.59259 14:-0.95175 15:-0.1261 16:-0.7806 17:-0.68547 18:-0.09214 19:-1 20:-0.85694 21:0.27572 22:0.14108 23:-0.78881 24:-0.55789 25:-1 26:0.09127 27:-0.50969 28:-0.74346 29:-0.51499 30:-0.44504 31:-0.24751 32:-0.86419 33:0.16445 34:-0.65559 35:-0.74957 36:-0.81129 37:-0.34454 38:-1 39:-0.19985 40:0.22351 41:0.06278 42:-0.08811 43:-0.56379 44:0.09593 45:0.36069 46:-0.44267 47:0.47526 48:0.56294 49:0.00665 50:0.73232 51:-0.27922 52:0.41896 53:0.08536 54:0.35736 55:0.25554 56:0.40624 
2 1:-1 2:-1 3:0.04702 4:0.19305 5:-1 6:0.16995 7:-1 8:-0.23126 9:0.09127 10:-0.65481 11:0.30485 12:0.28228 13:-0.69505 14:-0.90972 15:-0.3695 16:-1 17:-0.41145 18:-0.05393 19:-1 20:-0.46459 21:0.06348 22:0.00983 23:-0.20958 24:-0.34386 25:-1 26:0.15894 27:-0.08251 28:-1 29:-1 30:-0.48075 31:-1 32:-1 33:-0.11715 34:-0.48441 35:-1 36:-1 37:-0.79832 38:-1 39:-0.00669 40:-0.10159 41:0.23453 42:0.30244 43:-0.76678 44:0.14606 45:0.21121 46:-1 47:0.22866 48:0.30381 49:0.60464 50:0.54602 51:0.07085 52:0.62899 53:0.42238 54:0.30554 55:0.39619 56:0.35435 
0.7696579387404381 1:-0.59027 2:0.80555 3:-0.26054 4:0.47237 5:-1 6:0.49226 7:-1 8:0.67122 9:0.0495 10:-0.49922 11:-0.61701 12:0.01989 13:-1 14:-1 15:-0.61095 16:-0.67604 17:-1 18:-0.30231 19:-1 20:-1 21:-0.20065 22:-0.0531 23:-1 24:-0.06745 25:-0.5026 26:0.39494 27:0.44792 28:-0.84848 29:-0.42709 30:-0.59027 31:0.1111 32:-0.79948 33:-0.66513 34:-1 35:-0.26041 36:-1 37:-0.79832 38:-0.06598 39:-0.49851 40:0.43944 41:-0.99517 42:-0.2189 43:-0.81597 44:0.0183 45:0.03237 46:-0.17707 47:0.09476 48:0.67749 49:-0.50742 50:-0.11167 51:-0.59675 52:0.56071 53:-0.71215 54:-0.00119 55:-1 56:-0.90673 
0.1207611529905942 1:-1 2:-0.13424 3:0.42644 4:0.36109 5:-0.71071 6:0.13704 7:-0.66909 8:0.30982 9:-0.20216 10:-0.80633 11:0.54506 12:0.39804 13:-0.90385 14:-0.80074 15:0.24633 16:-0.87055 17:-0.81443 18:0.23451 19:-0.51508 20:-0.94373 21:0.538 22:-0.20219 23:-1 24:-0.35517 25:-0.40376 26:0.21012 27:-1 28:-0.75783 29:-0.65661 30:-0.18141 31:-0.77801 32:-0.83975 33:0.06823 34:-0.91872 35:-0.70447 36:-1 37:-0.39496 38:-0.44017 39:-0.17979 40:0.45976 41:-0.35497 42:-0.13171 43:-0.70586 44:0.08622 45:0.31798 46:-0.67117 47:0.54967 48:0.71007 49:0.49514 50:0.44164 51:-0.40623 52:0.5861 53:0.02182 54:0.42406 55:0.0145 56:0.36223 
0.4672752132788461 1:-0.77459 2:-0.40401 3:0.26781 4:0.2009 5:-1 6:0.4173 7:-0.5444 8:0.19592 9:-0.43402 10:-0.11798 11:0.2404 12:0.39032 13:-0.86762 14:-0.88243 15:0.13196 16:-1 17:-0.7445 18:-0.0453 19:-1 20:-0.92252 21:0.69416 22:-0.06672 23:-1 24:-0.08889 25:0.36819 26:0.23401 27:-0.60171 28:-0.33316 29:-1 30:-0.32378 31:-0.38874 32:-0.66905 33:-0.43028 34:-0.77619 35:-0.59312 36:-1 37:-0.76471 38:-1 39:-0.23477 40:0.37928 41:0.00362 42:-0.00587 43:-0.49379 44:0.11554 45:0.30931 46:-1 47:0.44058 48:0.61232 49:0.19018 50:0.51178 51:-0.28041 52:0.61297 53:0.32265 54:-0.32877 55:0.34467 56:-0.16913 
1.693638732058929 1:-1 2:-1 3:-0.02321 4:0.1587 5:-1 6:0.3052 7:-1 8:0.14737 9:0.52547 10:-0.72257 11:0.33221 12:-0.01633 13:-0.68356 14:-0.62528 15:0.03372 16:-0.57397 17:-1 18:-0.18891 19:-1 20:-1 21:0.14319 22:0.24421 23:-1 24:-0.75322 25:-0.34588 26:0.2886 27:0.90412 28:-1 29:0.13014 30:-1 31:-1 32:-0.4726 33:-0.1851 34:-0.46499 35:-1 36:-1 37:-0.7479 38:0.22831 39:-0.48663 40:-0.03147 41:0.36825 42:0.06174 43:-0.51598 44:-0.19115 45:-0.31532 46:-1 47:0.42517 48:0.38068 49:0.15777 50:0.43154 51:0.1026 52:0.28239 53:0.26989 54:0.50149 55:0.22535 56:0.39179 
0.01289497033944495 1:-1 2:-0.73935 3:0.11806 4:0.16654 5:-1 6:-0.00766 7:-0.40225 8:-0.2235 9:-0.27705 10:0.05306 11:0.35769 12:0.27516 13:-0.47895 14:-0.84574 15:0.06109 16:-0.76617 17:-0.32958 18:0.11803 19:-1 20:-0.69506 21:0.52688 22:0.07996 23:-1 24:-0.02105 25:-0.64098 26:0.20614 27:0.04512 28:-0.56254 29:-0.79323 30:-0.70426 31:-0.599 32:-0.42105 33:0.10682 34:-0.70635 35:-1 36:-1 37:-0.71429 38:-1 39:-0.25186 40:0.6749 41:0.31331 42:0.12335 43:-0.33584 44:-0.34519 45:0.65832 46:-0.40601 47:0.44684 48:0.79381 49:-0.10592 50:0.50112 51:-0.27486 52:0.39283 53:0.25138 54:-0.72722 55:0.16617 56:-0.14483 
0.3414065629590914 1:-1 2:-0.68485 3:0.10313 4:0.06385 5:-1 6:-0.30878 7:-0.27728 8:0.25022 9:0.27705 10:-0.601 11:0.30073 12:0.43841 13:-0.37 14:-0.81349 15:-0.47898 16:-0.15182 17:-0.5947 18:-0.17288 19:-1 20:-0.75419 21:0.01529 22:0.21821 23:-1 24:-0.62144 25:-0.13181 26:-0.00028 27:-1 28:-1 29:-0.49999 30:-1 31:-0.51516 32:-0.65 33:-0.36776 34:-0.82248 35:0.29091 36:0.45909 37:-0.84874 38:-1 39:0.22883 40:0.25299 41:-0.34712 42:0.01266 43:-1 44:0.29728 45:0.33066 46:-0.28183 47:0.48152 48:0.70727 49:0.15061 50:-0.40797 51:-0.75471 52:0.60532 53:-0.31409 54:-0.00476 55:0.19947 56:-0.46207 
0.6756406991302004 1:-0.34307 2:-0.42101 3:0.10111 4:0.25429 5:-1 6:0.25371 7:-0.33611 8:0.15024 9:0.36958 10:-0.7883 11:0.15496 12:0.50668 13:-0.8071 14:-0.88578 15:-0.59335 16:-0.74029 17:-1 18:0.52481 19:-1 20:-0.8871 21:-0.28221 22:-0.10059 23:1 24:-0.14113 25:-0.60125 26:0.07649 27:0.16077 28:-1 29:-0.77035 30:-1 31:0.78148 32:0.12526 33:-0.38516 34:-1 35:-1 36:-1 37:-0.84874 38:-1 39:-0.73997 40:0.25179 41:-0.80169 42:-0.04582 43:-0.85247 44:0.27504 45:0.5956 46:-0.34029 47:0.64889 48:0.59679 49:-0.23282 50:-0.87205 51:-0.59119 52:0.80993 53:-0.02983 54:0.16021 55:-0.10483 56:-0.56125 
0.9193343619903838 1:-0.67759 2:-0.71584 3:0.45146 4:0.23525 5:-1 6:0.68356 7:-0.34835 8:0.38164 9:-0.68245 10:-0.86149 11:0.50459 12:0.28762 13:-0.62131 14:-0.88789 15:-0.13294 16:0.01967 17:-1 18:-0.18952 19:-0.04506 20:-0.88919 21:0.31047 22:-0.07795 23:0.47233 24:-0.63392 25:-0.6086 26:0.60876 27:-1 28:-0.88077 29:-0.77459 30:0.28961 31:-1 32:-0.84221 33:-0.06388 34:-1 35:-1 36:-0.56147 37:-0.71429 38:-0.63251 39:0.28529 40:0.83108 41:-0.12919 42:0.14267 43:-0.42077 44:-0.19721 45:-0.12045 46:-0.35245 47:0.38495 48:0.58076 49:-0.19461 50:0.39394 51:-0.24985 52:0.24541 53:-0.29724 54:0.44074 55:-0.26297 56:-0.03251 
0.06978124860961515 1:-1 2:-0.7135 3:0.20484 4:0.3891 5:-0.42562 6:0.19439 7:-1 8:0.48492 9:0.13483 10:-0.58135 11:0.13847 12:0.13565 13:-0.80909 14:-0.94348 15:-0.00782 16:-0.48596 17:-0.63155 18:0.16364 19:-1 20:-1 21:0.1367 22:-0.14942 23:-0.50517 24:-0.22963 25:-1 26:0.43304 27:0.14876 28:-1 29:-1 30:-0.34987 31:-0.55923 32:-0.84091 33:-0.01223 34:-0.83861 35:-1 36:-1 37:-0.79832 38:-0.62948 39:-0.7786 40:0.4008 41:-0.30697 42:0.24475 43:-0.854 44:0.27646 45:-0.09243 46:-1 47:0.35509 48:0.68105 49:-0.29115 50:-0.41975 51:-0.98174 52:0.81117 53:-0.00773 54:0.47052 55:-0.1101 56:-0.74975 
0.1843281809077698 1:-0.6909 2:-0.45514 3:-0.03855 4:0.38237 5:-1 6:0.02656 7:-1 8:0.16964 9:0.50675 10:-0.62838 11:0.07926 12:-0.09706 13:-0.81847 14:-0.94626 15:-0.07967 16:-0.2668 17:-0.29928 18:0.15316 19:-1 20:-0.78752 21:-0.22428 22:0.29793 23:-0.05893 24:-0.58986 25:0.12574 26:0.52403 27:-1 28:-1 29:-0.35167 30:-0.0727 31:-0.58089 32:-0.39489 33:-0.7608 34:-1 35:-0.44206 36:-1 37:-0.86555 38:-1 39:-0.04829 40:0.45697 41:0.14428 42:0.50189 43:-1 44:0.25341 45:0.4321 46:0.86248 47:0.48079 48:0.79076 49:0.35016 50:-0.37542 51:-0.58285 52:0.7557 53:-0.14779 54:0.1221 55:0.02983 56:-0.31823 
0.5756539882296021 1:-1 2:-0.70622 3:0.29364 4:-0.04182 5:-0.41103 6:0.08815 7:-0.32628 8:0.42373 9:0.65293 10:-0.59219 11:-0.04703 12:-0.02107 13:-0.60847 14:-0.88409 15:-0.26637 16:-0.47288 17:-0.24435 18:0.11926 19:-1 20:-0.88543 21:0.01483 22:-0.209 23:-1 24:-0.19064 25:-0.59535 26:0.09866 27:-1 28:-0.87674 29:-0.76695 30:1 31:-0.09604 32:-1 33:-1 34:-1 35:-1 36:0.36016 37:-0.83193 38:-0.24011 39:-0.07281 40:0.26574 41:-0.80924 42:-1 43:-0.85029 44:0.23036 45:0.10177 46:-1 47:0.5292 48:0.18646 49:0.41634 50:-0.72334 51:-0.73526 52:0.67829 53:-0.37514 54:-0.00238 55:-0.01426 56:-0.65123 
0.5722742672273354 1:-1 2:-0.44533 3:0.20081 4:0.01195 5:0.66801 6:0.2524 7:-1 8:0.11261 9:0.06643 10:-0.21895 11:0.50309 12:-0.24963 13:-0.8152 14:-0.89058 15:-0.20283 16:-0.5024 17:-0.28667 18:-0.10878 19:-0.06799 20:-0.89185 21:0.14411 22:-0.21485 23:-1 24:-0.19454 25:-1 26:0.15439 27:0.11201 28:-0.88364 29:-0.34 30:-0.68533 31:-1 32:-0.538 33:-0.40364 34:-1 35:-1 36:-0.144 37:-0.81513 38:-1 39:-0.51783 40:0.05418 41:0.46393 42:0.09333 43:-0.576 44:-0.20267 45:0.09643 46:-1 47:0.61565 48:0.48021 49:0.15368 50:0.13019 51:-0.32169 52:0.42093 53:0.29061 54:-0.12269 55:0.10315 56:-0.04433 
0.6871241655866178 1:-0.47026 2:-1 3:0.33441 4:-0.02801 5:-0.53198 6:0.08359 7:-1 8:0.7166 9:-0.09883 10:0.44121 11:0.44388 12:-0.18848 13:-1 14:-0.9079 15:-0.39785 16:-0.58115 17:-1 18:-0.06687 19:-1 20:-0.81792 21:-0.13392 22:-0.22608 23:-1 24:0.02924 25:-0.3569 26:-0.04123 27:-0.06397 28:-0.6082 29:-1 30:-0.20539 31:0.07744 32:-0.74074 33:-0.35798 34:-0.737 35:-1 36:-0.63973 37:-0.61345 38:-1 39:-0.80238 40:0.41514 41:-0.06852 42:0.0949 43:-0.88103 44:-0.10583 45:0.31532 46:-1 47:0.39338 48:0.64821 49:0.16868 50:0.18182 51:-0.37726 52:0.50894 53:0.18398 54:-0.29899 55:0.1101 56:0.06798 
0.3185522124097279 1:-0.24721 2:-0.66827 3:0.32109 4:0.05377 5:-1 6:-0.08718 7:-1 8:0.35234 9:-0.19784 10:-0.66877 11:0.18231 12:-0.14752 13:-0.77895 14:-1 15:-0.21212 16:-0.40478 17:-0.14673 18:-0.25794 19:-1 20:-0.74126 21:0.62187 22:0.00744 23:-1 24:-0.30175 25:-0.54307 26:0.10492 27:-1 28:-0.58243 29:-0.73685 30:0.12918 31:-0.48964 32:-0.44737 33:-0.28187 34:-1 35:0.35885 36:-1 37:-0.84874 38:0.28708 39:-0.07504 40:0.55976 41:0.2943 42:-0.38441 43:-1 44:0.20691 45:0.03837 46:-1 47:0.54052 48:0.5329 49:0.05134 50:-0.21773 51:-0.44592 52:0.73623 53:0.12459 54:0.324 55:-0.20618 56:-0.29589 
0.2361373892407315 1:-1 2:-1 3:0.12654 4:-0.13294 5:0.28406 6:0.09989 7:-1 8:0.98061 9:-0.01458 10:-0.61781 11:-0.19768 12:0.20392 13:-1 14:-0.93682 15:-0.28935 16:-0.7127 17:-1 18:-0.05886 19:-1 20:-1 21:0.31789 22:-0.04946 23:-0.44687 24:-0.18947 25:-0.55889 26:0.41598 27:-0.35796 28:-0.19379 29:-1 30:-0.63664 31:-0.01463 32:-0.64434 33:-0.63142 34:-0.63921 35:0.31176 36:-1 37:-0.81513 38:-0.58583 39:0.50074 40:0.58924 41:-0.43435 42:0.04503 43:-1 44:0.15577 45:0.67234 46:0.45958 47:0.30716 48:0.8908 49:0.04076 50:-0.52862 51:-0.75432 52:0.67139 53:-0.20387 54:0.02144 55:-0.42566 56:-0.55862 
0.2061984562839393 1:-0.36941 2:-0.44422 3:0.44339 4:0.34765 5:0.11423 6:0.21851 7:-1 8:0.56981 9:0.17624 10:-0.58718 11:0.18456 12:0.0466 13:-1 14:-0.94518 15:-0.2522 16:-0.7507 17:-1 18:0.7849 19:-1 20:-0.89163 21:0.1886 22:0.01693 23:-1 24:-0.48499 25:-0.23447 26:0.46602 27:0.11423 28:-0.8834 29:-1 30:-0.6847 31:-0.57248 32:-0.84569 33:-0.37864 34:-0.68693 35:0.13826 36:-1 37:-0.79832 38:-0.64062 39:-0.40565 40:0.5506 41:0.07154 42:-0.07714 43:-1 44:0.19964 45:0.46213 46:-1 47:0.60289 48:0.74545 49:0.54392 50:-0.37598 51:-0.24152 52:0.65389 53:0.24834 54:0.23347 55:0.32958 56:-0.34122 
0.2189956558877655 1:-0.67759 2:-0.43169 3:0.10071 4:0.00597 5:-0.43032 6:0.20091 7:-1 8:0.20052 9:0.49307 10:-0.6193 11:-0.14634 12:0.28762 13:-1 14:-0.94394 15:-0.3827 16:-0.49016 17:-0.26912 18:-0.31587 19:0.90987 20:-0.77837 21:0.05005 22:-0.15643 23:-0.50921 24:-0.4347 25:-0.21721 26:0.20159 27:0.13936 28:-0.64233 29:-0.77459 30:-0.0328 31:-0.12567 32:-0.84221 33:-0.59174 34:-1 35:-1 36:0.31556 37:-0.86555 38:-1 39:-0.43611 40:0.34263 41:-0.52822 42:-0.24266 43:-0.85519 44:0.25685 45:0.35669 46:-0.35245 47:0.40951 48:0.68461 49:-0.03838 50:-0.26487 51:-0.57452 52:0.7488 53:-0.1989 54:0.07504 55:-0.33605 56:-0.46864 
1.120194043275541 1:-0.88389 2:-0.89766 3:0.25853 4:0.18559 5:-0.3845 6:0.53137 7:-1 8:-0.40419 9:-0.08227 10:-0.5907 11:0.40753 12:0.26684 13:0.02288 14:-0.59624 15:-0.09775 16:-0.81639 17:-0.86839 18:0.01941 19:-0.65609 20:-0.80046 21:0.00741 22:-0.11565 23:-0.6465 24:-0.5575 25:-0.71808 26:0.49616 27:-0.79483 28:-0.65649 29:-0.43173 30:-0.76778 31:-0.2128 32:-0.65904 33:-0.56782 34:-0.88471 35:-1 36:-0.36827 37:-0.54622 38:-0.47061 39:-0.09658 40:-0.30677 41:0.16843 42:0.08445 43:-0.11341 44:0.07288 45:0.4975 46:-0.76679 47:0.63612 48:0.21242 49:0.1622 50:0.47475 51:-0.49196 52:0.47664 53:0.1221 54:0.33651 55:0.26632 56:-0.04368 
0.4265292591744362 1:-1 2:-0.69116 3:0.30454 4:0.3581 5:-1 6:0.51116 7:-1 8:0.17509 9:0.07435 10:-0.53392 11:0.44913 12:-0.22707 13:-1 14:-1 15:0.12805 16:-0.44589 17:-0.60282 18:0.36456 19:0.03789 20:-0.87956 21:-0.11724 22:0.25783 23:-0.46658 24:0.06433 25:-1 26:0.2323 27:-1 28:-0.87042 29:-1 30:-0.64959 31:-0.52486 32:-0.48552 33:-0.95434 34:-0.82603 35:-0.36748 36:-1 37:-0.88235 38:-0.60059 39:-0.16196 40:-0.04661 41:0.27739 42:-0.01501 43:-0.84261 44:0.0191 45:0.78111 46:-1 47:0.33173 48:0.5889 49:0.20314 50:-1 51:-0.73328 52:0.76211 53:-0.07956 54:-0.12686 55:-0.01857 56:-0.80033 
0.1994500731026293 1:-0.32037 2:-0.70051 3:-0.20242 4:-0.04742 5:-1 6:-0.20939 7:-1 8:0.16777 9:0.52835 10:-0.76648 11:0.14559 12:0.10359 13:-0.60086 14:-1 15:-0.29765 16:-1 17:-1 18:-0.59569 19:-1 20:-0.64961 21:0.49259 22:0.0131 23:-0.48273 24:-0.44873 25:-1 26:0.73273 27:-1 28:-0.74867 29:-0.76242 30:-0.66019 31:-0.07846 32:-0.8337 33:-0.85322 34:-1 35:0.22679 36:-0.5378 37:-0.79832 38:-0.22533 39:-0.73997 40:0.62112 41:-0.06459 42:-0.17269 43:-0.84737 44:0.22673 45:-0.05172 46:-1 47:0.22264 48:0.89309 49:-0.01484 50:-0.24523 51:-0.84164 52:0.6603 53:-0.48481 54:0.18046 55:-0.36025 56:-0.7156 
0.9587661519629376 1:-1 2:0.33762 3:-0.30777 4:0.34391 5:-1 6:0.32149 7:-1 8:0.66087 9:0.64068 10:-0.70699 11:-0.17219 12:0.13565 13:-1 14:-0.91204 15:-0.28201 16:1 17:-1 18:-0.36579 19:-1 20:-0.65224 21:0.75765 22:-0.01607 23:-1 24:-0.54659 25:-0.38586 26:0.53426 27:-1 28:-0.43876 29:0.06109 30:0.01179 31:-0.31405 32:-1 33:-0.97228 34:-1 35:0.82636 36:-1 37:-0.91597 38:-1 39:-0.20431 40:-0.04781 41:-0.66647 42:-0.06044 43:-1 44:0.36339 45:0.16783 46:0.01607 47:-0.24985 48:0.48785 49:0.14754 50:-0.65264 51:-1 52:0.39948 53:-1 54:-0.35736 55:-0.7072 56:-1 
1.33697877652895 1:-0.26343 2:-0.74032 3:0.10838 4:0.10568 5:-0.73971 6:0.10934 7:-0.70226 8:0.42014 9:-0.2198 10:-0.41831 11:0.35807 12:0.38557 13:-0.39438 14:-0.92316 15:-0.13343 16:-0.88352 17:-0.66604 18:0.59076 19:-0.12731 20:-0.74683 21:-0.21826 22:-0.32691 23:-1 24:-0.16023 25:-0.82117 26:0.16747 27:0.0412 28:-0.45523 29:-0.69101 30:-0.41074 31:-0.80026 32:-0.42322 33:-0.14596 34:-0.56117 35:-1 36:-0.59924 37:-0.05882 38:-0.83209 39:-0.23626 40:0.4239 41:0.06791 42:-0.03929 43:-0.8015 44:0.03851 45:0.18986 46:-0.70413 47:0.12294 48:0.62836 49:0.19154 50:-0.24467 51:-0.09069 52:0.62455 53:0.23343 54:-0.09708 55:0.26273 56:0.42594 
0.06228043240766541 1:-1 2:-0.37396 3:0.26176 4:0.12808 5:-0.37247 6:0.10184 7:-1 8:0.73499 9:0.49091 10:-0.77882 11:-0.2048 12:0.03532 13:-0.58284 14:-1 15:0.15738 16:-0.43837 17:-0.59745 18:0.06626 19:-1 20:-1 21:-0.00324 22:-0.11412 23:0.08127 24:-0.05341 25:-0.13769 26:0.41939 27:-0.37247 28:-1 29:-0.7517 30:0.77577 31:-0.03686 32:-0.30474 33:-0.69829 34:-1 35:-1 36:-0.51694 37:-0.81513 38:-1 39:0.22214 40:0.41315 41:-0.92907 42:0.20846 43:-1 44:0.12746 45:0.48282 46:-1 47:0.36328 48:0.8964 49:0.19393 50:-0.01964 51:-0.59873 52:0.74609 53:-0.30691 54:0.36748 55:-0.09405 56:-0.12118 
0.1468383488864691 1:-0.81833 2:-1 3:0.69687 4:0.3835 5:-1 6:0.39873 7:-1 8:0.15872 9:0.23492 10:-0.90228 11:0.46075 12:0.32383 13:-0.7866 14:-0.93682 15:0.17546 16:-0.7127 17:-0.58814 18:-0.07612 19:-1 20:-0.75022 21:0.55746 22:0.10654 23:-0.44687 24:-0.76179 25:-0.55889 26:0.13733 27:-1 28:-0.93282 29:-0.36489 30:-0.81833 31:-0.50731 32:-0.28868 33:0.26013 34:-0.90981 35:-1 36:-0.25866 37:-0.51261 38:-0.58583 39:-0.07578 40:0.65777 41:-0.17597 42:-0.50946 43:-1 44:0.04478 45:0.4995 46:-0.2702 47:0.36183 48:0.64847 49:0.0104 50:0.64927 51:-0.35384 52:0.55035 53:0.43094 54:0.433 55:-0.06937 56:0.31034 
0.4383883364609931 1:-1 2:-0.06726 3:0.10272 4:0.31703 5:0.86998 6:0.19863 7:-1 8:0.33482 9:0.12115 10:-0.09589 11:0.38617 12:-0.36242 13:-0.79282 14:-0.93866 15:-0.36315 16:-0.44215 17:-0.60014 18:-0.07612 19:-1 20:-0.87875 21:0.15941 22:-0.2917 23:-1 24:-0.12476 25:-1 26:0.13449 27:0.24664 28:-0.86954 29:-0.50673 30:-0.64723 31:-0.52166 32:-0.65471 33:-0.26556 34:-1 35:-1 36:-0.04036 37:-0.86555 38:-1 39:-0.53195 40:0.01474 41:0.32448 42:-0.19488 43:-0.52466 44:-0.06257 45:-0.18785 46:-1 47:0.51547 48:0.273 49:0.04622 50:0.20651 51:-0.39988 52:0.23777 53:0.14641 54:-0.09827 55:0.05739 56:0.32611 
1.179958702938991 1:-0.83928 2:-0.57507 3:0.2448 4:0.39731 5:-1 6:0.39351 7:-1 8:-0.07024 9:-0.06787 10:-0.6235 11:0.40903 12:0.34758 13:-0.43371 14:-0.80441 15:0.2043 16:-0.87293 17:-0.63568 18:-0.049 19:-1 20:-0.61334 21:-0.23077 22:0.0768 23:-1 24:-0.17739 25:-0.21961 26:0.12994 27:-1 28:-0.70285 29:-0.66292 30:-0.35717 31:-0.56418 32:0.02248 33:-0.31231 34:-0.92021 35:-0.7099 36:-0.34422 37:-0.44538 38:-0.81681 39:-0.26597 40:0.14024 41:0.25687 42:-0.07506 43:-0.63908 44:0.13858 45:0.5956 46:-0.35444 47:0.4047 48:0.47181 49:0.06771 50:0.68182 51:-0.46339 52:0.62357 53:0.14006 54:0.22811 55:0.17168 56:0.32085 
2 1:-1 2:-0.64895 3:0.10555 4:-0.0758 5:-1 6:0.34202 7:-1 8:0.2156 9:0.49883 10:-0.41967 11:0.30972 12:0.43544 13:-0.53215 14:-1 15:-0.31623 16:-0.68507 17:-1 18:0.5433 19:-1 20:-0.58929 21:-0.019 22:0.13868 23:-1 24:0.59454 25:-0.03291 26:0.43588 27:-1 28:-1 29:-0.44304 30:-1 31:-0.45993 32:-0.41519 33:0.2237 34:-1 35:-1 36:-1 37:-0.69748 38:-0.546 39:-0.27117 40:0.39761 41:-0.26622 42:0.07166 43:-0.46329 44:0.05469 45:0.00567 46:-1 47:0.5593 48:0.48174 49:0.28228 50:-0.22054 51:0.09903 52:0.49267 53:0.26436 54:0.3508 55:0.12448 56:0.67422 
0.310428220352604 1:-1 2:-1 3:0.11927 4:0.74347 5:-1 6:-0.32606 7:-1 8:0.55358 9:0.1802 10:-0.71729 11:0.28274 12:0.27991 13:-0.82024 14:-1 15:-0.52981 16:-1 17:-0.30609 18:-0.18336 19:-1 20:-0.89479 21:0.05746 22:0.02461 23:-1 24:0.0117 25:-1 26:0.00028 27:-0.45915 28:-0.88681 29:-1 30:-0.3878 31:-0.58496 32:-0.55058 33:-0.56456 34:-1 35:0.10507 36:-1 37:-0.81513 38:0.74449 39:-0.05498 40:0.09243 41:0.34078 42:0.4288 43:-1 44:0.10785 45:0.27194 46:-0.38522 47:0.3693 48:0.62123 49:-0.10728 50:-0.17116 51:-0.64239 52:0.73327 53:0.36906 54:0.18344 55:-0.20834 56:-0.5619 
0.8585066742702646 1:-0.80766 2:-1 3:0.19112 4:0.24272 5:-1 6:0.08587 7:-0.22249 8:0.29029 9:-0.23672 10:-0.71065 11:0.35957 12:0.2989 13:-0.77408 14:-0.93312 15:0.05181 16:-0.84792 17:-0.78199 18:-0.00401 19:-0.43031 20:-0.86778 21:0.24328 22:-0.13321 23:-0.41442 24:-0.22729 25:-1 26:0.09355 27:-1 28:-0.78662 29:-0.73105 30:-0.80766 31:-0.4784 32:-0.4352 33:0.16553 34:-0.80902 35:-0.30562 36:-0.47677 37:-0.51261 38:-0.34229 39:0.21248 40:0.45777 41:0.12647 42:0.10351 43:-0.74083 44:0.22066 45:0.5342 46:-1 47:0.59591 48:0.59654 49:-0.19632 50:0.60831 51:-0.48641 52:0.76236 53:0.16989 54:0.46516 55:0.16185 56:0.27882 
0.3267525356565035 1:-1 2:-0.42818 3:0.16327 4:-0.07207 5:-1 6:0.43034 7:-0.34431 8:0.448 9:0.15104 10:-0.7631 11:0.15833 12:-0.10893 13:-1 14:-0.9436 15:-0.23412 16:-1 17:-1 18:-0.18644 19:-1 20:-0.6655 21:0.54356 22:0.14491 23:-0.50617 24:-0.23119 25:-1 26:0.60876 27:-0.42679 28:-1 29:-0.77319 30:0.29759 31:-1 32:-0.68247 33:-0.17912 34:-1 35:-1 36:-0.55875 37:-0.89916 38:0.10929 39:0.21545 40:0.72948 41:0.11319 42:-0.27581 43:-1 44:0.09997 45:0.62963 46:-1 47:0.44299 48:0.73425 49:-0.35869 50:0.33221 51:-0.81822 52:0.58314 53:-0.0489 54:0.31745 55:0.21121 56:-0.34187 
0.07844685438323531 1:-0.67693 2:-0.43052 3:0.53502 4:1 5:-0.42915 6:0.44924 7:-1 8:0.88351 9:0.12871 10:-0.5701 11:-0.20517 12:-0.07747 13:-1 14:-0.94383 15:-0.03275 16:-1 17:-1 18:0.22157 19:-1 20:-0.66688 21:0.21362 22:-0.0367 23:-0.50821 24:-0.05458 25:-0.6078 26:0.63776 27:0.1417 28:-0.76106 29:-0.32238 30:0.29227 31:-0.56194 32:-0.84189 33:-0.56619 34:-0.83961 35:0.16632 36:-0.12115 37:-0.88235 38:-0.63176 39:0.13522 40:0.50478 41:-0.14639 42:0.47526 43:-0.85489 44:-0.00212 45:0.80047 46:0.29775 47:0.26069 48:0.44966 49:0.32594 50:-0.58305 51:-0.49276 52:0.72341 53:-0.3558 54:0.04407 55:-0.24021 56:-0.10148 
0.1840877548220631 1:-0.60269 2:-0.64983 3:0.18184 4:-0.30993 5:-0.29796 6:0.30259 7:-1 8:0.67035 9:-0.02394 10:0.00806 11:0.47536 12:-0.31315 13:-1 14:-0.93092 15:-0.25415 16:-0.37172 17:-1 18:0.42373 19:-1 20:-0.59032 21:-0.01622 22:-0.15422 23:-0.39519 24:-0.04522 25:-1 26:0.18567 27:-0.29796 28:-0.85307 29:-0.44444 30:-0.60269 31:-0.46127 32:-0.80555 33:-0.0492 34:-1 35:-0.28282 36:-0.45959 37:-0.84874 38:-1 39:-0.50594 40:0.07251 41:0.09659 42:-0.13928 43:-0.6431 44:-0.19842 45:-0.11845 46:-0.202 47:0.31824 48:0.37152 49:0.45557 50:-0.04097 51:-0.02798 52:0.21484 53:0.05718 54:-0.58547 55:0.11058 56:0.30246 
1.734984953373427 1:-0.82936 2:-0.39841 3:0.30979 4:0.27446 5:-1 6:0.37364 7:-0.31019 8:0.38538 9:0.35158 10:-0.8825 11:0.46862 12:0.47343 13:-0.69935 14:-0.88132 15:-0.0738 16:-0.86508 17:-0.41974 18:0.32265 19:-1 20:-0.94135 21:0.4393 22:0.0082 23:-0.74024 24:-0.1614 25:-0.79284 26:0.16406 27:-1 28:-0.68448 29:-0.40347 30:-0.65871 31:-0.53724 32:-0.24837 33:0.16934 34:-0.83056 35:-1 36:-0.30369 37:-0.57983 38:-0.61099 39:-0.15676 40:0.63108 41:-0.24027 42:-0.30427 43:-0.84671 44:-0.03689 45:0.32466 46:-0.65727 47:0.34834 48:0.52679 49:0.3679 50:0.15713 51:-0.26136 52:0.49217 53:0.00746 54:0.34008 55:0.06122 56:0.46667 
0.5338520243273779 1:-0.50833 2:0.3 3:0.33158 4:0.28342 5:-1 6:0.1126 7:-1 8:0.08862 9:-0.46427 10:-0.91557 11:-0.33034 12:-0.09528 13:-1 14:-1 15:-0.27419 16:-1 17:-0.44271 18:0.29738 19:-1 20:-1 21:0.04588 22:-0.07354 23:-0.25156 24:-0.0425 25:-1 26:0.57976 27:-1 28:-0.81818 29:-0.65625 30:-0.01667 31:1 32:-0.75937 33:-0.84724 34:-0.7559 35:-0.11251 36:-1 37:-0.89916 38:-0.43958 39:-0.45097 40:0.7498 41:0.099 42:0.02441 43:-1 44:-0.12302 45:0.8038 46:-1 47:0.79362 48:0.60494 49:-0.38769 50:-0.34343 51:-0.59198 52:0.50968 53:-0.05608 54:0.50149 55:-0.61567 56:-0.54023 
0.7566243992457069 1:-0.71702 2:-1 3:0.31544 4:0.35474 5:-1 6:0.06502 7:0.14388 8:0.53117 9:-0.41638 10:0.09738 11:0.54581 12:-0.07747 13:-1 14:-0.8524 15:0.08016 16:-0.77625 17:-1 18:0.44407 19:-1 20:-0.80548 21:0.71733 22:-0.15604 23:-1 24:0.02612 25:-0.31295 26:0.42678 27:0 28:-0.79071 29:-0.80215 30:-0.71702 31:-0.6163 32:-0.86151 33:-0.19489 34:-0.43805 35:-1 36:-0.23022 37:-0.7479 38:-0.35492 39:-0.37296 40:0.53506 41:0.06278 42:0.36275 43:-0.49161 44:-0.1772 45:0.44611 46:-1 47:0.19061 48:0.95724 49:0.05884 50:-0.28002 51:0.3082 52:0.28263 53:0.33343 54:-0.514 55:-0.01929 56:0.25057 
1.327355430992523 1:-0.75645 2:-0.78534 3:0.17376 4:0.26886 5:-0.56965 6:0.03145 7:-0.50774 8:-0.36872 9:-0.46751 10:-0.14576 11:0.41353 12:0.02107 13:0.00124 14:-0.6189 15:0.06794 16:-1 17:-0.44788 18:0.07612 19:-1 20:-0.74887 21:0.59036 22:0.08246 23:-1 24:-0.24522 25:-1 26:0.03042 27:-1 28:-0.54968 29:-1 30:-0.75645 31:-0.33952 32:-0.40403 33:-0.12422 34:-0.75817 35:-1 36:-0.66873 37:-0.66387 38:-1 39:-0.45319 40:0.41116 41:0.16239 42:0.15102 43:-0.01548 44:-0.03305 45:0.54421 46:-0.51083 47:0.34931 48:0.61894 49:0.2659 50:0.36027 51:-0.28676 52:0.37015 53:0.20552 54:-0.21203 55:0.42662 56:0.05353 
0.1801267443736911 1:-1 2:-1 3:0.43491 4:0.54593 5:0.08807 6:0.37983 7:-1 8:0.64694 9:0.22124 10:-0.62323 11:0.00731 12:0.19383 13:-1 14:-0.94647 15:-0.31818 16:-0.51311 17:-1 18:0.69122 19:-1 20:-0.89418 21:0.25487 22:0.18051 23:-0.06262 24:0.13099 25:0.12132 26:0.99602 27:-0.45598 28:-0.77228 29:-0.78474 30:-0.07633 31:-0.16503 32:-0.69863 33:-0.65045 34:-0.84714 35:-0.44424 36:-0.16243 37:-0.76471 38:-0.29811 39:0.20282 40:0.34143 41:0.48566 42:0.40112 43:-1 44:0.19478 45:0.13914 46:-0.38162 47:0.49476 48:0.76734 49:0.56848 50:-0.67003 51:-0.04108 52:0.69604 53:0.27265 54:0.06552 55:-0.01474 56:-0.24992 
0.07967864184382503 1:-0.48472 2:-0.54585 3:0.53138 4:0.39694 5:-0.69651 6:0.28076 7:-1 8:0.16762 9:-0.05095 10:-0.75618 11:0.47911 12:0.32977 13:-0.89913 14:-0.88055 15:0.13881 16:-0.72839 17:-0.61063 18:0.16117 19:-0.49126 20:-0.82289 21:0.33411 22:-0.29908 23:-1 24:-0.37895 25:-0.79149 26:0.42451 27:-0.69651 28:-0.87297 29:-0.27948 30:-0.82824 31:-0.7671 32:-0.66376 33:0.18239 34:-0.74418 35:-0.68996 36:-0.76638 37:-0.4958 38:-0.60844 39:-0.35513 40:0.38048 41:-0.20586 42:-0.06383 43:-0.76856 44:0.01526 45:0.48615 46:-0.31004 47:0.44901 48:0.74469 49:-0.28501 50:0.39618 51:-0.35543 52:0.47615 53:0.26602 54:0.38773 55:0.18821 56:0.42857 
0.5537908267117606 1:-0.49573 2:-0.77777 3:0.22543 4:0.17961 5:-1 6:0.1794 7:-1 8:0.25783 9:-0.32349 10:-0.19076 11:0.44313 12:0.08816 13:-0.70385 14:-0.95616 15:0.24633 16:-1 17:-1 18:-0.07057 19:-1 20:-0.91334 21:0.443 22:-0.079 23:-1 24:-0.36023 25:-0.38783 26:0.3068 27:-1 28:-0.81352 29:-0.82371 30:-0.24359 31:-0.65811 32:-0.62981 33:0.00734 34:-1 35:-1 36:-1 37:-0.61345 38:-1 39:-0.53195 40:0.49482 41:0.18895 42:0.00352 43:-0.88675 44:-0.02456 45:0.22189 46:-0.49358 47:0.63396 48:0.99745 49:0.57121 50:0.60494 51:-0.23755 52:0.53803 53:0.31989 54:-0.37999 55:0.34396 56:0.28867 
0.5581368623827174 1:-0.66238 2:-1 3:0.10192 4:0.25429 5:-0.40344 6:-0.04546 7:-0.3176 8:0.65513 9:0.32745 10:-0.78248 11:0.10736 12:0.61235 13:-1 14:-0.8826 15:-0.40029 16:-0.4661 17:-1 18:0.09646 19:1 20:-0.88396 21:0.47173 22:0.12985 23:-1 24:-0.59805 25:-0.59013 26:0.27552 27:-0.40344 28:-0.25088 29:-0.76395 30:-0.66238 31:-0.54221 32:-0.33905 33:-0.23457 34:-1 35:-0.39057 36:-0.54078 37:-0.84874 38:-1 39:0.25409 40:0.64303 41:-0.04286 42:-0.33299 43:-0.84836 44:0.04417 45:0.63163 46:0.35621 47:0.38182 48:0.9356 49:-0.39076 50:0.27273 51:-0.79877 52:0.54345 53:0.20028 54:0.43776 55:0.19564 56:-0.17898 
0.247622778639301 1:-0.80648 2:-0.48832 3:0.52614 4:0.13966 5:-0.65806 6:0.01027 7:-1 8:0.55961 9:0.25257 10:-0.6258 11:0.23253 12:-0.0466 13:-0.7727 14:-1 15:0.00733 16:-0.54096 17:0.53546 18:0.15131 19:-1 20:-0.73394 21:0.49398 22:0.03718 23:-1 24:-0.37817 25:-0.76507 26:0.54507 27:-0.65806 28:-0.78531 29:-1 30:-0.22592 31:0.31202 32:-0.81058 33:-0.43735 34:-1 35:-1 36:-1 37:-0.59664 38:-0.77942 39:-0.48886 40:0.60279 41:-0.39481 42:0.2591 43:-0.82616 44:0.07045 45:0.5956 46:-0.61132 47:0.64503 48:0.92109 49:0.26727 50:-0.13468 51:-0.65549 52:0.70837 53:-0.2058 54:0.30018 55:0.15922 56:-0.0266 
0.02080953924656165 1:-0.35387 2:-0.43052 3:0.12129 4:0.3118 5:-1 6:0.08261 7:-1 8:0.01393 9:0.14707 10:-0.63936 11:0.04441 12:-0.13802 13:-0.81027 14:-0.94383 15:-0.50831 16:-0.48912 17:-1 18:0.253 19:-1 20:-1 21:0.11909 22:0.02231 23:-0.50821 24:0.3037 25:-0.2156 26:0.43418 27:-1 28:-0.88053 29:-0.54825 30:-0.0308 31:-0.56194 32:-0.05134 33:-0.37102 34:-0.83961 35:-1 36:-1 37:-0.81513 38:-0.26351 39:-0.39747 40:0.34183 41:-0.02294 42:0.16799 43:-1 44:0.02881 45:0.42476 46:-1 47:0.65467 48:0.5665 49:-0.26659 50:-0.61167 51:-0.43163 52:0.67287 53:-0.15856 54:0.2573 55:-0.17911 56:-0.37011 
0.2471467751098744 1:-0.73469 2:-0.76617 3:-0.12371 4:0.5056 5:-1 6:0.31465 7:-1 8:0.64809 9:-0.71809 10:-0.27831 11:0.22316 12:0.73523 13:-0.37672 14:-1 15:0.01271 16:-0.58044 17:-0.39854 18:0.11556 19:-1 20:-0.81761 21:0.27294 22:-0.33784 23:-1 24:-0.54269 25:-0.03373 26:0.31646 27:-1 28:-1 29:-0.629 30:-0.46936 31:-0.64026 32:-1 33:-0.54227 34:-1 35:-0.52109 36:-0.63913 37:-0.98319 38:-1 39:-0.5208 40:0.58207 41:-0.8521 42:0.0278 43:-1 44:-0.03022 45:0.98866 46:-1 47:0.46321 48:0.82945 49:1 50:0.03872 51:-0.66025 52:0.22865 53:0.43867 54:-0.45086 55:0.40146 56:-0.3202 
0.6552511714966641 1:-0.82461 2:-0.38164 3:0.36105 4:0.10866 5:-1 6:0.10282 7:-0.64549 8:0.27248 9:0.1766 10:-0.81514 11:0.40716 12:0.35055 13:-0.79398 14:-0.87802 15:0.15543 16:-0.72263 17:-0.60237 18:0.05824 19:-1 20:-0.93972 21:0.2405 22:-0.1453 23:-1 24:-0.46433 25:-1 26:0.05715 27:-0.07022 28:-0.74055 29:-0.01895 30:-0.29841 31:0.18914 32:-0.82831 33:0.22207 34:-0.82584 35:-1 36:-0.76143 37:-0.51261 38:-0.40022 39:-0.45022 40:0.56135 41:-0.43556 42:-0.44289 43:-0.92122 44:-0.28495 45:0.33534 46:-1 47:0.53089 48:0.64414 49:0.01211 50:0.42929 51:-0.33558 52:0.48059 53:-0.38729 54:0.26921 55:0.0466 56:0.45616 
0.3022602738003743 1:-0.00422 2:-0.41491 3:0.22866 4:0.21509 5:-1 6:0.36581 7:-1 8:0.38926 9:0.09955 10:-0.55831 11:0.32959 12:0.04185 13:-1 14:-1 15:-0.5738 16:-0.21266 17:-0.24754 18:0.47242 19:-1 20:-0.88591 21:0.16543 22:-0.13148 23:0.51583 24:0.07212 25:-1 26:0.40006 27:-1 28:-0.75451 29:-0.53587 30:-0.66807 31:-0.09986 32:-0.02532 33:-0.59391 34:-0.67042 35:-1 36:-1 37:-0.86555 38:-0.24332 39:-0.30981 40:0.47729 41:-0.393 42:-0.43689 43:-0.85091 44:0.13535 45:0.49016 46:1 47:0.70861 48:0.63116 49:0.40031 50:-0.53928 51:-0.67295 52:0.88685 53:-0.05221 54:-0.03157 55:-0.13741 56:-0.23087 
0.4985950019671013 1:-1 2:-0.7451 3:0.35782 4:0.0829 5:-1 6:0.28304 7:-0.41545 8:0.4164 9:0.03942 10:0.01199 11:0.22203 12:-0.0003 13:-0.66029 14:-0.79886 15:-0.0303 16:-0.77133 17:-0.67219 18:0.69368 19:-1 20:-1 21:0.87905 22:-0.29592 23:-1 24:-0.20195 25:-0.6489 26:0.3449 27:0.02207 28:-0.89305 29:-0.39338 30:-0.71079 31:-0.21568 32:-1 33:0.06496 34:-0.85642 35:-1 36:-1 37:-0.71429 38:-0.67035 39:-0.56984 40:0.49402 41:0.10232 42:-0.16016 43:-0.4804 44:0.03184 45:0.35068 46:-1 47:0.3599 48:1 49:-0.39553 50:0.10157 51:0.04148 52:0.37039 53:0.18564 54:-1 55:0.06601 56:0.38851 
2 1:-1 2:-1 3:0.14834 4:0.19119 5:-1 6:0.14453 7:0.08165 8:-0.52629 9:0.69757 10:-0.63285 11:0.39629 12:0.08519 13:-0.37143 14:-0.62783 15:-0.29765 16:-0.57687 17:-1 18:-0.40092 19:-1 20:-0.63213 21:0.26738 22:0.17072 23:-0.18536 24:-0.55634 25:-1 26:0.09809 27:-0.0544 28:-0.8021 29:-0.2517 30:-0.46485 31:-1 32:-0.73809 33:0.00353 34:-0.73431 35:-1 36:-1 37:-0.79832 38:-1 39:-0.1107 40:-0.26215 41:0.16662 42:0.42018 43:-0.27891 44:-0.11877 45:0.19987 46:-1 47:0.2053 48:0.02125 49:0.50913 50:0.7211 51:-0.37369 52:0.45322 53:0.15608 54:0.35021 55:0.49155 56:0.33924 
0.7833323094055725 1:-1 2:-0.37113 3:0.35419 4:0.42308 5:-1 6:0.63142 7:-0.2789 8:0.29388 9:0.43654 10:-0.70129 11:0.40678 12:0.26981 13:-1 14:-0.93797 15:-0.42229 16:-0.71791 17:-0.19124 18:0.1396 19:0.05671 20:-1 21:0.62002 22:-0.24027 23:-0.45691 24:-0.07135 25:0.73243 26:0.45124 27:-1 28:-0.86807 29:-1 30:0.07029 31:0.935 32:-0.6508 33:0.12585 34:-1 35:-1 36:-1 37:-0.78151 38:-0.59334 39:-0.57207 40:0.7498 41:-0.05554 42:0.33847 43:-0.67952 44:0.20611 45:0.48215 46:-0.28344 47:0.646 48:0.72254 49:-0.09773 50:0.19697 51:-0.57531 52:0.7732 53:0.21796 54:0.26563 55:0.0109 56:-0.08834 
0.6000790243474973 1:0.07517 2:-0.68413 3:0.33239 4:0.38163 5:-1 6:0.44468 7:-0.27563 8:0.24878 9:0.36094 10:-0.62309 11:0.25764 12:0.23657 13:-1 14:-0.93769 15:-0.64663 16:-0.71663 17:-0.18755 18:-0.38182 19:-1 20:-1 21:0.03939 22:0.04658 23:0.09112 24:0.61637 25:-0.56492 26:0.03042 27:0.26652 28:-0.86747 29:-0.74943 30:0.07517 31:-0.51405 32:-0.12301 33:-0.43137 34:-0.82207 35:-1 36:-1 37:-0.79832 38:-0.5915 39:-0.36033 40:0.47809 41:-0.38364 42:0.01083 43:-0.83903 44:0.12484 45:0.21655 46:-1 47:0.43937 48:0.74952 49:-0.37233 50:-0.09315 51:-0.57452 52:0.7027 53:-0.00359 54:0.23049 55:0.11681 56:-0.09228 
2 1:-0.76359 2:-0.89582 3:0.11039 4:-0.03286 5:-0.58227 6:0.09565 7:-1 8:0.19061 9:-0.28353 10:-0.45423 11:0.25951 12:-0.14277 13:-0.79174 14:-0.85614 15:-0.38368 16:-0.53268 17:-0.46406 18:0.02003 19:-1 20:-0.79685 21:0.15292 22:-0.1429 23:-0.46019 24:0.11462 25:-0.13899 26:0.089 27:-0.79114 28:-0.82515 29:-0.42149 30:-0.76359 31:-0.83972 32:-0.71074 33:-0.13781 34:-0.70657 35:-0.78663 36:-1 37:0.07563 38:-0.5958 39:-0.55869 40:-0.0498 41:0.17446 42:0.20846 43:-0.36288 44:-0.15294 45:0.24458 46:-0.52518 47:0.41746 48:0.06758 49:0.32833 50:0.16947 51:-0.12959 52:-0.37335 53:0.29254 54:-0.00179 55:0.03151 56:0.63087 
0.3302398928284224 1:-0.54064 2:-0.79756 3:0.06559 4:0.34951 5:-1 6:0.28793 7:-1 8:-0.24404 9:-0.09811 10:-0.63489 11:0.34607 12:0.15702 13:-0.59532 14:-0.8802 15:-0.13245 16:-1 17:-0.47932 18:0.57227 19:-1 20:-0.92105 21:0.36562 22:-0.13292 23:-0.30073 24:-0.2 25:-1 26:0.14473 27:-1 28:-0.83013 29:-1 30:-0.77031 31:-0.37713 32:-0.66277 33:-0.15031 34:-0.77194 35:-1 36:-1 37:-0.73109 38:-0.73819 39:-0.71322 40:0.41594 41:-0.12074 42:-0.19149 43:-0.79367 44:0.03629 45:0.54688 46:-0.53867 47:0.61397 48:0.61156 49:0.16459 50:0.01122 51:-0.51697 52:0.62529 53:0.44586 54:0.37105 55:0.11321 56:-0.26043 
0.01036154548823212 1:-0.78239 2:-0.61641 3:0.14995 4:0.46042 5:-1 6:0.42643 7:-1 8:0.71933 9:-0.56148 10:0.38863 11:0.18231 12:0.52508 13:-0.74439 14:-0.88649 15:0.04301 16:-1 17:-0.50668 18:0.33744 19:-0.35547 20:-0.85041 21:0.46803 22:-0.41699 23:-0.66875 24:-0.23977 25:-0.47164 26:0.30509 27:0.53804 28:-0.19527 29:-0.84786 30:-0.56477 31:0.18027 32:-0.6805 33:-0.04267 34:-0.56785 35:-1 36:-1 37:-0.56303 38:-0.75196 39:-0.43239 40:0.44701 41:0.05131 42:-0.23848 43:-0.80451 44:-0.06237 45:0.48015 46:-0.56294 47:0.10367 48:0.70065 49:-0.06805 50:0.0853 51:-0.38004 52:0.45322 53:0.4221 54:-0.85468 55:0.05571 56:0.29589 
0.6195897560861112 1:-1 2:-0.72487 3:0.3001 4:0.14339 5:-1 6:-0.06339 7:-0.36906 8:0.85679 9:-0.36814 10:0.07108 11:0.48398 12:-0.09944 13:-1 14:-0.94573 15:-0.10459 16:-0.75318 17:-0.64617 18:-0.35716 19:-0.0754 20:-0.89271 21:1 22:-0.08812 23:-1 24:-0.39337 25:0.13691 26:0.57976 27:-1 28:-0.76912 29:-0.56349 30:-0.37566 31:-0.15343 32:-1 33:0.24871 34:-1 35:-1 36:-1 37:-0.73109 38:-1 39:-0.22511 40:0.78924 41:-0.2789 42:0.18914 43:-0.85979 44:0.01183 45:0.0337 46:-1 47:0.36881 48:0.97607 49:0.39553 50:0.66498 51:-0.52173 52:0.51017 53:0.21188 54:-0.73615 55:0.05978 56:0.12512 
1.754964541454738 1:-1 2:-0.85792 3:0.39011 4:0.56012 5:-0.71516 6:0.49161 7:-1 8:0.62008 9:-0.39658 10:-0.80931 11:0.44726 12:0.1962 13:-0.3373 14:-0.88789 15:0.17986 16:-0.61762 17:-1 18:-0.01572 19:-1 20:-0.66756 21:0.35681 22:-0.13589 23:-1 24:-0.47407 25:-0.4129 26:0.24481 27:-1 28:-0.70193 29:-0.88729 30:-0.35519 31:-0.78142 32:-0.52664 33:0.14379 34:-1 35:-1 36:-1 37:-0.39496 38:-0.63251 39:-0.26449 40:0.43386 41:-0.1147 42:0.1753 43:-1 44:0.23077 45:0.27127 46:-0.35245 47:0.495 48:0.76225 49:0.07385 50:0.422 51:-0.31018 52:0.6036 53:0.27956 54:0.33413 55:0.02959 56:0.40361 
1.925373903250762 1:0.09639 2:-1 3:0.18507 4:0.31927 5:-1 6:-0.46717 7:-1 8:0.74806 9:0.23888 10:-0.75307 11:0.68821 12:0.34164 13:-0.67805 14:-0.90469 15:0.2043 16:-0.56655 17:-0.37864 18:-0.02003 19:-1 20:-1 21:-0.43466 22:-0.30043 23:-1 24:-0.71579 25:-1 26:-0.70259 27:-1 28:0.01362 29:-1 30:-1 31:-1 32:-0.46342 33:0.41669 34:-1 35:-1 36:-1 37:-0.88235 38:-1 39:-0.73997 40:0.16215 41:0.361 42:-0.17661 43:-1 44:0.16628 45:-0.15716 46:-1 47:-0.35316 48:0.47766 49:-0.06157 50:-0.26038 51:0.83846 52:0.84864 53:0.33398 54:0.39786 55:0.36432 56:0.89754 
1.103696645820422 1:-0.58813 2:-1 3:0.08012 4:-0.33047 5:-0.27225 6:1 7:-1 8:0.15154 9:0.10135 10:1 11:0.15908 12:-0.87118 13:-0.27435 14:-0.78517 15:-0.83675 16:-0.34869 17:-1 18:-0.05886 19:0.21991 20:-1 21:-0.41844 22:-1 23:-1 24:1 25:1 26:0.57976 27:0.45551 28:-1 29:-0.42408 30:-1 31:-1 32:-1 33:0.46398 34:-0.59104 35:-1 36:-1 37:-0.86555 38:-0.53054 39:-0.35215 40:0.20398 41:0.78026 42:-0.15651 43:-0.63002 44:-0.37815 45:-0.49283 46:-1 47:1 48:0.34352 49:-1 50:-0.04433 51:-0.15578 52:0.25354 53:-0.41575 54:-0.62537 55:0.59315 56:0.84039 
0.440536722386882 1:-0.84843 2:-0.73282 3:0.42967 4:0.30807 5:-1 6:0.30259 7:-0.08092 8:0.07354 9:0.59316 10:-0.76526 11:0.46412 12:0.22113 13:-0.91098 14:-0.84188 15:-0.04301 16:-0.76031 17:-0.31278 18:0.02003 19:-0.55105 20:-0.8958 21:0.3114 22:-0.09512 23:-0.76926 24:-0.19337 25:-1 26:0.15553 27:-1 28:-0.71974 29:-0.36417 30:-0.3937 31:-0.58895 32:-0.40655 33:0.07149 34:-0.69899 35:-1 36:-0.3815 37:-0.42857 38:-0.48169 39:-0.1679 40:0.30876 41:-0.18442 42:-0.35048 43:-0.86384 44:-0.06439 45:0.46747 46:-0.39113 47:0.41529 48:0.2837 49:-0.03326 50:0.29798 51:-0.14705 52:0.41477 53:-0.39669 54:0.43002 55:-0.25291 56:0.30312 
0.1568349944362391 1:-1 2:-1 3:0.12573 4:0.04294 5:-1 6:0.45934 7:-1 8:0.71028 9:-0.26049 10:0.0044 11:0.37156 12:0.53874 13:-1 14:-0.91736 15:-0.06305 16:-0.81208 17:-0.46124 18:0.31341 19:-0.29605 20:-0.83663 21:0.65477 22:0.05636 23:-0.63821 24:0.10448 25:-0.71148 26:0.23685 27:-0.16013 28:-0.64845 29:-0.83383 30:-0.28701 31:-1 32:-0.53474 33:-0.27372 34:-1 35:0.28699 36:-1 37:-0.73109 38:-0.7291 39:0.1003 40:0.40438 41:0.29097 42:-0.16695 43:-0.67976 44:0.12241 45:0.29396 46:-0.52265 47:0.30163 48:0.82334 49:-0.38598 50:0.58866 51:-0.19389 52:0.62455 53:0.38453 54:-0.46397 55:0.09644 56:0.17176 
0.7556775491207948 1:0.39542 2:-1 3:-0.09828 4:0.25429 5:-1 6:0.26153 7:-1 8:-0.22407 9:-0.14851 10:-0.68544 11:0.22091 12:0.103 13:0.02439 14:-0.81804 15:-0.84555 16:-0.44834 17:-0.60458 18:0.12173 19:-1 20:-0.8801 21:0.09268 22:-0.04485 23:-0.46895 24:0.31774 25:-1 26:0.17088 27:-1 28:-1 29:-0.51219 30:-1 31:-0.05395 32:-0.4878 33:-0.52759 34:-0.8268 35:-1 36:-1 37:-0.73109 38:-1 39:-0.69911 40:-0.13108 41:-0.36945 42:-0.11213 43:-0.84331 44:0.22187 45:0.81715 46:-1 47:0.64046 48:0.22642 49:0.05543 50:-0.55836 51:-0.60191 52:0.80377 53:0.04586 54:0.17213 55:-0.14796 56:-0.35764 
0.6450313305726141 1:-1 2:-0.71171 3:0.34208 4:0.4481 5:-1 6:0.04514 7:-0.66944 8:0.29833 9:0.20756 10:-0.69764 11:0.3502 12:0.47462 13:-0.90395 14:-0.77252 15:0.09384 16:-0.74137 17:-1 18:0.0416 19:-0.51559 20:-0.66272 21:0.53846 22:-0.20305 23:-1 24:-0.12359 25:-0.80146 26:0.25505 27:-1 28:-0.75808 29:-0.19958 30:-0.50936 31:-0.33472 32:-0.67983 33:0.12531 34:-0.9188 35:-0.70478 36:-0.55509 37:-0.42857 38:-0.44075 39:-0.2578 40:0.25339 41:-0.01056 42:0.06487 43:-0.41234 44:-0.06014 45:0.35335 46:-0.67152 47:0.41915 48:0.63803 49:-0.18506 50:0.48597 51:-0.27247 52:0.34352 53:-0.08453 54:0.30077 55:0.11441 56:0.4312 
0.8849030365786753 1:-1 2:-1 3:0.41393 4:-0.23114 5:0.31753 6:-0.24947 7:-1 8:0.4075 9:0.11431 10:-0.72786 11:0.36181 12:0.27575 13:-0.56209 14:-0.93518 15:-0.29668 16:-0.70521 17:-1 18:0.10262 19:-1 20:-0.74371 21:0.29796 22:-0.04744 23:-1 24:0.06004 25:-1 26:-0.46147 27:-1 28:-1 29:-0.73933 30:-0.25435 31:-0.49446 32:-1 33:-0.11443 34:-1 35:-1 36:-0.49288 37:-0.71429 38:-0.57503 39:0.00669 40:0.27888 41:-0.55418 42:0.3181 43:-0.66509 44:-0.17295 45:0.24057 46:-1 47:0.51644 48:0.70396 49:0.50196 50:0.58979 51:-0.37845 52:0.65044 53:0.22818 54:0.32519 55:-0.07176 56:0.10279 
0.1993867793600679 1:-0.68022 2:-0.15447 3:0.20283 4:0.29201 5:-1 6:0.37233 7:-1 8:0.67998 9:-0.173 10:-0.6155 11:0.16208 12:0.10537 13:-0.8122 14:-1 15:-0.37977 16:-0.49431 17:-0.63754 18:0.02496 19:-1 20:-0.89009 21:-0.17609 22:0.1287 23:-0.51321 24:-0.39961 25:-0.61179 26:0.40688 27:0.13008 28:-0.64523 29:-0.77642 30:-0.04065 31:-0.5664 32:-0.06098 33:-0.72058 34:-0.84124 35:0.73171 36:-1 37:-0.83193 38:-0.6355 39:0.16419 40:0.72948 41:-0.16752 42:-0.02363 43:-1 44:0.20691 45:0.25726 46:-1 47:0.09789 48:0.68843 49:0.43544 50:-0.56622 51:-0.45545 52:0.66276 53:0.15773 54:0.01846 55:0.01042 56:-0.39113 
0.1819636599386121 1:-0.84108 2:-0.5798 3:0.42644 4:0.19791 5:-0.71919 6:0.05556 7:-1 8:0.04654 9:-0.19496 10:-0.76757 11:0.47536 12:0.30009 13:-0.90667 14:-0.83421 15:0.14027 16:-0.62303 17:-0.4596 18:0.03729 19:-1 20:-0.78151 21:0.53058 22:-0.13839 23:-0.75808 24:0.03977 25:-0.22828 26:-0.02246 27:-1 28:-0.94123 29:-0.44444 30:-0.68216 31:-0.56902 32:-0.61111 33:0.05246 34:-0.9211 35:-0.42627 36:-0.78384 37:-0.44538 38:-0.09428 39:-0.34621 40:0.42829 41:0.23212 42:-0.01945 43:-0.6431 44:0.05004 45:0.57891 46:-0.68081 47:0.46562 48:0.60087 49:0.13696 50:0.34624 51:-0.22683 52:0.56465 53:-0.04807 54:0.32102 55:0.07368 56:0.14483 
0.2720645545168977 1:-0.66877 2:-0.85404 3:0.32432 4:0.382 5:-1 6:0.13541 7:-1 8:0.1491 9:-0.11863 10:-0.68313 11:0.46749 12:0.35411 13:-0.61095 14:-0.91362 15:0.01808 16:-0.47621 17:-0.81229 18:0.11556 19:-1 20:-0.88615 21:0.06905 22:-0.06183 23:-1 24:-0.26628 25:-0.59789 26:0.10151 27:-1 28:-0.75503 29:-0.65263 30:-0.00632 31:-1 32:-0.43263 33:0.02093 34:-0.91778 35:-0.70106 36:-0.54947 37:-0.51261 38:-0.81123 39:-0.01709 40:0.52988 41:0.1141 42:-0.17661 43:-0.62807 44:0.0931 45:0.2973 46:-0.66738 47:0.38013 48:0.72534 49:0.03394 50:0.39001 51:-0.43322 52:0.63417 53:0.23122 54:0.36033 55:-0.14293 56:0.47783 
0.9448738764067878 1:-1 2:-0.64983 3:0.35984 4:0.16019 5:-1 6:-0.0044 7:-1 8:0.01393 9:0.17948 10:-1 11:0.12123 12:0.39745 13:-0.53333 14:-1 15:-0.34653 16:-0.68585 17:-0.54966 18:-0.35162 19:-1 20:-0.45377 21:0.12929 22:0.1358 23:-1 24:-0.51111 25:-1 26:-0.1362 27:-1 28:-0.85307 29:0.38889 30:-0.60269 31:-1 32:-0.80555 33:0.29274 34:-0.6055 35:-1 36:0.08081 37:-0.7479 38:-1 39:0.14859 40:0.39841 41:-0.11198 42:-0.28652 43:-1 44:-0.31244 45:0.34334 46:-0.202 47:0.24287 48:0.51534 49:-0.44397 50:0.27666 51:-0.32764 52:0.47837 53:-0.68646 54:0.50149 55:-0.31041 56:0.50936 
1.037044006135149 1:-1 2:-1 3:0.1334 4:0.0814 5:0.4748 6:0.07414 7:-1 8:0.0497 9:-0.05203 10:-0.70441 11:0.1306 12:0.01811 13:-1 14:-0.92744 15:-0.1696 16:-0.67003 17:-0.52697 18:0.84468 19:-1 20:-1 21:0.54032 22:-0.13705 23:-1 24:-0.28265 25:-0.49337 26:-0.21012 27:0.4748 28:-1 29:-0.41645 30:-0.58267 31:-0.43413 32:-1 33:0.39223 34:-0.79281 35:-1 36:-1 37:-0.83193 38:-0.04864 39:-0.49406 40:0.64422 41:0.42107 42:-0.32333 43:-1 44:-0.17578 45:-0.15449 46:-1 47:0.60193 48:0.98855 49:-0.75678 50:0.05219 51:-0.25263 52:0.44016 53:0.73591 54:0.38356 55:-0.16641 56:0.71034 
0.3537129297188699 1:-1 2:-1 3:0.0551 4:0.43839 5:-1 6:0.29803 7:-1 8:-0.06679 9:0.20036 10:-0.59992 11:0.2434 12:0.50134 13:-0.5437 14:-1 15:-0.60948 16:-0.69284 17:-1 18:-0.24499 19:0.15061 20:-0.86648 21:0.23633 22:0.22876 23:0.18273 24:-0.56881 25:-0.5284 26:1 27:0.37286 28:-0.71268 29:-0.7284 30:-0.61153 31:-0.47326 32:-0.61975 33:-0.87388 34:-1 35:-0.29878 36:-1 37:-0.86555 38:-0.1144 39:-0.14562 40:0.40637 41:0.48295 42:0.65148 43:-0.65103 44:0.07591 45:0.30797 46:-0.21976 47:0.57014 48:0.38857 49:-0.12195 50:-0.32716 51:-0.53284 52:0.70023 53:0.30967 54:0.17153 55:0.10651 56:-0.53366 
0.07010436642859459 1:-0.056 2:-0.168 3:0.54349 4:0.17961 5:-0.444 6:0.51214 7:-1 8:0.60414 9:-0.18452 10:-0.5678 11:-0.00206 12:0.07628 13:-1 14:-0.94529 15:0.08993 16:-1 17:-1 18:-0.04715 19:-0.06799 20:-0.89185 21:0.14411 22:0.12975 23:-0.521 24:-0.31111 25:-0.236 26:0.49446 27:-0.444 28:-0.88364 29:-0.78 30:0.25866 31:-0.57333 32:-0.846 33:-0.37646 34:-0.68756 35:-0.432 36:-0.572 37:-0.86555 38:-1 39:0.22363 40:0.25299 41:0.44884 42:0.3403 43:-0.71733 44:0.16992 45:0.79513 46:0.264 47:0.44756 48:0.60672 49:0.45966 50:-0.62402 51:-0.63882 52:0.78972 53:0.30414 54:0.14473 55:-0.20666 56:-0.43711 
0.2168306578208996 1:-0.6729 2:-0.13514 3:0.39415 4:0.46751 5:-1 6:-0.02982 7:-1 8:0.5869 9:0.58704 10:-0.57878 11:0.33108 12:0.41288 13:-1 14:-0.94313 15:-0.38807 16:-0.74137 17:-0.25849 18:0.10508 19:-1 20:-0.77515 21:0.4912 22:-0.04456 23:0.49377 24:-0.22534 25:-1 26:0.66847 27:-1 28:-1 29:-0.77131 30:-0.6729 31:-0.55648 32:-1 33:-0.55042 34:-0.67521 35:0.18086 36:-1 37:-0.88235 38:-0.62717 39:-0.31575 40:0.54303 41:0.37338 42:0.52539 43:-1 44:0.11837 45:0.56089 46:-0.34303 47:0.37604 48:0.7177 49:0.49582 50:-0.42929 51:-0.48918 52:0.58043 53:-0.85166 54:0.13103 55:-0.003 56:-0.24926 
1.200558359801075 1:-0.83474 2:-0.41737 3:0.27064 4:0.43055 5:-0.70799 6:0.197 7:-1 8:0.30796 9:-0.16724 10:-0.69804 11:0.4971 12:0.41585 13:-0.61176 14:-0.8276 15:-0.00782 16:-0.73866 17:-0.62536 18:0.33991 19:-1 20:-0.77279 21:0.48424 22:-0.05368 23:-1 24:-0.27797 25:-0.3981 26:0.25163 27:-0.70799 28:-0.87777 29:-0.30672 30:-0.66948 31:-1 32:-0.67647 33:-0.02093 34:-0.6718 35:-0.10504 36:-1 37:-0.4958 38:-0.62326 39:-0.42793 40:0.38406 41:0.21038 42:-0.01788 43:-0.77731 44:0.0939 45:0.38539 46:-0.33615 47:0.32474 48:0.5329 49:0.34846 50:0.24467 51:-0.22564 52:0.4796 53:0.13094 54:0.20488 55:0.25386 56:0.28933 
0.3170688843760084 1:-1 2:-1 3:0.02281 4:0.09485 5:-1 6:-0.18168 7:-1 8:-0.40822 9:0.39514 10:-0.65277 11:0.29473 12:0.34699 13:-0.472 14:-1 15:-0.07722 16:-1 17:-0.49049 18:-0.39908 19:-1 20:-1 21:0.39898 22:-0.07066 23:-0.31572 24:-0.70292 25:-0.45429 26:0.37731 27:-0.20572 28:-1 29:-1 30:-0.10095 31:0.21905 32:-1 33:-0.03941 34:-0.77683 35:-1 36:-0.38858 37:-0.79832 38:-0.48763 39:-0.211 40:-0.07251 41:0.22155 42:-0.18757 43:-0.7981 44:0.13838 45:0.16783 46:-1 47:0.40012 48:0.00089 49:0.2294 50:0.93378 51:-0.52292 52:0.49143 53:0.24558 54:0.28946 55:0.21792 56:0.18555 
1.308174866112933 1:-0.84076 2:-1 3:0.02926 4:0.24496 5:-1 6:-1 7:-1 8:0.07512 9:-0.51179 10:-0.75686 11:0.37118 12:0.13565 13:-0.1583 14:-1 15:-0.00782 16:-0.87409 17:-0.81951 18:-0.42866 19:-1 20:-0.94527 21:0.26043 22:-0.35981 23:-0.51518 24:-0.66706 25:-0.42005 26:-1 27:-1 28:-0.88222 29:-0.666 30:-0.84076 31:-0.1363 32:-0.61033 33:1 34:-0.84188 35:-1 36:-1 37:-0.64706 38:-0.27395 39:-0.77786 40:0.63904 41:0.26924 42:0.47291 43:-1 44:0.50895 45:0.74775 46:-1 47:0.2826 48:0.88902 49:0.56609 50:0.68519 51:-0.52649 52:1 53:0.40359 54:0.36569 55:0.36312 56:0.97307 
0.3217820586830455 1:-1 2:-0.17297 3:0.0002 4:0.32823 5:-0.4473 6:0.64445 7:-1 8:0.46941 9:0.13195 10:-0.80511 11:0.1306 12:0.34164 13:-0.8163 14:-0.94562 15:-0.10459 16:-0.25805 17:-0.64546 18:-0.2037 19:-0.07354 20:-0.89249 21:-0.14829 22:0.16113 23:-0.04772 24:-0.4694 25:-1 26:0.74922 27:-1 28:-0.19031 29:-0.78131 30:-0.37443 31:-0.15177 32:-1 33:-0.34493 34:-0.84471 35:-0.43538 36:-1 37:-0.83193 38:-1 39:-0.37147 40:0.33466 41:0.39119 42:0.05887 43:-1 44:0.28151 45:0.56223 46:-0.37176 47:-0.13137 48:0.44635 49:0.02268 50:-0.22559 51:-0.69875 52:0.717 53:-0.30801 54:0.38356 55:-0.19013 56:-0.59212 
0.2335205407360597 1:-1 2:-0.46973 3:0.11847 4:0.25429 5:-0.46846 6:0.05263 7:-1 8:0.02916 9:0.53807 10:-0.59951 11:0.17782 12:0.02226 13:-0.82333 14:-0.84309 15:-0.45064 16:-0.76215 17:-0.65903 18:0.16117 19:-1 20:-0.89661 21:0.07553 22:0.35482 23:-0.54207 24:-0.41365 25:-0.63481 26:-0.12539 27:-1 28:-0.55501 29:-0.78968 30:-0.69918 31:-0.18419 32:-0.11663 33:-0.46942 34:-0.85065 35:0.62904 36:-0.18164 37:-0.81513 38:-0.65711 39:-0.24368 40:0.12271 41:0.262 42:-0.04973 43:-1 44:0.23825 45:0.34067 46:-1 47:0.3115 48:0.69072 49:0.21815 50:-0.31033 51:-0.62572 52:0.60705 53:-0.16409 54:0.1888 55:-0.0236 56:-0.69392 
0.396484318333978 1:-1 2:-0.61481 3:0.19193 4:-0.03025 5:0.54447 6:0.14323 7:-1 8:0.25998 9:0.58308 10:0.19808 11:0.01293 12:0.21817 13:-0.74333 14:-0.92401 15:-0.54936 16:0.03666 17:-0.50463 18:-0.15008 19:-1 20:-1 21:0.09778 22:-0.33564 23:-0.33471 24:0.31423 25:-1 26:0.02872 27:0.54447 28:-0.83838 29:-0.38888 30:-0.12592 31:-1 32:-1 33:-0.10084 34:-1 35:-1 36:-0.40555 37:-0.81513 38:-0.50185 39:0.08321 40:-0.0498 41:0.57139 42:-0.16042 43:-1 44:-0.30092 45:-0.09776 46:-0.12221 47:0.56653 48:0.34784 49:-0.24714 50:-0.18911 51:-0.14547 52:0.3667 53:-0.25635 54:-0.65277 55:0.09572 56:0.15796 
0.533190000089483 1:0.69905 2:-0.401 3:0.1887 4:0.51568 5:-1 6:0.19309 7:-1 8:0.4447 9:-0.07075 10:-0.59883 11:0.18568 12:0.35945 13:-0.40129 14:-1 15:-0.37634 16:-0.73132 17:-0.22966 18:0.13467 19:-1 20:-0.7664 21:0.11863 22:-0.04888 23:0.03457 24:-0.23899 25:-1 26:0.24254 27:0.80131 28:-0.87434 29:-1 30:0.01944 31:-0.07846 32:-0.16847 33:-0.41451 34:-1 35:-0.38662 36:-1 37:-0.73109 38:-0.61268 39:-0.13967 40:0.42789 41:-0.69484 42:0.20585 43:-0.84737 44:0.01991 45:0.41608 46:0.36503 47:0.61084 48:0.41377 49:-0.12468 50:-0.66723 51:-0.15737 52:0.74017 53:0.50939 54:0.59797 55:0.34779 56:-0.18555 
0.3971490822855072 1:-0.753 2:-0.78231 3:0.17497 4:0.12248 5:-1 6:0.32345 7:-0.00157 8:-0.40032 9:-0.01062 10:-0.06078 11:0.31085 12:0.0656 13:-0.56483 14:-0.78528 15:0.41349 16:-0.8047 17:-1 18:0.01387 19:-0.26842 20:-0.74532 21:0.81928 22:0.20295 23:-1 24:-0.2963 25:-0.70015 26:0.2903 27:-0.56357 28:-0.81733 29:-0.65463 30:-0.50602 31:-1 32:-0.63736 33:0.05953 34:-0.87737 35:-1 36:-0.66404 37:-0.69748 38:-0.71846 39:0.01709 40:0.53108 41:0.26019 42:-0.21472 43:-0.44532 44:0.0003 45:0.5956 46:-1 47:0.42492 48:0.54206 49:0.36381 50:0.72391 51:-0.52848 52:0.54567 53:-0.06077 54:-0.595 55:0.30226 56:-0.00887 
1.212207407338532 1:-0.02882 2:-1 3:0.28718 4:0.38835 5:-1 6:0.18103 7:-1 8:0.21158 9:-0.01674 10:-0.66633 11:0.58216 12:0.47106 13:-0.42963 14:-0.94371 15:0.21799 16:-0.74404 17:-1 18:-0.44099 19:-1 20:-0.88873 21:0.02224 22:0.12285 23:-1 24:-0.27251 25:-0.607 26:-0.09127 27:-0.42798 28:-0.52113 29:-0.77366 30:-1 31:-1 32:0.10906 33:0.12911 34:-0.67856 35:-0.41565 36:-1 37:-0.76471 38:-1 39:-0.09138 40:0.11594 41:0.02173 42:-0.20715 43:-0.27297 44:0.01769 45:0.32132 46:-0.3498 47:0.27152 48:0.39595 49:-0.56473 50:0.42031 51:-0.28835 52:0.44484 53:0.20746 54:0.16498 55:0.19971 56:0.30115 
0.7914446866540897 1:-0.33475 2:-1 3:0.25045 4:0.62845 5:-1 6:0.62197 7:-1 8:0.62209 9:0.02574 10:-0.75713 11:-0.06577 12:0.01039 13:-1 14:-0.94217 15:-0.47165 16:-0.474 17:-0.24596 18:0.31279 19:-1 20:-1 21:-0.25116 22:0.19413 23:-1 24:-0.50058 25:-1 26:0.63947 27:-1 28:0.35306 29:-1 30:-0.00212 31:-0.09796 32:-0.51163 33:-0.19543 34:-0.50458 35:-0.39957 36:-0.54756 37:-0.89916 38:-0.24172 39:-0.1523 40:0.66574 41:-0.22125 42:0.54836 43:-1 44:0.15597 45:0.41942 46:-1 47:0.32763 48:0.79101 49:0.0759 50:-0.66049 51:-0.46339 52:0.53581 53:0.14972 54:0.15605 55:-0.00036 56:-0.68276 
0.7311345705192676 1:-1 2:-0.69457 3:0.23552 4:-0.13555 5:0.22468 6:0.17712 7:-1 8:0.71388 9:0.2216 10:-0.11161 11:0.48998 12:-0.61413 13:-1 14:-0.93975 15:-0.24927 16:-1 17:-0.21439 18:0.049 19:-1 20:-0.76178 21:0.12465 22:-0.19873 23:-0.47248 24:-0.41754 25:-1 26:0.0799 27:0.22468 28:-1 29:-0.51542 30:-0.65346 31:-0.53011 32:-0.66079 33:-0.16336 34:-1 35:-0.37447 36:-1 37:-0.78151 38:-1 39:-0.61738 40:0.11514 41:0.29943 42:0.09385 43:-0.53304 44:-0.1873 45:-0.1011 46:-0.30398 47:0.3127 48:0.46926 49:0.30411 50:0.00617 51:-0.31931 52:0.50647 53:0.12597 54:-0.38177 55:0.11944 56:0.26305 
0.1416623193470961 1:-0.06535 2:-0.72541 3:0.06034 4:0.03286 5:-1 6:0.14747 7:-0.3703 8:0.25639 9:0.25221 10:-0.67216 11:0.44651 12:0.10656 13:-1 14:-1 15:-0.3216 16:-0.26099 17:-0.64687 18:0.40339 19:-1 20:-0.78583 21:0.31372 22:-0.03305 23:-0.52574 24:-0.14425 25:-1 26:0.35513 27:0.101 28:-1 29:-0.34653 30:-0.3769 31:0.26733 32:-0.54257 33:-0.44876 34:-0.84532 35:-1 36:-1 37:-0.78151 38:-0.64488 39:-0.63001 40:0.71036 41:-0.262 42:0.25467 43:-0.86007 44:0.2522 45:0.43076 46:-1 47:0.57182 48:0.77549 49:-0.32628 50:-0.71829 51:-0.28716 52:0.80303 53:-0.1547 54:0.1483 55:0.20259 56:-0.23021 
0.4687015453858141 1:-0.41074 2:-0.74032 3:0.1556 4:0.25429 5:-1 6:0.43686 7:-1 8:0.64996 9:0.0063 10:0.12936 11:0.42814 12:0.49599 13:-0.82696 14:-0.94877 15:-0.07625 16:-0.76704 17:-0.66604 18:0.11495 19:-1 20:-0.79747 21:0.83179 22:-0.06749 23:-0.55149 24:-0.07914 25:-0.28465 26:0.02189 27:-0.47939 28:-0.78209 29:-0.58802 30:-0.70536 31:0.59799 32:0.29775 33:0.05735 34:-1 35:-1 36:-0.59924 37:-0.73109 38:-0.32834 39:-0.49703 40:0.47052 41:-0.41624 42:-0.00796 43:-0.86766 44:0.24189 45:0.22122 46:-1 47:0.3929 48:0.98549 49:-0.08613 50:0.47699 51:-0.31375 52:0.5787 53:-0.0174 54:-0.80584 55:0.19013 56:0.50279 
0.7328925902065104 1:-1 2:-1 3:0.49627 4:0.11837 5:-1 6:0.01255 7:-1 8:-0.12568 9:0.16256 10:-0.62215 11:0.35994 12:0.13565 13:-0.77518 14:-0.93344 15:-0.03763 16:-0.39465 17:-0.5661 18:-0.13898 19:-1 20:-0.73685 21:-0.14411 22:0.58344 23:-0.41727 24:-0.90565 25:-1 26:0.20045 27:-1 28:-0.85844 29:-0.73236 30:-1 31:-0.48094 32:-0.2506 33:-0.95325 34:-1 35:-1 36:-1 37:-0.93277 38:-0.56366 39:-0.65007 40:0.31474 41:0.39571 42:-0.59274 43:-0.82806 44:-0.06621 45:0.31198 46:0.53772 47:0.51812 48:-0.06122 49:0.18165 50:0.20258 51:-0.94602 52:0.47911 53:-0.53591 54:0.24836 55:-0.00252 56:-0.67291 
0.7090811798950336 1:-0.21983 2:-0.31239 3:0.36307 4:0.23898 5:-1 6:0.32801 7:-1 8:-0.23829 9:0.39046 10:-0.74846 11:0.35095 12:-0.03592 13:-0.84727 14:0.17558 15:-0.3304 16:-0.58876 17:-0.1157 18:-0.17904 19:-1 20:-0.91062 21:0.51854 22:-0.31923 23:-0.20826 24:-0.06901 25:-0.36859 26:0.3921 27:-0.54049 28:-0.90383 29:1 30:-0.21983 31:-0.29476 32:-1 33:-0.41017 34:-0.74178 35:-1 36:-1 37:-0.76471 38:-0.70358 39:-0.77043 40:0.43745 41:-0.15243 42:-0.27842 43:-0.8832 44:0.3369 45:0.37538 46:0.04464 47:0.63251 48:0.66756 49:0.36449 50:-0.05668 51:-0.5646 52:0.67879 53:-0.26077 54:0.28052 55:-0.1966 56:-0.21576 
0.001927331065536432 1:-0.68906 2:-0.72595 3:0.43814 4:0.25429 5:0.64824 6:0.3896 7:-1 8:0.27061 9:0.30297 10:-0.63949 11:-0.10774 12:0.19442 13:-0.81739 14:-0.67563 15:-0.63441 16:-1 17:-1 18:0.76518 19:-1 20:-0.89313 21:0.40639 22:0.11642 23:-0.05335 24:-0.26121 25:-0.62253 26:0.38357 27:-0.45059 28:-0.77003 29:-0.78261 30:-0.06719 31:-0.57839 32:-0.84782 33:-0.34004 34:-1 35:-1 36:-0.15414 37:-0.79832 38:-0.64558 39:-0.11738 40:0.59283 41:-0.27468 42:0.15311 43:-0.72068 44:0.02335 45:0.36537 46:-0.37549 47:0.32378 48:0.73858 49:0.51492 50:-0.76992 51:-0.15142 52:0.47541 53:0.13232 54:0.11971 55:-0.05595 56:-0.29261 
0.3671681240021421 1:-0.68845 2:0.09835 3:0.29929 4:0.36482 5:-0.4495 6:0.21167 7:-0.3703 8:0.76084 9:0.23456 10:-0.5987 11:-0.25651 12:0.19442 13:-1 14:-0.94583 15:-0.08016 16:-0.75366 17:0.76567 18:-0.26656 19:-1 20:-0.67875 21:0.29055 22:-0.07095 23:-0.05148 24:-0.27875 25:-0.24356 26:0.24254 27:-1 28:-0.88479 29:-0.78218 30:0.2462 31:0.26733 32:-1 33:-0.23403 34:-1 35:-1 36:-0.15247 37:-0.76471 38:-1 39:0.28752 40:0.35618 41:-0.55841 42:0.34473 43:-1 44:0.36197 45:0.1011 46:-0.37426 47:0.41746 48:0.67494 49:0.5985 50:-0.05443 51:-0.44394 52:0.76655 53:-0.14116 54:0.26623 55:-0.22248 56:-0.39245 
-0.9476415263811228 1:-0.38058 2:-1 3:-0.19677 4:-0.00187 5:-1 6:0.07447 7:-1 8:0.54625 9:0.20792 10:-0.69465 11:0.09762 12:0.13565 13:-0.63622 14:-0.8923 15:-0.4868 16:-1 17:-1 18:-0.11864 19:-1 20:-0.3613 21:-0.31464 22:-0.09704 23:-1 24:-0.11228 25:-1 26:-0.089 27:-1 28:-0.77094 29:-0.13386 30:-0.38058 31:-0.16011 32:-0.3937 33:-0.17532 34:-1 35:-1 36:-1 37:-0.81513 38:-1 39:-0.01189 40:0.63267 41:0.42529 42:0.41235 43:-1 44:-0.103 45:0.66099 46:-1 47:0.128 48:0.66603 49:0.14958 50:0.55892 51:-0.46616 52:0.4054 53:0.20331 54:0.26802 55:0.19396 56:0.13235 
-0.6432092090928847 1:-1 2:-0.66827 3:0.15237 4:0.23189 5:-1 6:-0.47368 7:0.52154 8:0.33266 9:0.05959 10:-0.87057 11:0.69646 12:-0.25378 13:-0.33684 14:-0.86912 15:-0.3871 16:-0.7024 17:-1 18:-0.66225 19:-1 20:-0.22378 21:-0.67424 22:-0.03833 23:-0.42704 24:-0.76686 25:-1 26:-0.64117 27:-1 28:-0.58243 29:-0.73685 30:-0.62361 31:-1 32:0.10527 33:-0.44387 34:-1 35:-1 36:-1 37:-0.78151 38:-1 39:0.01337 40:-0.69761 41:0.33021 42:-0.69273 43:-0.49283 44:-0.7291 45:-0.27995 46:-1 47:-0.44419 48:-0.26664 49:-0.1315 50:0.41807 51:-0.73011 52:-0.30408 53:-0.40055 54:0.53722 55:-0.36265 56:0.52709 
-0.7139169463680417 1:-1 2:-1 3:0.39334 4:-0.32487 5:-1 6:0.12987 7:-1 8:0.7719 9:-0.45023 10:-0.73138 11:0.46037 12:0.34046 13:-0.68028 14:-1 15:-0.21848 16:-0.56955 17:-1 18:0.02866 19:-1 20:-0.62577 21:0.33318 22:-0.00753 23:-1 24:0.12164 25:-1 26:-0.10662 27:-1 28:-0.59736 29:-1 30:-0.4556 31:-1 32:-0.73356 33:0.13618 34:-0.72972 35:-1 36:-1 37:-0.7479 38:-0.37947 39:-0.67608 40:0.13187 41:0.05222 42:0.09907 43:-0.51096 44:0.09835 45:0.48081 46:-1 47:0.27417 48:0.28548 49:0.56166 50:0.4248 51:-0.05894 52:0.89153 53:0.0989 54:0.45027 55:0.13885 56:0.10411 
-0.3392397119913781 1:-1 2:-1 3:-0.20283 4:0.25429 5:-1 6:0.84781 7:-1 8:-0.24749 9:0.12367 10:-0.71512 11:0.25314 12:0.13565 13:-0.1283 14:-1 15:-0.57869 16:-1 17:-1 18:0.05763 19:-1 20:-1 21:-0.42169 22:-0.01377 23:-1 24:-0.22456 25:-1 26:0.57976 27:-1 28:-1 29:0.03774 30:-1 31:-1 32:-1 33:-0.04376 34:-1 35:-1 36:-1 37:-1 38:-1 39:-0.39302 40:0.37769 41:0.56867 42:0.18653 43:-1 44:0.12847 45:-0.18385 46:-1 47:0.55015 48:0.72381 49:0.00904 50:0.00561 51:0.14943 52:0.45224 53:0.26602 54:0.36212 55:0.36935 56:0.22693 
-0.5194520359353635 1:-0.49029 2:-1 3:0.09102 4:0.0127 5:-0.69979 6:0.30618 7:-0.31318 8:0.50603 9:-0.13771 10:-0.54015 11:0.4585 12:-0.05669 13:-0.70065 14:-0.88184 15:-0.13978 16:-0.86566 17:-0.80742 18:-0.06379 19:-0.49676 20:-0.59121 21:0.35449 22:0.11767 23:-0.74136 24:-0.39571 25:-0.79374 26:-0.11004 27:-0.69979 28:-0.43452 29:-0.64363 30:-0.8301 31:-0.07846 32:-0.58423 33:0.00951 34:-0.8313 35:-0.07993 36:-1 37:-0.37815 38:-1 39:-0.27935 40:0.449 41:0.02385 42:0.13484 43:-0.77106 44:0.07409 45:0.14581 46:-1 47:0.05382 48:0.58432 49:0.57223 50:0.22166 51:-0.14586 52:0.54049 53:0.3826 54:0.26027 55:0.28957 56:-0.04499 
-0.5842670914316883 1:-1 2:-0.49758 3:0.55358 4:-0.58775 5:-1 6:0.38276 7:-1 8:0.04898 9:-0.20288 10:-1 11:-0.21417 12:0.72514 13:-1 14:-1 15:0.2566 16:-1 17:-0.35387 18:0.39414 19:-1 20:-0.80407 21:0.38091 22:0.00437 23:-1 24:-0.0386 25:-0.30797 26:0.01507 27:-1 28:-1 29:0.99275 30:-1 31:-1 32:-1 33:0.61131 34:-0.43398 35:0.02898 36:-1 37:-1 38:-1 39:-0.73997 40:0.1745 41:0.48053 42:-0.5421 43:-0.48792 44:-0.40726 45:-0.06707 46:-1 47:0.5003 48:0.35981 49:0.02371 50:-0.16105 51:-0.16849 52:0.22372 53:-0.32735 54:0.34008 55:0.31209 56:0.36617 
-1.247730191149264 1:-0.76841 2:-0.59175 3:0.21372 4:0.13069 5:-0.59078 6:0.49682 7:-0.68791 8:0.48492 9:-0.32889 10:-0.78898 11:0.32247 12:0.17186 13:-0.81865 14:-0.95973 15:-0.13343 16:-0.6948 17:-0.29997 18:0.31217 19:-1 20:-0.94693 21:0.41566 22:-0.04955 23:-0.88248 24:-0.19337 25:-0.62512 26:0.47512 27:-0.86358 28:-0.74306 29:-0.83808 30:-0.15081 31:-0.79063 32:-0.62218 33:0.20413 34:-0.92334 35:-0.86064 36:-0.78998 37:0.68067 38:-0.64802 39:-0.44874 40:0.5741 41:0.11832 42:0.0607 43:-0.8613 44:0.14667 45:0.27661 46:-0.37979 47:0.42757 48:0.74367 49:0.33311 50:0.31089 51:-0.359 52:0.7133 53:0.50773 54:0.36986 55:0.20259 56:0.17176 
-0.362210763796363 1:-1 2:-1 3:0.32957 4:0.22143 5:-1 6:0.28076 7:-1 8:-0.06737 9:-0.09019 10:-0.59341 11:0.29586 12:0.13565 13:-0.67234 14:-0.61199 15:-0.48289 16:-0.11773 17:-1 18:0.26287 19:-1 20:-0.80824 21:-0.70575 22:0.01703 23:-1 24:0.01053 25:-1 26:-0.12312 27:-1 28:-0.38104 29:-0.60993 30:-1 31:0.513 32:-0.72695 33:-0.25632 34:-0.72301 35:-1 36:-1 37:-0.88235 38:-1 39:-0.47771 40:0.36255 41:0.19408 42:0.61154 43:-1 44:0.12625 45:0.71371 46:-1 47:0.02348 48:0.51101 49:0.46341 50:0.36027 51:-0.18158 52:0.1081 53:0.27845 54:0.44908 55:0.44507 56:-0.43514 
-0.3432382131193497 1:-1 2:-0.52349 3:-0.05792 4:0.12659 5:-1 6:0.97197 7:-1 8:0.61376 9:-0.2378 10:-0.49041 11:0.10736 12:0.23716 13:-0.36494 14:-0.906 15:-0.25904 16:-1 17:-1 18:-0.02928 19:-1 20:-0.62834 21:0.1798 22:-0.08006 23:-1 24:0.11423 25:-1 26:0.53085 27:-1 28:-0.20025 29:-0.622 30:-1 31:-0.2669 32:0.32302 33:-0.28078 34:-0.46315 35:-1 36:-1 37:-0.84874 38:-0.38374 39:-0.23105 40:0.27251 41:-0.04588 42:0.43845 43:-0.75716 44:0.11776 45:0.5956 46:-1 47:-0.27345 48:0.20453 49:0.73904 50:0.42929 51:-0.13197 52:0.49069 53:0.45746 54:0.34842 55:-0.10363 56:-0.05944 
-0.9171887750166721 1:-0.41511 2:-1 3:0.267 4:0.11613 5:-1 6:0.33648 7:-1 8:0.54726 9:-0.05203 10:-0.67392 11:0.28949 12:0.24547 13:-1 14:-1 15:-0.23412 16:-1 17:-1 18:-0.26287 19:-1 20:-1 21:-0.27943 22:-0.11172 23:-1 24:-0.26706 25:-1 26:0.79016 27:-1 28:-0.13484 29:-1 30:-0.41511 31:-0.20693 32:-0.14126 33:0.41343 34:-0.70962 35:-1 36:-1 37:-0.83193 38:1 39:-0.53343 40:0.38088 41:-1 42:-0.16904 43:-1 44:-0.37269 45:-0.88655 46:-1 47:-0.55208 48:0.66883 49:0.03292 50:-0.86588 51:0.10419 52:0.54764 53:0.30856 54:0.22573 55:0.19396 56:0.17176 
-0.260384984498268 1:-1 2:-0.52995 3:1 4:-0.62808 5:-1 6:0.22992 7:-1 8:0.32634 9:0.08731 10:-0.82828 11:-0.42589 12:0.08578 13:-1 14:-0.81454 15:0.44624 16:-1 17:-0.39549 18:0.48228 19:-1 20:-1 21:0.81789 22:0.03718 23:-1 24:0.19844 25:-1 26:-0.09241 27:-1 28:-1 29:-0.62712 30:-1 31:-1 32:-1 33:0.1427 34:-1 35:-1 36:-1 37:-0.94958 38:-1 39:-0.23774 40:-0.05737 41:-0.13643 42:0.24527 43:-0.76045 44:-0.82816 45:0.37004 46:-1 47:0.53233 48:0.23864 49:-0.40884 50:0.2486 51:-0.37527 52:0.24713 53:0.39116 54:0.45146 55:0.1077 56:0.45222 
-1.886390387468853 1:-0.56538 2:-0.71271 3:0.18466 4:0.15758 5:-1 6:-0.08359 7:-1 8:-0.20483 9:0.0027 10:-0.4587 11:0.32471 12:0.04363 13:-0.74475 14:-0.84887 15:0.16911 16:-0.48454 17:-0.50737 18:0.11371 19:-1 20:-0.73858 21:0.19694 22:0.02624 23:-1 24:-0.15283 25:-0.20857 26:0.01052 27:-0.61602 28:-0.87946 29:-0.5442 30:-0.78269 31:-0.55802 32:-0.25552 33:-0.02365 34:-0.78423 35:-0.80387 36:-0.85221 37:-0.31092 38:-0.62846 39:-0.52229 40:0.02151 41:0.19197 42:-0.31367 43:-0.75599 44:0.11897 45:0.33066 46:-1 47:0.35653 48:0.51254 49:0.10285 50:0.26038 51:-0.16809 52:0.67879 53:0.10331 54:0.29601 55:0.27902 56:0.47783 
-0.3718011614728939 1:-1 2:-0.65071 3:0.28274 4:0.06684 5:-1 6:-0.30715 7:-0.19899 8:0.45073 9:0.22196 10:-0.88927 11:0.1692 12:-0.08816 13:-0.53451 14:-1 15:-0.19208 16:-0.68665 17:-1 18:0.11186 19:-1 20:-1 21:0.1316 22:0.18118 23:-1 24:-0.41404 25:-0.51889 26:-0.09866 27:-1 28:-0.85345 29:-0.16876 30:-1 31:-1 32:-0.61209 33:0.39549 34:-0.80325 35:-1 36:-1 37:-0.68067 38:-0.54828 39:-0.6003 40:1 41:-0.1476 42:0.1244 43:-1 44:0.0185 45:-0.11712 46:-1 47:0.15424 48:0.72432 49:0.49957 50:-0.24916 51:-0.10458 52:0.77345 53:0.16271 54:0.352 55:0.09668 56:0.51067 
-0.3804183783968277 1:-0.75942 2:-1 3:0.38809 4:0.41113 5:-1 6:0.71387 7:-1 8:0.08345 9:0.08983 10:-0.49407 11:0.19918 12:0.09053 13:-0.43486 14:-1 15:-0.41838 16:-0.80978 17:-0.18195 18:-0.42681 19:-1 20:-0.83463 21:-0.18026 22:-0.1358 23:-1 24:-0.06082 25:-0.70794 26:0.25448 27:-0.57491 28:-0.73311 29:-1 30:-0.75942 31:-1 32:-0.41131 33:-0.67654 34:-0.76113 35:-1 36:-1 37:-0.54622 38:-0.72578 39:-0.42793 40:0.17211 41:0.10112 42:-0.02989 43:-0.89194 44:0.01082 45:0.03504 46:-1 47:0.42131 48:0.52832 49:0.07829 50:0.45398 51:-0.17166 52:0.60237 53:0.33812 54:0.18344 55:0.16353 56:0.28867 
-1.336993088503816 1:-1 2:-0.46184 3:0.27548 4:0.20612 5:-0.64035 6:0.43197 7:-0.5886 8:0.33352 9:0.09127 10:-0.72867 11:0.11336 12:0.11665 13:-0.76093 14:-1 15:-0.18133 16:-0.5172 17:-0.76929 18:-0.12481 19:-0.39713 20:-0.86009 21:0.25394 22:0.17753 23:-0.69016 24:-0.07212 25:-0.7529 26:0.32272 27:-1 28:-0.54839 29:-1 30:-0.38939 31:-0.72401 32:-0.60156 33:0.35852 34:-0.89895 35:-0.63259 36:-0.72315 37:-0.39496 38:-1 39:-0.3321 40:0.42829 41:-0.02807 42:-0.02075 43:-0.81716 44:0.15071 45:-0.07241 46:-0.59119 47:0.34714 48:0.55657 49:0.54358 50:0.43771 51:-0.29034 52:0.64994 53:0.4768 54:0.36689 55:0.22176 56:0.14023 
-0.1105950844906186 1:-1 2:-1 3:0.50595 4:0.17289 5:-1 6:0.24165 7:-0.53645 8:-0.13215 9:0.10999 10:-0.84224 11:0.6054 12:-0.3179 13:-0.32653 14:-0.80062 15:-0.11437 16:-1 17:-1 18:-0.32573 19:-1 20:-0.92117 21:0.68721 22:0.17302 23:-0.65088 24:-0.1731 25:-1 26:0.14529 27:-0.59476 28:-0.74556 29:0.12245 30:-0.77066 31:-0.68902 32:-0.77551 33:-0.4455 34:-0.77227 35:-0.172 36:-1 37:-0.37815 38:-0.73859 39:-0.44279 40:-0.0761 41:0.11078 42:0.21707 43:-0.48494 44:-0.45416 45:-0.01168 46:-1 47:0.39579 48:0.15998 49:0.59952 50:0.86981 51:-0.63286 52:0.03513 53:0.06464 54:0.56641 55:0.36648 56:0.07586 
-0.524949444242053 1:-1 2:-1 3:0.44945 4:0.25429 5:-1 6:0.58709 7:-0.10168 8:-0.66303 9:0.17876 10:-0.9714 11:0.34907 12:-0.11546 13:-0.21695 14:-1 15:-0.86804 16:-0.64858 17:-0.49623 18:-0.74915 19:-1 20:-0.84724 21:0.70019 22:0.27011 23:-1 24:-0.34893 25:-1 26:0.37958 27:-1 28:-1 29:-1 30:-1 31:-0.39735 32:-0.34746 33:-0.33949 34:-0.33804 35:-1 36:-0.39547 37:-0.73109 38:-1 39:-0.32169 40:-0.42709 41:-0.09025 42:-0.0667 43:-0.00188 44:-0.42606 45:0.31331 46:-0.10733 47:0.33919 48:-0.21726 49:0.14071 50:0.69809 51:-0.74955 52:0.04622 53:0.75663 54:0.4598 55:0.12088 56:-0.03842 
-0.904348011805299 1:-0.29447 2:-1 3:0.89062 4:0.08775 5:-1 6:0.49096 7:-1 8:0.32261 9:0.15896 10:0.18276 11:0.42814 12:0.33452 13:-1 14:-0.87733 15:-0.55327 16:-1 17:-1 18:-0.31834 19:-1 20:-0.7575 21:0.16126 22:-0.01492 23:-1 24:-0.30058 25:-1 26:0.19875 27:0.24664 28:-1 29:-0.01345 30:-1 31:-1 32:-0.65471 33:-0.08182 34:-0.64973 35:-1 36:-0.04036 37:-0.91597 38:-1 39:0.17162 40:0.30518 41:0.14066 42:0.24292 43:-1 44:-0.03912 45:0.29796 46:-1 47:0.4897 48:0.17602 49:0.20007 50:0.6156 51:0.01965 52:0.36275 53:0.22459 54:0.43478 55:-0.10147 56:0.40033 
-1.09139342634603 1:-0.49084 2:-0.55125 3:0.35742 4:0.1938 5:-1 6:0.42708 7:-0.48544 8:0.3035 9:0.06751 10:-0.50234 11:0.3828 12:0.21935 13:-0.25243 14:-0.73442 15:-0.13636 16:-0.49677 17:-0.56715 18:-0.03975 19:-1 20:-0.86874 21:0.31464 22:0.12457 23:-0.61246 24:-0.32281 25:-0.69094 26:0.28121 27:-0.32523 28:-0.62342 29:-0.73301 30:-0.74542 31:-0.65481 32:-0.50162 33:0.02473 34:-0.81041 35:-1 36:-1 37:-0.2437 38:-1 39:-0.34993 40:0.41155 41:0.13402 42:0.15833 43:-1 44:0.13414 45:0.28529 46:-0.48868 47:0.48922 48:0.65152 49:0.37506 50:0.43042 51:-0.2562 52:0.64378 53:0.39392 54:0.63371 55:0.18174 56:0.36223 
-0.8169948497051482 1:-1 2:0.32063 3:0.31907 4:0.12173 5:0.32382 6:0.30552 7:-1 8:-0.38294 9:0.09523 10:-0.04303 11:0.25052 12:0.0656 13:-1 14:-0.86974 15:-0.413 16:-1 17:-1 18:-0.22404 19:-1 20:-1 21:0.21362 22:0.50046 23:-1 24:-0.62963 25:-1 26:0.17543 27:-1 28:-1 29:-0.47619 30:-1 31:-1 32:-0.63333 33:0.07747 34:-1 35:-1 36:-1 37:-0.79832 38:-0.14603 39:0.14042 40:-0.0992 41:-0.39752 42:0.23979 43:-0.66349 44:-0.49581 45:0.20053 46:-1 47:0.62914 48:-0.06275 49:0.48081 50:0.32267 51:-0.30701 52:0.03784 53:0.25967 54:0.07802 55:0.28094 56:0.60722 
-2 1:-0.86389 2:-0.88004 3:0.28073 4:0.24608 5:-0.7595 6:0.12074 7:-1 8:0.24706 9:-0.06067 10:-0.51467 11:0.46862 12:0.46928 13:-0.84014 14:-0.90535 15:0.04497 16:-0.67716 17:-0.22866 18:0.65547 19:-1 20:-0.62577 21:0.21084 22:0.02816 23:-0.79281 24:-0.17817 25:-0.17387 26:-0.10833 27:-0.7595 28:-0.84901 29:-0.52422 30:-0.7278 31:-0.44636 32:-0.73356 33:0.07638 34:-0.79729 35:-1 36:-0.81487 37:-0.44538 38:-0.37947 39:-0.59584 40:0.33665 41:0.07003 42:0.15912 43:-0.57209 44:0.0276 45:0.46613 46:-1 47:0.42276 48:0.76072 49:0.02337 50:0.13244 51:-0.09149 52:0.60927 53:0.05552 54:0.07683 55:0.1688 56:0.65583 
-0.5899508062460147 1:-1 2:-0.49392 3:0.04339 4:0.08439 5:-1 6:0.4965 7:-1 8:0.03261 9:-0.00162 10:-0.25147 11:0.0534 12:-0.08044 13:-1 14:-1 15:-0.49658 16:-0.54599 17:-1 18:0.06626 19:-1 20:-0.60528 21:0.08156 22:0.0815 23:-0.12592 24:-0.03197 25:0.39417 26:0.16633 27:-1 28:-0.57531 29:-0.59854 30:-0.4258 31:-0.22142 32:-1 33:0.06877 34:-1 35:-1 36:-1 37:-0.81513 38:-0.3455 39:-0.60475 40:0.06175 41:0.58829 42:0.10847 43:-1 44:-0.10219 45:0.29196 46:-1 47:0.34377 48:0.58508 49:0.23418 50:0.6459 51:-0.16412 52:0.33046 53:0.6674 54:0.44729 55:0.39715 56:0.30312 
-0.3355924046822814 1:-1 2:-0.49697 3:0.26297 4:0.62621 5:-0.66384 6:0.70474 7:-0.61547 8:0.51508 9:-0.25473 10:-0.78315 11:0.25838 12:0.63728 13:-0.77654 14:-0.76846 15:0.13978 16:-0.84958 17:-0.56872 18:0.47242 19:-1 20:-0.86922 21:0.30862 22:0.03123 23:-0.7104 24:-0.36452 25:-0.76904 26:0.25334 27:-1 28:-0.64824 29:-0.86699 30:-0.04878 31:-0.74204 32:-0.72067 33:-0.37266 34:-0.4333 35:-1 36:-1 37:-0.17647 38:-0.5663 39:-0.6055 40:-0.24781 41:0.27015 42:0.23691 43:-0.8291 44:-0.44668 45:0.01101 46:-0.61789 47:0.41866 48:0.19639 49:0.33925 50:-0.13131 51:-0.38202 52:0.38469 53:0.48425 54:0.46575 55:0.03654 56:0.90016 
-0.115021883741031 1:-1 2:-1 3:0.36226 4:0.25429 5:-1 6:0.05785 7:-0.364 8:0.36915 9:0.19172 10:-0.65535 11:0.27862 12:0.16533 13:-0.8152 14:-0.94529 15:-0.76344 16:-1 17:-1 18:0.2604 19:-1 20:-0.89185 21:0.00556 22:-0.00427 23:-0.521 24:-0.42768 25:-0.618 26:-0.21467 27:-0.444 28:-0.65091 29:-0.34 30:-1 31:0.28 32:-0.384 33:-0.34982 34:-0.53133 35:-1 36:-1 37:-0.81513 38:-0.64133 39:-0.3321 40:0.21315 41:-0.16752 42:-0.10142 43:-0.71733 44:-0.07187 45:-0.10377 46:-1 47:0.1003 48:0.55606 49:0.13662 50:0.04602 51:-0.08434 52:0.50696 53:0.09779 54:0.38237 55:0.17479 56:0.3491 
-0.780225772907956 1:1 2:-1 3:0.25045 4:-0.02128 5:-1 6:0.416 7:0.34746 8:0.11333 9:-0.01206 10:-0.64288 11:0.27 12:0.01039 13:-0.60847 14:-0.88409 15:-0.57478 16:-1 17:-1 18:0.31279 19:-1 20:-1 21:0.16358 22:0.01204 23:-1 24:0.07446 25:-0.19068 26:-0.02019 27:-1 28:-1 29:-0.5339 30:-1 31:-0.09604 32:-0.02118 33:0.97989 34:-0.33804 35:-1 36:-1 37:-0.84874 38:-1 39:-0.5052 40:0.7498 41:-0.30033 42:0.43819 43:-0.70056 44:-0.14202 45:0.17317 46:-1 47:0.46683 48:0.84472 49:0.23759 50:-0.18855 51:0.81028 52:0.41896 53:0.25166 54:0.18761 55:0.18893 56:-0.12906 
-0.808253767455164 1:-1 2:-0.75842 3:0.37881 4:0.19754 5:-0.75783 6:0.3694 7:-1 8:0.47917 9:-0.12547 10:-0.51426 11:0.34645 12:0.22588 13:-0.67805 14:-0.95234 15:-0.07185 16:-1 17:-1 18:-0.23328 19:-1 20:-0.81158 21:0.58758 22:0.06874 23:-1 24:-0.70682 25:-0.3345 26:0.2704 27:-1 28:-0.79728 29:-0.61673 30:-0.1777 31:-0.44252 32:-0.26219 33:0.15629 34:-0.59175 35:-0.75261 36:-1 37:-0.17647 38:-0.68757 39:-0.57801 40:0.30797 41:0.17628 42:-0.09986 43:-1 44:0.10846 45:0.11645 46:-0.72473 47:0.47646 48:0.65839 49:0.22497 50:0.3092 51:-0.21611 52:0.64994 53:0.4232 54:0.56641 55:-0.04229 56:0.55468 
-0.0272941261135301 1:-1 2:-1 3:-0.12331 4:0.29612 5:-1 6:0.30618 7:-0.28539 8:0.28182 9:0.46499 10:-0.39391 11:0.36519 12:0.00267 13:-0.58472 14:-0.75411 15:-0.71994 16:-1 17:-1 18:0.16672 19:-1 20:-1 21:-0.28313 22:-0.20411 23:-1 24:-0.36296 25:-1 26:0.10151 27:-0.37527 28:0.17671 29:-0.25842 30:-0.64644 31:-1 32:-0.82697 33:-0.29764 34:-0.82447 35:-1 36:-1 37:-0.71429 38:-0.597 39:-0.44874 40:0.01315 41:-0.21642 42:0.34264 43:-0.6824 44:-0.13151 45:0.40874 46:-1 47:-0.10391 48:0.05816 49:0.46444 50:0.07912 51:-0.37686 52:0.4017 53:0.19144 54:0.26802 55:-0.06433 56:0.69327 
-0.3984152933345853 1:-0.71702 2:-1 3:0.47851 4:0.40515 5:-1 6:0.50269 7:-1 8:0.42057 9:0.05167 10:-0.76282 11:0.44501 12:0.21579 13:-0.33526 14:-0.8524 15:-0.33675 16:-0.77625 17:-1 18:0.25054 19:-1 20:-0.80548 21:-0.27943 22:-0.06989 23:-1 24:0.00897 25:-0.65647 26:0.32442 27:-0.49999 28:0.04643 29:-0.20864 30:-0.43406 31:-1 32:-0.72302 33:0.07366 34:-0.43805 35:-0.4892 36:-0.6151 37:-0.64706 38:-0.67745 39:-0.50669 40:0.51753 41:0.17084 42:0.38624 43:-0.8729 44:-0.25847 45:0.17651 46:-0.43164 47:-0.05647 48:0.5805 49:0.37984 50:-0.12907 51:0.36138 52:0.26045 53:0.5442 54:0.47469 55:0.49635 56:0.75172 
-0.09184822702409258 1:-0.68022 2:-0.71816 3:0.17215 4:0.33943 5:-1 6:-0.75493 7:-0.67682 8:-0.41051 9:-0.10855 10:-0.57403 11:0.32359 12:0.13565 13:-0.71829 14:-0.52741 15:-0.31769 16:-1 17:-0.27508 18:-0.36518 19:-1 20:-0.72522 21:0.1279 22:-0.21111 23:-1 24:-0.32982 25:-0.80589 26:0.10378 27:-1 28:-0.82262 29:-0.10569 30:-0.68022 31:-0.78319 32:-0.37398 33:-0.26719 34:-0.60309 35:-1 36:-1 37:-0.31092 38:-0.6355 39:-0.28752 40:-0.08884 41:0.48928 42:0.34578 43:0.22087 44:-0.19802 45:0.0704 46:-1 47:0.33438 48:0.21777 49:0.30513 50:0.37037 51:-0.19309 52:0.06939 53:0.34613 54:0.29005 55:0.25866 56:0.32348 
-0.8492529276639592 1:-0.68784 2:-1 3:0.41998 4:0.32823 5:-1 6:0.25827 7:-0.36906 8:0.06033 9:0.23672 10:-0.31802 11:0.22391 12:-0.15821 13:-0.81667 14:-1 15:-0.39492 16:-1 17:-0.29232 18:0.16117 19:-1 20:-0.78541 21:-0.00834 22:-0.10711 23:-1 24:-0.41248 25:-0.62104 26:0.07307 27:0.10319 28:-1 29:-0.12698 30:-1 31:-0.57673 32:-0.69444 33:0.00625 34:-0.69003 35:-1 36:-0.5754 37:-0.81513 38:-0.64418 39:-0.59287 40:0.29641 41:0.2128 42:-0.27425 43:-0.85979 44:-0.03811 45:-0.16383 46:-1 47:0.53522 48:0.43515 49:-0.27853 50:0.08193 51:-0.30581 52:0.54665 53:0.10276 54:0.23585 55:0.07152 56:0.61248 
-0.8997609263052044 1:-1 2:-0.33652 3:0.27265 4:0.14302 5:-0.33494 6:0.26153 7:-1 8:0.42129 9:-0.00486 10:-0.49949 11:0.53982 12:-0.1125 13:-1 14:-0.93456 15:-0.44526 16:-0.7024 17:-0.57337 18:0.2567 19:-1 20:-0.74126 21:0.06951 22:-0.17571 23:-1 24:0.02339 25:-0.54307 26:-0.20045 27:0.33015 28:-0.58243 29:-0.47368 30:-0.62361 31:-0.48964 32:-0.63158 33:-0.08725 34:-0.81314 35:-1 36:-1 37:-0.71429 38:-1 39:-0.56241 40:0.10837 41:0.07848 42:0.48466 43:-0.83094 44:-0.07025 45:-0.08108 46:-1 47:-0.16026 48:0.51788 49:0.39655 50:-0.01684 51:0.54674 52:0.47171 53:0.35525 54:0.18166 55:0.10722 56:0.05681 
-0.7313999970567984 1:-0.83118 2:-1 3:0.38285 4:0.0941 5:-1 6:0.14486 7:-0.65879 8:-0.00991 9:-0.33501 10:-0.74222 11:0.44838 12:0.23123 13:-0.80172 14:-0.67714 15:-0.34848 16:-1 17:-0.80865 18:-0.36518 19:-1 20:-0.82593 21:-0.27247 22:-0.03343 23:-0.74302 24:-0.62885 25:-0.79506 26:0.18339 27:-0.40344 28:-0.7503 29:-0.76395 30:-0.32476 31:-1 32:-0.17382 33:-0.01658 34:-0.66476 35:-1 36:-0.77038 37:-0.39496 38:-0.61517 39:-0.34175 40:0.0988 41:0.40839 42:-0.24396 43:-0.62089 44:0.23865 45:0.34535 46:-0.66093 47:0.34256 48:0.43821 49:0.31844 50:0.49776 51:-0.15023 52:0.52964 53:0.5105 54:0.30971 55:0.31712 56:0.33005 
-0.07724183733588673 1:-1 2:-0.66179 3:0.59556 4:0.02726 5:-1 6:0.34626 7:-1 8:-0.3634 9:-0.00954 10:-0.38348 11:0.40528 12:-0.00861 13:-0.3239 14:-0.39953 15:-0.48338 16:-0.39318 17:-1 18:-0.3621 19:-1 20:-0.47242 21:-0.48424 22:0.05041 23:-1 24:0.13684 25:-1 26:-0.04293 27:0.35609 28:-0.85809 29:0.07317 30:-1 31:-1 32:-0.24878 33:0.1003 34:-0.61897 35:-1 36:-1 37:-0.71429 38:-1 39:-0.87519 40:0.36215 41:0.26622 42:0.30401 43:-0.48293 44:-0.34903 45:0.18986 46:-1 47:0.39988 48:0.61385 49:0.59475 50:0.64422 51:-0.43957 52:0.31345 53:0.53287 54:0.35676 55:0.50569 56:0.88046 
-0.9624717740787708 1:-1 2:-1 3:0.54632 4:0.09746 5:-1 6:0.52094 7:-1 8:0.66461 9:-0.12871 10:-0.67283 11:0.3101 12:0.32265 13:-0.61013 14:-1 15:-0.11046 16:-1 17:-1 18:0.04961 19:-1 20:-0.54366 21:0.31325 22:0.00772 23:-1 24:0.02924 25:-0.19409 26:-0.31589 27:0.173 28:-0.26352 29:-1 30:-1 31:-1 32:-0.35021 33:0.29274 34:-0.34084 35:-1 36:-1 37:-0.86555 38:-1 39:0.11813 40:-0.00319 41:-0.45337 42:0.00196 43:-1 44:0.47559 45:0.24525 46:-1 47:-0.00951 48:0.60545 49:-0.36688 50:0.11111 51:0.38877 52:0.628 53:-0.26713 54:0.37641 55:0.36672 56:-0.05616 
-0.8899404467794337 1:0.53496 2:-0.32359 3:0.08012 4:0.34503 5:-1 6:-0.73375 7:0.55121 8:0.10227 9:-0.62268 10:-0.60575 11:0.3828 12:0.42357 13:-0.09854 14:-0.86656 15:1 16:-1 17:-1 18:0.83236 19:-1 20:-0.47242 21:-0.70436 22:-0.25486 23:-1 24:-1 25:-1 26:-0.17941 27:-1 28:-0.14856 29:-1 30:-1 31:-1 32:-0.62439 33:0.46398 34:-1 35:-1 36:-1 37:-0.98319 38:-1 39:-0.73997 40:0.89482 41:1 42:0.63765 43:-1 44:-0.37168 45:0.10978 46:-1 47:-0.76978 48:0.18417 49:0.22292 50:-0.10325 51:1 52:0.91273 53:0.31547 54:0.28469 55:-0.13286 56:0.68079 
-0.9827054862339174 1:-1 2:-0.84385 3:0.26176 4:0.29612 5:-1 6:0.58775 7:-0.6419 8:-0.3759 9:-0.0351 10:-0.46751 11:0.39666 12:-0.09825 13:-0.27162 14:-0.32229 15:-0.33773 16:-0.57973 17:-0.59834 18:-0.298 19:-1 20:-0.81731 21:0.03707 22:-0.23375 23:-1 24:-0.55828 25:-0.56981 26:0.17998 27:-1 28:-0.6724 29:-0.38063 30:-0.46847 31:-0.51951 32:-0.39302 33:-0.6972 34:-0.64815 35:-1 36:-0.03604 37:-0.61345 38:-0.79805 39:-0.23848 40:0.13386 41:0.31361 42:0.34839 43:-0.04505 44:0.09936 45:0.35135 46:-1 47:0.4991 48:0.46774 49:0.45352 50:0.47026 51:-0.33082 52:0.50376 53:0.39917 54:0.20012 55:0.33725 56:0.21248 
-0.838510599224722 1:-1 2:-0.60153 3:0.65812 4:0.33458 5:-1 6:-0.81326 7:-0.08619 8:-0.42445 9:-0.34329 10:-0.95148 11:0.15983 12:0.26328 13:-0.46897 14:-0.68558 15:-0.04301 16:-1 17:-1 18:0.52912 19:-1 20:-1 21:0.26228 22:-0.03785 23:-0.31177 24:-0.42222 25:0.0977 26:-0.23457 27:-1 28:-1 29:-0.6839 30:-0.54789 31:-1 32:-0.55747 33:0.26937 34:-0.10217 35:-1 36:-0.38505 37:-0.88235 38:-0.48467 39:0.21768 40:-0.049 41:0.15364 42:0.08628 43:0.01532 44:0.00657 45:0.64364 46:-1 47:0.51716 48:0.21166 49:-0.06703 50:0.08923 51:-0.0383 52:0.27746 53:0.44061 54:0.54437 55:0.4731 56:0.41675 
-0.08029911411472868 1:-0.21431 2:-1 3:0.09263 4:0.4522 5:-1 6:0.39091 7:-1 8:0.42933 9:-0.20036 10:-0.7551 11:0.39292 12:0.35767 13:-1 14:-1 15:0.08358 16:-1 17:-0.55472 18:0.24068 19:-1 20:-0.72995 21:0.36979 22:0.14837 23:-0.70101 24:-0.36959 25:-1 26:0.2431 27:-0.65294 28:-0.41891 29:-0.72534 30:-0.21431 31:-1 32:-0.32709 33:-0.07801 34:-0.60993 35:-1 36:-1 37:-0.2605 38:-0.77612 39:-0.55498 40:-0.32948 41:0.20646 42:0.18627 43:-0.73533 44:-0.07935 45:0.0337 46:-1 47:0.19037 48:0.18162 49:0.35357 50:-0.23962 51:-0.54237 52:0.55923 53:0.70912 54:0.26027 55:0.07799 56:0.45156 
-0.4499910338715274 1:-1 2:0.07217 3:0.72836 4:0.2304 5:-1 6:0.7067 7:-0.18042 8:0.29144 9:-0.23708 10:-0.71268 11:0.35582 12:0.59335 13:-0.76186 14:-0.859 15:0.11779 16:-1 17:-1 18:1 19:-1 20:-0.86063 21:0.10936 22:0.35645 23:-1 24:-0.87758 25:-0.50774 26:0.28746 27:-1 28:-0.7001 29:-0.7165 30:-1 31:-1 32:0.19072 33:0.18456 34:-1 35:-1 36:-0.44846 37:-0.89916 38:-1 39:-0.54903 40:-0.42669 41:0.6058 42:0.46064 43:0.09278 44:-0.68806 45:0.8959 46:-1 47:0.39699 48:-0.43872 49:0.40269 50:-0.42368 51:-0.52213 52:0.42192 53:0.54006 54:0.00417 55:0.70097 56:0.75567 
-0.8810885294435062 1:0.28961 2:-1 3:0.08012 4:-0.2009 5:-1 6:-0.91201 7:-1 8:0.09925 9:0.28425 10:-1 11:0.42814 12:0.13565 13:-1 14:-1 15:-0.10704 16:0.01967 17:-1 18:0.21418 19:-1 20:-0.1135 21:0.05653 22:-0.22003 23:-1 24:0.31306 25:-1 26:-0.80608 27:-1 28:-1 29:-1 30:-1 31:-1 32:-1 33:0.13237 34:-1 35:-1 36:-1 37:-0.93277 38:-1 39:-0.13596 40:0.02151 41:-0.07757 42:0.63686 43:-0.42077 44:0.45295 45:0.05305 46:-1 47:0.02324 48:0.15897 49:0.05373 50:-0.19978 51:0.27049 52:0.71231 53:0.15663 54:0.50149 55:0.15515 56:0.57373 
-0.7087519311523844 1:-1 2:0.76646 3:0.1443 4:0.29388 5:-0.40977 6:-0.68551 7:-0.32485 8:0.36656 9:-0.0081 10:-0.80619 11:-0.00843 12:0.41882 13:-0.60764 14:-0.76769 15:-0.13734 16:-1 17:-1 18:0.05578 19:-1 20:-0.88519 21:0.03707 22:0.1382 23:-0.49152 24:-0.7462 25:-0.59449 26:-0.23344 27:-0.40977 28:-0.25883 29:-1 30:0.33617 31:-1 32:0.14438 33:0.40636 34:-1 35:-1 36:-1 37:-0.51261 38:-1 39:-0.1107 40:0.77092 41:0.5566 42:0.14685 43:-0.24982 44:0.16567 45:0.56023 46:-1 47:-0.0307 48:0.73578 49:0.41532 50:0.66723 51:-0.33598 52:0.69087 53:0.29337 54:0.59619 55:0.26321 56:0.52709 
-0.8196860758392598 1:-0.77619 2:-1 3:0.15197 4:0.02875 5:-0.60454 6:0.34072 7:-1 8:-0.52011 9:-1 10:-0.87965 11:0.38805 12:0.0935 13:-0.47425 14:-0.76653 15:-0.51124 16:-1 17:-1 18:-0.68444 19:-1 20:1 21:-0.48563 22:-0.53662 23:-1 24:-0.75906 25:-0.7283 26:-0.02587 27:-0.60454 28:0.15867 29:-0.37411 30:-0.55239 31:-0.69653 32:-0.78093 33:-0.23077 34:1 35:-1 36:-1 37:-0.7479 38:-0.7449 39:-0.71322 40:-1 41:0.37308 42:-0.0278 43:0.00522 44:1 45:0.35869 46:-0.55049 47:-0.58989 48:-1 49:0.65478 50:0.57576 51:0.27883 52:0.5538 53:-0.02707 54:0.43776 55:0.33797 56:0.30378 
-0.5842011718836742 1:-0.36173 2:-0.43746 3:0.22301 4:0.29201 5:-1 6:0.11031 7:-1 8:0.56478 9:-0.02898 10:-0.46615 11:0.31422 12:0.22588 13:-1 14:-0.77805 15:-0.08211 16:-0.74767 17:-0.63827 18:-0.03852 19:-1 20:-0.67093 21:-0.00973 22:0.20411 23:-1 24:-0.16413 25:-1 26:-0.02474 27:-1 28:-0.64595 29:-0.33063 30:-0.68087 31:-1 32:-0.68763 33:-0.63577 34:-0.68312 35:-1 36:-0.56592 37:-0.61345 38:-0.27248 39:0.16196 40:0.42709 41:0.07818 42:0.74338 43:-0.85666 44:-0.01749 45:0.12312 46:-1 47:0.09982 48:0.58636 49:0.24646 50:0.23064 51:-0.05457 52:0.42635 53:0.31243 54:0.3508 55:0.22942 56:0.44171 
-0.6691671947144517 1:-1 2:1 3:0.65933 4:0.43279 5:-1 6:0.53234 7:-1 8:0.64191 9:0.06175 10:-0.90269 11:0.7418 12:-1 13:-1 14:-1 15:-0.12463 16:-0.40192 17:-1 18:-0.51495 19:-1 20:-1 21:0.37118 22:0.37708 23:-1 24:-0.11384 25:-1 26:0.30793 27:-1 28:-0.72028 29:-0.47115 30:-0.24359 31:-1 32:0.48077 33:0.20413 34:-0.24893 35:-1 36:-1 37:-0.89916 38:-1 39:-0.20654 40:0.51155 41:-0.26502 42:0.98355 43:-1 44:0.09754 45:-1 46:0.51924 47:0.62553 48:0.74418 49:0.72199 50:-0.08642 51:-0.25541 52:0.38223 53:0.35442 54:0.64384 55:-0.2081 56:0.76158 
-0.2850896936206891 1:-1 2:-0.66827 3:0.12815 4:0.52166 5:-1 6:0.39743 7:0.52154 8:0.35406 9:0.18812 10:-0.38714 11:0.24939 12:0.24191 13:-0.33684 14:-1 15:-0.53275 16:-1 17:-0.57337 18:0.58767 19:-1 20:-0.87063 21:-0.48193 22:-0.19864 23:-1 24:-0.16218 25:-1 26:-0.09866 27:-1 28:-0.72162 29:-1 30:-1 31:-1 32:-0.81579 33:-0.11987 34:-0.4394 35:-0.32059 36:-1 37:-0.81513 38:-1 39:-0.65156 40:0.53586 41:-0.0652 42:-0.05939 43:-0.83094 44:-0.15435 45:0.07774 46:-1 47:0.31102 48:0.41173 49:-0.07044 50:0.1835 51:-0.44592 52:0.42759 53:-0.05608 54:0.03931 55:-0.03534 56:0.68342 
-0.3325744772506925 1:-1 2:-1 3:0.38406 4:0.1699 5:-1 6:0.11748 7:-1 8:-0.17739 9:-0.09919 10:-0.49068 11:0.40004 12:0.22529 13:-0.16254 14:-0.91736 15:-0.11828 16:-0.62418 17:-0.46124 18:-0.24438 19:-1 20:-1 21:-0.40639 22:0.32921 23:-1 24:-0.54191 25:-1 26:0.40859 27:-0.16013 28:-1 29:-0.00303 30:-1 31:-1 32:-1 33:-0.06823 34:-0.76402 35:-1 36:-1 37:-0.84874 38:-1 39:-0.57207 40:0 41:0.5074 42:0.30479 43:-0.57301 44:-0.28717 45:0.24391 46:-1 47:0.58314 48:0.64185 49:0.26897 50:0.4624 51:-0.32923 52:0.41181 53:0.69696 54:0.09768 55:0.539 56:0.79113 
-0.7935478495994623 1:-1 2:-1 3:0.08012 4:0.1236 5:-1 6:0.03243 7:-1 8:-0.43953 9:0.18416 10:-0.3622 11:0.10062 12:0.44672 13:-1 14:-0.61472 15:-0.52053 16:-1 17:-1 18:-0.23143 19:-1 20:0.14247 21:-0.04171 22:0.40884 23:0.68664 24:-0.47563 25:-1 26:0.08274 27:-1 28:-1 29:-0.22535 30:-1 31:-1 32:-1 33:-0.20141 34:-1 35:1 36:-1 37:-0.86555 38:-1 39:-0.47994 40:-0.84861 41:0.51645 42:0.47657 43:-0.0047 44:-0.74932 45:0.24591 46:-1 47:-0.00807 48:-0.67214 49:0.5869 50:0.367 51:-0.29153 52:-0.11919 53:0.37956 54:0.1894 55:0.3418 56:0.95534 
-0.5190712130406413 1:-0.86587 2:-1 3:0.21776 4:0.30209 5:-0.763 6:0.37559 7:-1 8:-0.22637 9:-0.01134 10:-0.72596 11:0.45213 12:-0.01633 13:-0.68491 14:-0.58023 15:-0.28886 16:-0.68185 17:-1 18:-0.17658 19:-1 20:-0.81559 21:0.18443 22:-0.08476 23:-0.79583 24:-0.4963 25:-0.67434 26:0.10776 27:-0.763 28:-0.9504 29:-0.43734 30:-0.86587 31:-0.63627 32:-0.67178 33:-0.06823 34:-0.66704 35:-1 36:-1 37:-0.2437 38:-0.69424 39:-0.34473 40:-0.02191 41:0.24691 42:0.11839 43:-0.15658 44:-0.17295 45:-0.01568 46:-0.19183 47:0.49765 48:0.11238 49:0.32594 50:0.17003 51:-0.05061 52:0.21016 53:0.37652 54:0.47588 55:0.30226 56:0.43448 
-0.8022839886452124 1:-1 2:-0.46461 3:0.04137 4:0.39806 5:-1 6:0.90614 7:-1 8:0.44671 9:-0.43474 10:-0.75252 11:0.32022 12:0.3642 13:-1 14:-0.89438 15:-0.57185 16:-1 17:-0.31146 18:-0.48475 19:-1 20:-0.79121 21:0.46803 22:0.21763 23:0.84943 24:-0.09123 25:-1 26:0.03327 27:-1 28:-0.32608 29:-0.57529 30:0.21492 31:-0.17632 32:-0.40541 33:0.04594 34:-1 35:-1 36:-1 37:-0.81513 38:-1 39:-0.66865 40:0.13705 41:-0.00272 42:0.49484 43:-0.72716 44:-0.01547 45:0.46747 46:-1 47:0.28308 48:0.60188 49:0.26215 50:0.1908 51:0.06172 52:0.58092 53:0.23978 54:0.32996 55:0.01761 56:0.01938 
-0.06018101884292898 1:-0.77198 2:-0.59806 3:0.05106 4:0.37603 5:-1 6:0.62262 7:-0.53912 8:0.51106 9:0.16904 10:-0.67663 11:0.50946 12:-0.10062 13:-0.73217 14:-0.96035 15:-0.20235 16:-0.81971 17:-0.74154 18:-0.37257 19:-1 20:-0.68651 21:0.72289 22:0.08294 23:-1 24:-0.24795 25:-1 26:0.33295 27:-0.59709 28:-0.40975 29:-0.36232 30:0.1401 31:-0.38163 32:-0.66522 33:0.01169 34:-0.54718 35:-1 36:-1 37:-0.34454 38:-1 39:-0.06835 40:0.38964 41:0.278 42:0.01318 43:-0.3855 44:-0.16527 45:-0.15249 46:-0.08404 47:0.43408 48:0.70727 49:0.29285 50:0.56678 51:-0.24628 52:0.39578 53:0.48785 54:0.43657 55:0.17719 56:0.65057 
-0.9310973156376465 1:-1 2:-0.61374 3:0.27629 4:0.46191 5:-1 6:0.18592 7:-0.11421 8:0.03246 9:-0.28497 10:-0.63326 11:0.71445 12:0.09469 13:-0.74262 14:-1 15:-0.38123 16:-0.65348 17:-0.50325 18:-0.14884 19:-1 20:-0.84937 21:-0.16219 22:0.09263 23:-0.33287 24:-0.62807 25:-1 26:-0.21012 27:-1 28:-0.83793 29:-1 30:-0.56175 31:0.18848 32:-0.78552 33:-0.66784 34:-0.56484 35:-1 36:-1 37:-0.89916 38:-1 39:-0.06909 40:0.69442 41:0.17265 42:0.08967 43:-0.60632 44:-0.17699 45:0.22456 46:-1 47:0.34834 48:0.48657 49:-0.20314 50:0.23569 51:-0.28121 52:0.55331 53:0.2384 54:0.08815 55:-0.03846 56:0.52118 
-0.007699653224799478 1:-0.72827 2:-0.76051 3:0.28315 4:0.07692 5:-0.83995 6:0.11944 7:-0.63385 8:0.41367 9:-0.08767 10:-0.64166 11:0.23965 12:0.04185 13:-0.52125 14:-0.92126 15:-0.19062 16:-0.71353 17:-0.79467 18:0.08228 19:-1 20:-0.81321 21:-0.06024 22:0.05982 23:0.10305 24:-0.33606 25:-0.78008 26:-0.00938 27:-0.83995 28:-0.73204 29:-0.62004 30:-0.72827 31:-0.63155 32:-0.15774 33:0.17478 34:-0.86509 35:-1 36:-0.7536 37:0.69748 38:-0.58703 39:-0.34473 40:0.58924 41:0.1642 42:0.10952 43:-0.83727 44:0.16769 45:0.12513 46:-0.45424 47:0.377 48:0.74825 49:0.57598 50:0.32772 51:-0.29232 52:0.65044 53:0.4674 54:0.41572 55:0.36217 56:0.37734 
-0.4216496624217571 1:-1 2:-1 3:-0.09788 4:-0.12995 5:-1 6:0.42513 7:0.88167 8:0.27392 9:0.01458 10:-0.60182 11:0.26288 12:0.13565 13:-0.45325 14:-0.67627 15:-0.07967 16:-1 17:-1 18:-0.29985 19:-1 20:-1 21:0.68304 22:0.18511 23:-1 24:-0.7809 25:-1 26:0.57976 27:-1 28:0.37708 29:-1 30:-0.06903 31:-1 32:-0.54438 33:-0.25523 34:-0.5378 35:-1 36:-1 37:-0.91597 38:-1 39:-0.52155 40:0.28127 41:0.64715 42:-0.27633 43:-0.58185 44:-0.24128 45:-0.09109 46:-1 47:-1 48:0.54156 49:0.58417 50:0.39394 51:-0.31058 52:0.2247 53:0.35221 54:0.32638 55:0.38181 56:0.35764 
-0.1671068603704978 1:-1 2:-0.73786 3:0.49909 4:0.20127 5:-1 6:0.46228 7:-1 8:0.06693 9:0.06535 10:-0.66782 11:0.1632 12:-0.20036 13:-0.65066 14:-0.43118 15:-0.42278 16:-1 17:-1 18:-0.42989 19:-1 20:-0.5911 21:0.06487 22:-0.05876 23:-1 24:-0.25419 25:-0.63893 26:0.15041 27:-0.47447 28:-0.56006 29:-0.37618 30:-0.10775 31:0.6131 32:-0.27221 33:-0.433 34:-0.55702 35:-1 36:-0.19093 37:-0.66387 38:-1 39:-0.35438 40:0.2239 41:0.02626 42:0.36536 43:-1 44:0.11634 45:0.28061 46:-1 47:-0.0425 48:0.56396 49:0.22565 50:0.52469 51:-0.12244 52:0.3201 53:0.40497 54:0.33294 55:0.14125 56:0.4069 
-0.6981404501136087 1:-1 2:-1 3:0.76549 4:0.16355 5:-0.09738 6:-0.28923 7:0.03248 8:-0.21876 9:-0.33141 10:-0.46385 11:0.4585 12:-0.15227 13:-0.7 14:-0.91118 15:-0.24487 16:-0.19221 17:-1 18:-0.01387 19:-1 20:-0.82442 21:0.0051 22:0.4592 23:-0.22239 24:-0.44834 25:-0.37986 26:-0.06397 27:-0.09738 28:-1 29:-0.64285 30:-1 31:0.38528 32:-0.25 33:0.28785 34:-0.74639 35:-1 36:-1 37:-0.78151 38:-1 39:-0.37964 40:0.39522 41:0.56052 42:0.03668 43:-0.54113 44:-0.59871 45:0.54154 46:0.02599 47:0.53257 48:0.48148 49:0.85741 50:0.59989 51:-0.71304 52:0.09627 53:0.47182 54:0.30852 55:1 56:1 
-0.413549793071351 1:-1 2:-0.4653 3:0.5334 4:0.30209 5:-0.64268 6:0.51898 7:-1 8:0.51307 9:-0.00738 10:-0.70007 11:0.46412 12:-0.28347 13:-0.64371 14:-0.89452 15:-0.16471 16:-0.36041 17:-1 18:-0.34607 19:-1 20:-0.86098 21:0.67563 22:-0.01473 23:-0.69217 24:-0.41481 25:-1 26:0.32442 27:-0.64268 28:-0.40173 29:-0.71722 30:-0.59554 31:-0.45158 32:-0.80206 33:-0.1987 34:-1 35:-1 36:-0.72495 37:-0.46218 38:-0.53899 39:-0.263 40:0.27689 41:0.04467 42:0.43584 43:-0.27335 44:-0.19074 45:-0.08976 46:-0.59384 47:0.42854 48:0.51152 49:0.10831 50:0.54994 51:-0.48442 52:0.24886 53:0.35442 54:0.59678 55:0.03223 56:0.43974 
-0.5657755291009495 1:-1 2:-0.66746 3:0.73158 4:0.41075 5:-1 6:0.10445 7:-0.2374 8:-1 9:0.06175 10:-0.90269 11:0.51771 12:-0.04185 13:-0.77842 14:-0.8032 15:-0.24145 16:-1 17:-1 18:-0.80955 19:-1 20:-0.87032 21:0.7317 22:0.7214 23:-1 24:-0.36998 25:-1 26:-0.10037 27:-1 28:-0.86047 29:-0.47242 30:-1 31:-0.48841 32:-1 33:-0.60859 34:-1 35:0.36211 36:-0.48681 37:-0.71429 38:-1 39:-0.1627 40:-0.86693 41:0.47329 42:0.26563 43:-0.49161 44:-0.77964 45:0.27661 46:-1 47:0.65443 48:-0.97174 49:0.3546 50:0.85241 51:-0.46894 52:-0.75767 53:0.1232 54:1 55:0.30658 56:0.25123 
-0.3877652628406696 1:-1 2:-1 3:0.6561 4:0.49104 5:-1 6:0.27717 7:-1 8:-0.60859 9:-0.06715 10:-0.91407 11:0.2299 12:-0.46037 13:-0.80424 14:-0.30454 15:-0.21457 16:-1 17:-1 18:-0.49954 19:-1 20:-0.88543 21:0.87118 22:0.35895 23:0.01484 24:-0.54074 25:-0.19068 26:0.09866 27:-1 28:-0.87674 29:-0.30085 30:-0.33333 31:-0.54803 32:-0.83687 33:-0.62707 34:-0.83451 35:-1 36:-1 37:-0.68067 38:-1 39:-0.93611 40:0.24462 41:0.42922 42:0.43741 43:0.04802 44:-1 45:0.13714 46:-1 47:0.58025 48:-0.0406 49:0.4525 50:0.87598 51:-0.71423 52:-1 53:0.41105 54:0.50149 55:0.16281 56:0.49294 
-0.3459870015304187 1:-1 2:-1 3:0.52492 4:0.25429 5:-1 6:0.86182 7:-1 8:0.06851 9:1 10:-0.85065 11:0.61851 12:-0.11606 13:-0.68571 14:-0.90696 15:-0.38074 16:-0.57687 17:-0.39342 18:-0.34915 19:-1 20:-0.81606 21:-0.39852 22:0.33333 23:-0.18536 24:0.4655 25:-1 26:0.53142 27:-1 28:-0.40631 29:-0.2517 30:-0.46485 31:-0.27437 32:-0.21428 33:0.37211 34:-0.20295 35:-1 36:-1 37:-0.79832 38:-1 39:-0.23626 40:0.98606 41:0.5246 42:0.44211 43:-0.51928 44:-0.13575 45:0.19987 46:-1 47:0.36785 48:0.45043 49:0.39383 50:0.24579 51:-0.17206 52:0.34895 53:0.41326 54:0.45086 55:-0.11681 56:0.39507 
-0.2302444793776878 1:-1 2:-1 3:0.52492 4:0.1419 5:-0.44177 6:0.23318 7:-0.36146 8:0.48061 9:-0.07363 10:-0.82354 11:0.42814 12:-0.01276 13:-0.62891 14:-0.72535 15:-0.35044 16:-1 17:-0.64191 18:-0.0755 19:-1 20:-0.89141 21:0.46525 22:-0.13484 23:-1 24:-0.03548 25:0.1506 26:0.43759 27:-0.44177 28:-0.18218 29:-1 30:-0.68408 31:-0.14323 32:-0.69076 33:-0.40745 34:-0.84315 35:-1 36:-0.57029 37:-0.71429 38:-1 39:-0.36776 40:0.09124 41:0.40235 42:0.23404 43:-0.7162 44:-0.15476 45:0.02703 46:-1 47:0.00084 48:0.68105 49:0.54324 50:0.57576 51:-0.35979 52:0.41896 53:0.71768 54:0.41215 55:0.54523 56:0.67619 
-0.168404091326726 1:-1 2:-1 3:0.78365 4:0.08066 5:0.29604 6:0.75363 7:-0.25874 8:-0.60988 9:-0.15248 10:-0.1768 11:0.42814 12:-0.1404 13:-0.13846 14:-0.87247 15:-0.34897 16:-0.71002 17:-1 18:-0.4829 19:-1 20:-0.49579 21:-0.79008 22:0.24939 23:-1 24:-0.25029 25:-1 26:0.38129 27:-1 28:-1 29:-0.23077 30:-1 31:-0.50272 32:0.25641 33:0.053 34:-0.81792 35:-1 36:-1 37:-0.76471 38:-1 39:-0.3945 40:-0.26853 41:0.3767 42:-0.0526 43:-0.01166 44:-0.43233 45:0.32399 46:-1 47:0.46827 48:-0.09915 49:0.60737 50:0.30359 51:-0.47728 52:0.29693 53:0.68564 54:0.4324 55:0.4398 56:0.42003 
-0.5003257537015908 1:-1 2:-1 3:-0.04581 4:0.02166 5:-1 6:-0.11488 7:-0.00625 8:0.14938 9:0.03978 10:-0.42089 11:0.22391 12:-0.09528 13:-0.4225 14:-0.65806 15:-0.61681 16:-1 17:-0.44271 18:-0.13405 19:-1 20:-0.32404 21:-0.17006 22:-0.1333 23:-0.25156 24:-0.25458 25:-0.40312 26:-0.61558 27:-1 28:1 29:-0.65625 30:-0.01667 31:-1 32:-0.51875 33:-0.63631 34:-1 35:-1 36:-1 37:-0.79832 38:-1 39:-0.73997 40:0.16056 41:-0.0652 42:0.32855 43:-0.55833 44:0.19155 45:0.02369 46:-1 47:-0.25202 48:0.40741 49:0.24783 50:0.4422 51:-0.46815 52:0.2989 53:0.33039 54:0.22335 55:0.6679 56:-0.13103 
-0.3417054243657504 1:-0.73601 2:-0.76733 3:0.50313 4:0.08999 5:-0.76678 6:0.33779 7:-1 8:0.40003 9:0.20792 10:-0.85227 11:0.24752 12:-0.13802 13:-0.68993 14:-0.90821 15:-0.30499 16:-0.68691 17:-1 18:0.09954 19:-0.60907 20:-0.81853 21:0.20853 22:-0.17168 23:-0.39722 24:-0.36491 25:-0.83977 26:0.13904 27:-1 28:-0.65833 29:-0.16947 30:-1 31:-0.46308 32:-0.61241 33:-0.31068 34:-0.86894 35:-0.76175 36:-0.64093 37:-0.12605 38:-0.84956 39:-0.45988 40:0.3239 41:0.26804 42:0.30401 43:-0.70358 44:-0.06641 45:0.2319 46:-0.20469 47:0.21878 48:0.63879 49:0.19188 50:0.26599 51:-0.14547 52:0.34993 53:0.41657 54:0.56403 55:0.24668 56:0.23481 
-0.7610565935249058 1:-1 2:-1 3:0.43411 4:0.17252 5:-1 6:0.57145 7:-1 8:1 9:-0.05635 10:-0.42183 11:0.34607 12:0.13565 13:-0.59295 14:-0.87949 15:-0.5435 16:-1 17:-1 18:-1 19:-1 20:-0.76178 21:0.38044 22:0.09407 23:-1 24:-0.61092 25:-1 26:0.26813 27:0.22468 28:-0.48738 29:-0.03083 30:-0.3069 31:-1 32:-1 33:0.28513 34:-1 35:-1 36:-1 37:-0.98319 38:-1 39:-0.65825 40:0.4004 41:-0.17839 42:0.16695 43:-0.37738 44:0.03528 45:0.37604 46:-1 47:0.26165 48:0.3873 49:-0.71857 50:-0.36027 51:-0.34233 52:-0.08517 53:-0.52099 54:-0.02085 55:-0.14149 56:0.76814 
-0.7550556318994447 1:-0.46394 2:-1 3:0.3889 4:0.14302 5:-1 6:-0.01027 7:-1 8:0.83568 9:-0.36454 10:-0.94809 11:0.18906 12:0.08519 13:-0.68517 14:-1 15:-0.31965 16:-0.78807 17:-1 18:0.4114 19:-1 20:-0.81575 21:0.08758 22:0.27261 23:-0.59199 24:-0.88655 25:-1 26:0.04805 27:-1 28:-0.60353 29:-1 30:-0.46394 31:-1 32:-0.21294 33:0.30198 34:-0.86693 35:-1 36:-0.27086 37:-0.63025 38:-0.69449 39:-0.10847 40:0.14024 41:0.36976 42:-0.07949 43:-1 44:0.22288 45:0.08509 46:-0.46166 47:0.03961 48:0.58839 49:0.62408 50:-0.54321 51:0.36892 52:0.90213 53:0.30663 54:0.50149 55:0.30801 56:0.70049 
-0.9333856601853976 1:-1 2:-1 3:0.08012 4:0.00299 5:-1 6:0.59263 7:0.2278 8:-0.09221 9:-0.05455 10:0.09792 11:0.32022 12:-0.1499 13:0.07027 14:-1 15:-0.38368 16:-1 17:-1 18:-0.54391 19:-1 20:-0.58242 21:0.06766 22:0.47599 23:-0.07529 24:-0.57817 25:-1 26:0.47057 27:0.07336 28:-0.77536 29:0.69884 30:-1 31:-1 32:-0.7027 33:-0.16336 34:-1 35:-1 36:-1 37:-0.79832 38:-1 39:0.11738 40:0.29004 41:0.05524 42:0.36953 43:0.63706 44:-0.40281 45:-0.11044 46:-1 47:0.49091 48:-0.17704 49:0.13116 50:1 51:-0.54832 52:0.22593 53:0.23978 54:-0.18582 55:0.45489 56:0.3353 
-1.110138252428694 1:-1 2:0.06666 3:0.38971 4:0.46901 5:-1 6:0.43751 7:-0.18462 8:0.42876 9:-0.01062 10:-0.4381 11:0.45213 12:-0.13031 13:-0.05231 14:-0.92986 15:-0.78886 16:-0.04308 17:-0.54274 18:-0.15008 19:-1 20:-0.86134 21:-0.29935 22:-0.16573 23:-1 24:-0.6538 25:-1 26:-0.03838 27:-0.28718 28:-0.85082 29:-1 30:0.21025 31:-1 32:-0.60513 33:-0.12694 34:-1 35:-1 36:-1 37:-0.83193 38:-0.54017 39:0.02006 40:0.41873 41:-0.52883 42:0.34552 43:-0.63761 44:-0.38785 45:0.12646 46:-0.18974 47:0.00157 48:0.48963 49:-0.50776 50:0.0853 51:-0.3205 52:0.39283 53:-0.0058 54:0.04467 55:-0.08015 56:0.46273 
-0.854010109277141 1:-1 2:-1 3:-0.05873 4:-0.13107 5:-1 6:0.36484 7:0.46544 8:0.7979 9:0.43402 10:-0.08857 11:-0.13022 12:-0.54527 13:-1 14:-0.87394 15:-0.34409 16:-0.42673 17:-1 18:-0.94515 19:-1 20:-0.25239 21:0.4013 22:-0.29592 23:-1 24:0.03002 25:-0.11981 26:0.05829 27:-1 28:-0.46376 29:-0.49309 30:-1 31:-1 32:-0.64516 33:0.46398 34:-0.64004 35:0.30875 36:-0.01382 37:-1 38:-1 39:-0.65453 40:-0.25458 41:-0.08421 42:-0.16016 43:-0.67435 44:-0.19013 45:0.28929 46:0.45623 47:-0.48368 48:0.09151 49:-0.48115 50:0.41021 51:-0.59516 52:0.26316 53:-0.57735 54:-0.24955 55:-0.0109 56:0.84039 
-0.06597958891821634 1:-0.65797 2:-0.69855 3:0.32109 4:-0.00896 5:-0.39565 6:0.34659 7:-0.3087 8:0.70066 9:-0.10423 10:-0.93386 11:0.54993 12:0.03888 13:-0.79913 14:-1 15:0.01857 16:-1 17:-1 18:0.07304 19:-1 20:-0.64733 21:0.23772 22:0.08217 23:-0.47935 24:-0.33996 25:-1 26:0.20955 27:-1 28:-0.24111 29:-0.76087 30:0.02608 31:-0.53623 32:-1 33:-0.03724 34:-0.83019 35:-0.38262 36:-1 37:-0.79832 38:-0.61015 39:-0.3373 40:0.40398 41:0.19137 42:0.71126 43:-0.84638 44:-0.37592 45:-0.12779 46:-0.31305 47:-0.11981 48:0.65712 49:0.88504 50:0.32379 51:-0.19627 52:0.41846 53:0.85249 54:0.46933 55:0.48916 56:0.84039 
-0.3675829990404195 1:-0.62981 2:-1 3:-0.06196 4:-0.16206 5:-1 6:0.52192 7:-1 8:0.02973 9:-0.10351 10:-0.69005 11:0.23028 12:-0.21282 13:-0.56517 14:-0.80691 15:-0.55279 16:-1 17:-1 18:0.06071 19:-1 20:-0.61828 21:-0.29333 22:-0.14424 23:-0.43648 24:0.03002 25:-0.5506 26:0.41314 27:-1 28:-0.4524 29:-0.48235 30:-0.62981 31:-0.49805 32:-0.45647 33:-0.11008 34:-1 35:-1 36:-0.49648 37:-0.83193 38:-1 39:-0.43462 40:-0.04462 41:0.37308 42:0.27555 43:-0.16863 44:-0.28697 45:-0.22656 46:-0.25648 47:-0.08537 48:0.30457 49:0.26488 50:0.00056 51:-0.00893 52:0.23358 53:0.28011 54:0.22216 55:0.4525 56:0.1468 
-0.8232778846155313 1:-1 2:-1 3:0.04178 4:0.18297 5:-1 6:0.7823 7:-1 8:0.34889 9:-0.02646 10:-0.79318 11:1 12:-0.3173 13:-1 14:-0.89519 15:-0.6608 16:-1 17:-0.31674 18:0.45455 19:-1 20:-0.79281 21:0.51715 22:-0.08457 23:-1 24:-0.72982 25:-1 26:0.36252 27:0.06514 28:-0.77708 29:-0.57855 30:-1 31:-0.18263 32:0.18008 33:-0.6249 34:-1 35:-1 36:-1 37:-0.91597 38:-1 39:-0.31501 40:0.21753 41:-0.31241 42:0.37267 43:-0.72925 44:0.00697 45:0.21388 46:-1 47:0.19687 48:0.60596 49:0.33174 50:-0.39057 51:-0.73963 52:0.51288 53:0.4279 54:0.50149 55:0.09045 56:-0.47521 
