svm_type c_svc
kernel_type rbf
gamma 0.125
nr_class 4
total_sv 97
rho -0.315532 0.864308 0.085296 0.031212 0.347838 -0.127862
label 1 2 3 4
probA -3.12959 -3.25115 -3.53067 -3.32199 -3.02709 -2.26095
probB 0.337646 0.215279 -0.0425773 -0.377935 0.134866 -0.118201
nr_sv 43 16 27 11
SV
0 0.2837870448916534 0.3595048165512043 1:0.26924 2:-0.18682 3:0.44904 4:0.17482 5:0.518 6:-1 7:-1 8:0.32734 9:-0.06967 10:-0.43211 11:-1 12:0.57396 13:-0.40059 14:0.76813 15:0.42865 16:0.90239 17:0.79044 18:0.06069 19:-0.56522 20:-0.37793 21:0.09984 22:-0.93277 23:0.19038 24:0.61721 25:-0.1261 
1.230845937101829 1.725931418054095 0.09425137985288813 1:0.35975 2:0.48009 3:0.28532 4:-0.43419 5:0.32942 6:-0.17612 7:-0.1745 8:0.16231 9:-0.32239 10:-0.59174 11:1 12:0.62336 13:0.4 14:0.34848 15:-0.17987 16:0.19113 17:0.21459 18:0.65281 19:-0.91304 20:0.19824 21:0.21134 22:-0.83193 23:-0.39873 24:0.39993 25:-0.18248 
1.188096768197751 0 0 1:0.18589 2:0.14989 3:-0.05943 4:-0.20006 5:0.52269 6:-0.30479 7:-0.65171 8:-0.39216 9:-0.42821 10:0.03945 11:-0.15616 12:0.60818 13:0.16588 14:0.32116 15:0.30855 16:0.68805 17:0.46591 18:0.15885 19:-0.82609 20:0.35449 21:0.39276 22:-0.76471 23:0.11718 24:0.38826 25:-0.0301 
1.704338390994064 0 0 1:0.25237 2:0.22448 3:0.10114 4:0.18067 5:0.54121 6:-1 7:-0.72235 8:-0.37527 9:-0.08835 10:-0.0055 11:0.3454 12:0.60612 13:-0.11941 14:0.15152 15:-0.41779 16:0.76587 17:0.4837 18:0.703 19:-0.65217 20:0.5625 21:0.33102 22:-0.71429 23:-0.36484 24:0.50784 25:-0.27848 
0 0.04764289875930979 0 1:0.5597 2:0.1651 3:0.73711 4:-0.59885 5:-0.28404 6:-1 7:-1 8:0.23802 9:-1 10:-0.47064 11:-1 12:-0.04245 13:0.50647 14:-0.27381 15:-0.26737 16:-0.09761 17:0.09885 18:0.50447 19:-0.73913 20:0.17773 21:-0.10677 22:-0.86555 23:-0.31337 24:0.37951 25:-0.68457 
1.561904419070933 0 0 1:0.36998 2:0.19117 3:0.27115 4:0.1777 5:0.64163 6:-1 7:-0.74251 8:0.03649 9:-0.15456 10:0.28716 11:-1 12:0.68562 13:0.19294 14:0.49973 15:0.11753 16:0.4901 17:0.54504 18:0.4292 19:-0.56522 20:0.50684 21:0.54583 22:-0.4958 23:-0.1155 24:0.51586 25:-0.19695 
0.8203681963172236 0 0 1:-0.09997 2:0.16872 3:0.2924 4:-0.61964 5:0.2483 6:-1 7:-1 8:0.19717 9:-0.63149 10:0.20275 11:-1 12:0.58657 13:0.22294 14:-0.06953 15:0.14613 16:0.12969 17:0.14628 18:0.30626 19:-0.91304 20:0.65332 21:-0.10047 22:-0.78151 23:-0.03201 24:0.73533 25:-0.24952 
0.4754490024551731 0 0 1:0.54538 2:0.33816 3:0.39473 4:-0.05495 5:0.43923 6:-0.31685 7:-0.65775 8:0.63562 9:-0.71906 10:-0.12294 11:-1 12:0.48881 13:0.06824 14:0.11932 15:-0.27424 16:-0.40341 17:0.44348 18:0.60075 19:-0.73913 20:0.2959 21:0.40094 22:-0.64706 23:-0.17615 24:0.25702 25:-0.408 
1.180693836629619 0 0 1:0.40731 2:0.53295 3:-0.38764 4:0.61647 5:0.93375 6:-0.724 7:-1 8:-0.52124 9:-0.4325 10:-0.02661 11:-1 12:0.69745 13:0.32412 14:0.22863 15:0.19531 16:0.76587 17:0.43395 18:0.13376 19:-0.21739 20:0.19629 21:0.19118 22:-0.41176 23:0.32684 24:0.61721 25:-0.06895 
2.769524351038481 0 0 1:0.46714 2:0.40768 3:0.24597 4:-0.33651 5:0.45827 6:-1 7:0.00198 8:0.02179 9:-0.67101 10:0.06881 11:-1 12:0.58837 13:-0.05706 14:0.50731 15:-0.42236 16:0.50717 17:0.45947 18:0.6663 19:-0.3913 20:-0.04297 21:0.34362 22:-0.34454 23:-0.36073 24:0.27452 25:0.31505 
3.820598770714976 0 0 1:0.15009 2:0.21796 3:0.37505 4:-0.51627 5:0.61685 6:-1 7:-0.75613 8:-0.0207 9:-0.19929 10:-0.06514 11:-0.40916 12:0.58014 13:-0.03412 14:0.42722 15:-0.1793 16:0.66212 17:0.51231 18:0.34264 19:-0.65217 20:0.33008 21:0.25795 22:-0.44538 23:0.00206 24:0.68137 25:-0.1261 
0 1.233385667138051 0 1:0.44004 2:0.14627 3:0.26564 4:-0.24418 5:0.49035 6:-1 7:-0.53286 8:0.311 9:-0.61655 10:-0.93028 11:0.13177 12:0.87085 13:-0.04882 14:0.46916 15:0.0386 16:0.41297 17:0.47854 18:-0.07135 19:-0.21739 20:0.20996 21:0.15087 22:-0.54622 23:0.44983 24:0.77105 25:-0.28686 
0 0.6480371529896143 0 1:0.94784 2:0.30558 3:0.50492 4:-0.57479 5:-0.16849 6:-1 7:-1 8:0.5354 9:-1 10:0.40092 11:-1 12:0.98868 13:0.16059 14:-0.06845 15:0.43723 16:0.68191 17:0.72239 18:-0.64058 19:-0.47826 20:0.41602 21:0.32472 22:-0.91597 23:0.65406 24:0.61721 25:-0.29067 
1.63526551903746 3.895431218810906 0 1:0.59192 2:0.27009 3:0.00354 4:-0.36133 5:0.34011 6:0.08661 7:-1 8:0.18301 9:-0.55315 10:0.23028 11:-1 12:0.76692 13:-0.18588 14:0.1994 15:-0.28453 16:0.36724 17:0.46952 18:0.22126 19:-0.82609 20:-0.44531 21:0.0652 22:-0.81513 23:0.05878 24:0.61721 25:-0.27543 
0 4 0.2110328602959018 1:0.35464 2:0.05141 3:0.12239 4:-0.15728 5:0.018 6:-0.70195 7:-0.55204 8:0.02124 9:-0.75486 10:-0.06881 11:-0.63823 12:0.73913 13:0.04882 14:0.32197 15:-0.10037 16:0.33174 17:0.61077 18:0.35675 19:0.13043 20:0.04688 21:0.06961 22:-0.37815 23:-0.10708 24:0.44003 25:-0.33181 
0.3211322164286473 0.9689731908437638 0 1:0.39964 2:0.50978 3:0.67651 4:-0.70701 5:-0.67084 6:-0.28867 7:-1 8:0.4902 9:-1 10:-0.08991 11:-1 12:-0.09365 13:0.60529 14:-0.37094 15:0.002 16:0.20068 17:0.48679 18:0.13627 19:-0.73913 20:0.47852 21:0.22016 22:-0.89916 23:-0.13122 24:-0.74116 25:1 
0 1.560055640299105 0 1:0.89261 2:0.4323 3:0.92916 4:0.44559 5:0.72144 6:-1 7:-0.32551 8:0.43954 9:-0.44635 10:-0.2789 11:-1 12:0.48263 13:0.29471 14:0.33306 15:1 16:-0.09147 17:1 18:-0.56343 19:-0.73913 20:0.53418 21:-0.65984 22:-0.98319 23:0.48165 24:0.52898 25:-0.58857 
0 0 0.4697669186928287 1:0.52749 2:0.17886 3:0.78827 4:-0.46921 5:-1 6:-1 7:-1 8:0.47821 9:0.6331 10:0.00826 11:-1 12:0.90635 13:0.37412 14:-0.09984 15:-0.52874 16:0.17133 17:0.40198 18:0.52705 19:-0.91304 20:0.59082 21:-0.36882 22:-0.94958 23:-0.08311 24:0.74772 25:-0.53448 
0 2.816558965806491 0 1:0.00793 2:-0.03838 3:0.22471 4:-0.23392 5:0.65284 6:-1 7:0.32318 8:0.12037 9:-1 10:-0.37615 11:-1 12:0.72189 13:-0.22353 14:0.36282 15:0.08607 16:-0.23754 17:0.49272 18:-0.07135 19:-0.82609 20:-0.3418 21:-0.10929 22:-0.81513 23:0.24953 24:0.0514 25:-0.58095 
0 3.844406646553983 0.4307674128184662 1:0.05753 2:0.22954 3:0.14994 4:-0.18849 5:0.6012 6:0.09525 7:-0.45129 8:0.15033 9:-0.0992 10:0.1367 11:-1 12:0.66221 13:-0.16647 14:0.57738 15:-0.08207 16:-0.14471 17:0.61722 18:0.24322 19:-0.73913 20:-0.01953 21:0.24409 22:-0.81513 23:0.11475 24:0.03974 25:-0.57867 
0 0 0.2062874474122567 1:-0.0877 2:-0.13758 3:0.02322 4:-0.50078 5:0.54278 6:-1 7:0.06363 8:-0.20479 9:-0.70897 10:-0.73119 11:-1 12:0.71546 13:-0.40882 14:0.09984 15:0.25422 16:-0.10102 17:0.45637 18:-0.17767 19:-0.82609 20:-0.64551 21:-0.62142 22:-0.83193 23:0.47716 24:0.0113 25:-0.41867 
0 1.393913703765399 0 1:0.55766 2:0.19913 3:0.31602 4:-0.78242 5:0.27726 6:-1 7:-0.13688 8:0.14216 9:-0.7166 10:0.01376 11:-1 12:0.31515 13:-0.12235 14:0.56277 15:-0.16271 16:0.30648 17:0.63036 18:0.39062 19:-1 20:-0.00977 21:0.25921 22:-0.2605 23:-0.26076 24:0.09442 25:0.04 
0 4 0.06229893075925652 1:0.44873 2:0.23099 3:0.75049 4:-0.31127 5:0.44288 6:-1 7:0.6735 8:0.54412 9:-0.65658 10:0.22294 11:-1 12:0.79161 13:-0.40471 14:0.60146 15:-0.23649 16:0.82526 17:0.72754 18:0.40881 19:-0.91304 20:0.23145 21:0.46331 22:-0.4958 23:-0.13703 24:0.5895 25:-0.15505 
4 0 0 1:0.01304 2:0.19334 3:-0.25856 4:-0.74558 5:0.26891 6:-0.66626 7:-0.4984 8:-0.23257 9:-0.72551 10:0.22294 11:-1 12:0.36918 13:-0.32412 14:-0.07738 15:-0.05977 16:0.40751 17:0.44787 18:0.26298 19:-0.73913 20:0.17969 21:0.03118 22:-0.17647 23:-0.28903 24:0.46336 25:-0.19543 
0.0387356423946839 0.5403967383459669 0.8845847594936023 1:-0.20532 2:-0.59957 3:-0.24439 4:-0.30079 5:0.38915 6:-0.33973 7:-0.00762 8:0.08769 9:0.08613 10:-0.97706 11:-1 12:-0.28634 13:-0.18824 14:-0.99215 15:-0.6986 16:0.16928 17:-0.27233 18:-0.25702 19:-0.82609 20:-0.74902 21:-0.55969 22:-0.78151 23:0.27162 24:0.31243 25:0.056 
4 0 0 1:0.23089 2:0.27299 3:0.19008 4:0.29306 5:0.76969 6:-0.7195 7:-0.71896 8:-0.18355 9:-1 10:0.24404 11:-1 12:0.53512 13:0.19706 14:-0.05249 15:-0.35545 16:0.33106 17:0.11819 18:0.31567 19:-0.13043 20:0.36621 21:0.2126 22:-0.31092 23:-0.08779 24:0.35837 25:-0.20381 
0 0.5821696022756843 0.3632118903816389 1:0.10713 2:0.11948 3:-0.08619 4:0.66639 5:0.72274 6:-1 7:-0.6961 8:-0.29031 9:-0.62582 10:0.09725 11:-1 12:0.67713 13:0.27765 14:0.61851 15:-0.27767 16:0.39659 17:0.61825 18:0.19711 19:-0.65217 20:0.22852 21:0.21071 22:-0.46218 23:-0.01048 24:-0.00328 25:-0.31429 
0 3.470716175466743 0 1:0.19151 2:0.44026 3:0.1586 4:-0.05229 5:0.55477 6:-0.13345 7:-0.56587 8:0.34314 9:-0.82182 10:-0.61376 11:-1 12:0.69154 13:0.08 14:0.32684 15:-0.08321 16:0.52765 17:0.4953 18:0.17297 19:-0.04348 20:0.0332 21:-0.1685 22:-0.52941 23:0.22782 24:0.21692 25:-0.45448 
0.7320867566949125 0 0 1:0.21708 2:0.53295 3:-0.44274 4:0.36755 5:0.85603 6:-0.06756 7:-0.68857 8:-0.3012 9:-0.74436 10:-0.17064 11:-1 12:0.68974 13:0.26471 14:0.03707 15:-0.2668 16:0.05802 17:0.57237 18:0.20025 19:-0.3913 20:0.05859 21:-0.0885 22:-0.61345 23:0.15369 24:0.30952 25:-0.23352 
0 1.342594841080454 2.387838223240873 1:0.48913 2:0.30051 3:0.32389 4:-0.21168 5:0.60042 6:-1 7:-0.44019 8:0.16449 9:-0.44858 10:-0.00092 11:-0.72875 12:0.65938 13:0.12824 14:0.46402 15:-0.37432 16:-0.04983 17:0.52571 18:0.45805 19:-0.13043 20:0.39648 21:0.20504 22:-0.17647 23:-0.07338 24:0.17463 25:-0.24952 
0.2439133642043126 4 0 1:0.28305 2:0.35916 3:0.08619 4:-0.22137 5:0.46948 6:-0.77669 7:-0.55252 8:-0.12092 9:-0.90817 10:0.16606 11:-1 12:0.82583 13:0.09294 14:0.55736 15:-0.09751 16:0.26758 17:0.71878 18:0.31943 19:-0.3913 20:0.39648 21:0.39654 22:-0.2437 23:0.02321 24:0.61721 25:-0.31124 
0 4 0 1:0.53055 2:0.34902 3:0.5852 4:-0.26944 5:0.62389 6:-1 7:-0.53871 8:0.10076 9:-0.90534 10:0.04128 11:-1 12:0.67456 13:0.26706 14:0.42641 15:-0.31599 16:0.03481 17:0.61335 18:0.48314 19:0.21739 20:0.35547 21:0.19874 22:-0.2605 23:-0.18158 24:0.28327 25:-0.1581 
0 4 0 1:0.59959 2:0.3845 3:0.36482 4:0.71886 5:0.76604 6:-1 7:-1 8:0.08333 9:-0.73938 10:0.13211 11:-0.61538 12:0.59455 13:0.47353 14:0.29302 15:-0.24106 16:0.64778 17:0.50509 18:0.00267 19:-0.3913 20:0.27637 21:0.1452 22:-0.47899 23:0.30756 24:0.15713 25:-0.30057 
0 4 0 1:0.48146 2:0.26937 3:0.38056 4:0.85506 5:0.70057 6:-0.40773 7:-0.85163 8:0.09913 9:-0.75644 10:-0.06514 11:-1 12:0.6514 13:0.29 14:0.35633 15:-0.02831 16:0.59113 17:0.59943 18:0.077 19:-0.30435 20:0.52051 21:0.10803 22:-0.39496 23:0.22407 24:0.38243 25:-0.22819 
0.6097687927974633 0 0 1:0.22833 2:0.63432 3:0.02401 4:0.03088 5:0.488 6:-0.52942 7:-0.52848 8:-0.11111 9:-0.80648 10:0.28532 11:-1 12:0.50759 13:-0.00765 14:-0.05384 15:0.05862 16:0.35017 17:0.26537 18:0.40191 19:-0.04348 20:0.14551 21:0.13008 22:-0.2437 23:-0.14414 24:0.4619 25:-0.32114 
0 1.376255163320669 0 1:0.36282 2:0.3483 3:0.41204 4:-0.18804 5:0.69249 6:-0.72066 7:-0.7201 8:0.28813 9:-0.77024 10:-0.10275 11:-0.66094 12:0.57628 13:-0.29059 14:0.42857 15:-0.18387 16:0.31604 17:0.66774 18:0.38215 19:-0.47826 20:0.21875 21:0.04 22:-0.34454 23:-0.08199 24:0.45097 25:-0.35695 
0.5180075096565779 0.4922616193276553 0 1:0.38686 2:0.51267 3:0.20504 4:0.10899 5:0.55816 6:-0.74586 7:-0.87268 8:-0.38181 9:-1 10:0.5422 11:-0.69153 12:0.70105 13:0.22588 14:0.06629 15:-0.28567 16:0.03891 17:0.40766 18:0.37149 19:-0.56522 20:0.05664 21:0.23024 22:-0.56303 23:-0.2398 24:0.19796 25:-0.03848 
2.427971235321444 1.260997156960628 0.8113541190773285 1:0.33828 2:0.71253 3:0.30736 4:0.09638 5:0.69405 6:-0.75044 7:-0.3749 8:0.04466 9:-0.58951 10:0.45872 11:-0.69709 12:0.66092 13:-0.24176 14:0.40828 15:-0.26794 16:0.23959 17:0.59273 18:0.5904 19:-0.56522 20:0.04102 21:0.5263 22:-0.27731 23:-0.39611 24:0.20525 25:-0.09181 
2.044920272846491 0 0 1:0.49629 2:0.1861 3:0.20897 4:-0.90688 5:0.28769 6:-1 7:-1 8:-0.07353 9:-1 10:-0.59817 11:-1 12:-0.48829 13:0.21412 14:-0.23323 15:-0.45096 16:0.27782 17:0.09396 18:0.2382 19:-0.82609 20:-0.20312 21:-0.32913 22:-0.73109 23:-0.05017 24:0.77105 25:-0.66248 
0 4 4 1:0.52544 2:0.44388 3:0.36403 4:-0.29757 5:0.43192 6:-1 7:0.32491 8:0.14216 9:-0.50566 10:0.14037 11:-0.12457 12:0.68613 13:-0.06294 14:0.62338 15:-0.23534 16:0.05597 17:0.72522 18:0.50165 19:-0.13043 20:0.37305 21:0.38835 22:-0.17647 23:-0.31206 24:0.41086 25:-0.25867 
0 1.001065371670134 0.4121024841196819 1:-0.54436 2:-1 3:0.19166 4:-0.2216 5:-0.36255 6:-1 7:-1 8:-0.42048 9:-1 10:-0.93303 11:-1 12:-0.27759 13:0.79412 14:-0.32089 15:0.96283 16:0.90239 17:0.19551 18:-1 19:-0.91304 20:0.11133 21:-1 22:-0.91597 23:0.9766 24:0.61721 25:-0.1261 
2.000649438489501 0.06143442375780678 0.4610552621934536 1:-1 2:0.26285 3:0.6466 4:-0.88884 5:0.35603 6:-1 7:0.99432 8:0.44444 9:-0.45432 10:0.17064 11:-1 12:0.52148 13:-0.54176 14:0.63528 15:-0.66428 16:0.65734 17:0.44529 18:0.61769 19:-0.91304 20:0.06543 21:0.41543 22:-0.89916 23:-0.35698 24:0.61721 25:0.056 
0 0.3638437646252599 0.2771574962221705 1:0.23293 2:0.11586 3:0.50885 4:-0.12719 5:0.54069 6:-1 7:-0.75353 8:0.77015 9:-0.79769 10:-0.96881 11:-0.40286 12:0.51814 13:0.45412 14:0.3474 15:-0.22391 16:-0.00819 17:0.48421 18:-0.11024 19:-0.82609 20:-0.06152 21:-0.75622 22:-0.51261 23:0.3976 24:0.00109 25:-0.26171 
-3.07649264080407 0.360833454760173 0.5712662468036009 1:0.91102 2:0.41274 3:0.00669 4:1 5:1 6:-1 7:-0.80331 8:-0.64052 9:-0.51565 10:0.27156 11:-1 12:0.85233 13:0.52235 14:-1 15:-0.28625 16:0.73242 17:0.62469 18:0.35267 19:-0.56522 20:0.27734 21:0.64409 22:-0.7479 23:-0.51142 24:0.53919 25:-0.20762 
-3.100761635346082 3.958988383876374 0.4529261295762913 1:0.53976 2:0.32151 3:-0.02086 4:-0.42024 5:0.45097 6:-0.04499 7:-0.0431 8:-0.44989 9:-0.21453 10:0.6578 11:-1 12:1 13:0.23647 14:0.57008 15:-0.5356 16:0.3727 17:0.97783 18:0.44018 19:-0.47826 20:0.41602 21:0.32472 22:-0.7479 23:-0.51535 24:0.74262 25:-0.45448 
-1.512606820105796 2.106143633300019 0.1882488155771042 1:0.89261 2:1 3:-0.06257 4:-0.58574 5:0.82107 6:-1 7:-1 8:-0.43028 9:-1 10:-0.07798 11:-1 12:0.9362 13:0.42353 14:0.98241 15:-0.2525 16:0.32901 17:0.70228 18:0.35267 19:-0.65217 20:0.31348 21:1 22:-0.86555 23:-0.55073 24:1 25:-0.4461 
-0 0 0.3882524965619263 1:-0.57402 2:-0.08327 3:-0.67021 4:-0.84862 5:0.65128 6:-0.33813 7:-0.00524 8:-0.30447 9:-1 10:-0.04862 11:-1 12:-1 13:0.40706 14:-0.36174 15:-0.83529 16:0.33106 17:-0.74662 18:0.63651 19:-0.82609 20:1 21:0.41543 22:-0.71429 23:-0.52434 24:0.96573 25:0.10171 
-1.768777641385189 0 0 1:0.0698 2:0.10138 3:0.10901 4:-0.69821 5:0.72431 6:-0.30216 7:-0.12597 8:0.3061 9:-0.71303 10:-0.0211 11:-1 12:0.32236 13:-0.00412 14:-0.1158 15:-0.37203 16:0.60068 17:0.06586 18:0.33166 19:-0.73913 20:0.29297 21:0.27118 22:-0.29412 23:-0.1872 24:0.61721 25:0.09029 
-1.560353715600689 0 0 1:-0.20481 2:0.06372 3:-0.61669 4:-0.84229 5:0.50078 6:-0.59768 7:-0.79844 8:-0.29956 9:-0.66909 10:0.13303 11:-1 12:-0.08567 13:-0.01882 14:0.12094 15:-0.3789 16:0.43072 17:0.08236 18:0.62929 19:-0.82609 20:0.16699 21:0.34047 22:-0.37815 23:-0.44534 24:0.64346 25:-0.40343 
-2.70967332712982 0.04010050854356963 0.008993607202812315 1:0.23702 2:0.2042 3:-0.37662 4:-0.04282 5:0.61685 6:-0.16618 7:-0.30377 8:-0.2707 9:-0.5428 10:0.26881 11:0.01208 12:0.52688 13:0.39471 14:0.18831 15:-0.34458 16:0.71331 17:0.36512 18:0.6616 19:-0.47826 20:0.16992 21:0.48724 22:-0.29412 23:-0.36709 24:0.43347 25:0.0461 
-4 4 1.782009868768004 1:0.29276 2:0.45329 3:0.12082 4:0.09884 5:0.82212 6:-0.30537 7:-0.42 8:-0.13126 9:-0.33347 10:0.17339 11:-1 12:0.57011 13:0.17765 14:0.52976 15:-0.24164 16:0.84505 17:0.41152 18:0.36114 19:-0.04348 20:0.00684 21:0.41921 22:-0.12605 23:-0.11063 24:0.58658 25:-0.0141 
-4 4 1.324267878625709 1:0.0698 2:0.30051 3:-0.02086 4:-0.50394 5:0.75743 6:-0.68241 7:-0.84089 8:0.23802 9:-0.60817 10:0.26239 11:-0.61451 12:0.56393 13:0.01647 14:0.00487 15:-0.40406 16:-0.01911 17:0.03158 18:0.36836 19:-0.65217 20:0.30371 21:0.27055 22:-0.2437 23:-0.11943 24:0.24025 25:-0.27924 
-3.595604640019898 0.7681185940449752 0 1:0.22884 2:0.38233 3:0.24833 4:-0.62165 5:0.61502 6:-0.65842 7:-1 8:0.19771 9:-0.85953 10:-0.01009 11:-0.5854 12:0.35323 13:0.26706 14:0.08496 15:-0.55619 16:0.69147 17:0.07746 18:0.42606 19:-0.73913 20:0.20508 21:0.38142 22:-0.37815 23:-0.13497 24:0.45972 25:-0.05524 
-4 0 0.008190123687669363 1:-0.36998 2:0.23099 3:0.02007 4:-0.7973 5:0.79917 6:-1 7:0.06637 8:0.10621 9:-0.85412 10:0.38257 11:-0.56942 12:0.36789 13:-0.20588 14:0.23377 15:-0.54933 16:0.33311 17:0.30584 18:0.56939 19:-0.65217 20:0.50977 21:0.30205 22:-0.46218 23:-0.46687 24:0.75793 25:-0.29752 
-0 0 1.029209971225531 1:0.2314 2:-0.19551 3:0.00826 4:-0.68863 5:0.73761 6:-0.65969 7:-0.48852 8:0.11601 9:-0.30025 10:0.30183 11:-0.58694 12:0.37149 13:-0.03882 14:0.36228 15:-0.71518 16:0.33515 17:0.15195 18:0.6409 19:-0.56522 20:0.20508 21:0.61575 22:-0.41176 23:-0.51647 24:0.41524 25:-0.29067 
-0 0.9662215537944027 0 1:-0.25646 2:0.37002 3:0.16253 4:-0.91288 5:0.67319 6:-0.58559 7:0.03808 8:-0.0256 9:-1 10:0.12202 11:-1 12:0.01466 13:0.19882 14:0.36282 15:-0.4115 16:0.46758 17:0.469 18:0.73122 19:-0.82609 20:0.12305 21:0.5137 22:-0.42857 23:-0.62523 24:0.59023 25:-0.01181 
-4 0.9129747073763944 0 1:0.26975 2:0.3845 3:0.53483 4:-0.50377 5:0.79238 6:-1 7:-1 8:0.26307 9:-0.67385 10:-0.09174 11:-1 12:0.08773 13:0.24647 14:-0.00703 15:-0.07749 16:1 17:0.33574 18:0.31222 19:-0.73913 20:0.3457 21:0.37134 22:-0.88235 23:-0.15369 24:0.56471 25:-0.01714 
-0 0 0.5394014293535899 1:0.3347 2:0.56408 3:0.57104 4:-0.94834 5:0.99844 6:-1 7:-0.49536 8:0.27505 9:0.2427 10:1 11:0.22263 12:0.43658 13:0.79412 14:-0.02489 15:-0.99314 16:0.90239 17:0.29759 18:1 19:-0.91304 20:0.32715 21:0.92504 22:-0.93277 23:-1 24:0.61721 25:-0.1261 
-0 0.2511252571655575 0.04552470271468124 1:0.29276 2:0.49964 3:1 4:-0.9589 5:0.50678 6:1 7:-0.49901 8:0.37691 9:-0.17753 10:0.74862 11:-1 12:0.39465 13:0.21 14:-0.16153 15:-0.42351 16:0.71741 17:0.27955 18:0.71836 19:-0.91304 20:0.76855 21:0.81102 22:-1 23:-0.69581 24:0.41961 25:-0.264 
-4 -3.508922266052122 0 1:0.58323 2:0.19551 3:0.24911 4:-0.60756 5:0.66223 6:-0.76123 7:-0.76077 8:-0.05338 9:-0.70544 10:0.08349 11:-1 12:0.59969 13:0.38765 14:0.56277 15:-0.18902 16:0.12082 17:0.68269 18:0.41822 19:0.04348 20:0.16309 21:0.36441 22:-0.44538 23:-0.23624 24:0.14473 25:-0.50476 
-0 -0 2.358394530270064 1:0.6676 2:0.24982 3:0.60016 4:-0.58325 5:0.61163 6:-0.75704 7:-0.75656 8:0.19553 9:-0.60035 10:0.21743 11:-1 12:0.68793 13:0.34118 14:0.50487 15:-0.19245 16:0.16724 17:0.66001 18:0.59134 19:0.21739 20:-0.18555 21:0.5074 22:-0.36134 23:-0.42381 24:0.02443 25:-0.5619 
-4 -2.741823019143085 0 1:0.49578 2:0.48371 3:0.31838 4:-0.48554 5:0.64319 6:-0.8094 7:-0.71353 8:-0.10349 9:-0.92162 10:0.4211 11:-1 12:0.78672 13:0.34765 14:0.523 15:-0.21018 16:0.243 17:0.75538 18:0.46119 19:0.30435 20:0.24707 21:0.53071 22:-0.31092 23:-0.22239 24:0.1265 25:-0.33638 
-2.894971085391437 -0 0 1:0.48555 2:0.38668 3:0.42542 4:-0.50705 5:0.74309 6:-0.14219 7:-0.57025 8:-0.11765 9:-0.73543 10:0.14404 11:-1 12:0.76975 13:0.34882 14:0.48133 15:-0.14441 16:-0.03823 17:0.71981 18:0.37024 19:0.21739 20:0.18848 21:0.3178 22:-0.2437 23:-0.18195 24:0.06526 25:-0.28914 
-0.7102024991110392 -0.6933594722551429 0 1:0.33521 2:0.34757 3:0.87879 4:0.74673 5:0.77465 6:0.0629 7:-0.1125 8:0.75272 9:-0.5629 10:0.17615 11:-0.56996 12:0.76383 13:-0.01647 14:0.42505 15:-0.09122 16:0.8587 17:0.59531 18:0.26894 19:-0.73913 20:-0.02246 21:0.14079 22:-0.57983 23:-0.19281 24:0.6872 25:-0.10171 
-2.655933503922512 -0 0.1183476694137078 1:0.69675 2:-0.01231 3:0.59465 4:0.26255 5:0.41758 6:-0.52981 7:0.17779 8:0.51525 9:-0.41993 10:-0.39725 11:-0.42929 12:0.93491 13:-0.05588 14:0.89989 15:-0.00372 16:0.81502 17:0.98892 18:0.23695 19:-0.21739 20:0.25 21:-0.04252 22:-0.63025 23:-0.1258 24:0.67918 25:-0.15886 
-2.91341610714366 -0.6208990117652673 0 1:-0.23089 2:0.65025 3:0.58284 4:-0.2493 5:0.21309 6:0.39043 7:0.74147 8:0.59913 9:-0.42821 10:0.3844 11:-1 12:0.5274 13:-0.38765 14:1 15:0.02145 16:0.30239 17:0.85436 18:0.25702 19:-0.82609 20:-0.01367 21:0.11622 22:-0.68067 23:-0.20872 24:0.48013 25:-0.31733 
-1.682109191423734 -0 0.8311355094917287 1:0.32396 2:0.1593 3:0.67887 4:0.08851 5:0.25274 6:-0.41403 7:-0.41285 8:0.74129 9:-0.75903 10:0.20826 11:-0.28876 12:0.71726 13:-0.7 14:0.79464 15:-0.36917 16:0.39659 17:0.76801 18:0.34609 19:-0.13043 20:-0.25684 21:0.36756 22:-0.51261 23:-0.28023 24:0.73314 25:-0.20686 
-0 -0.8945028445584278 1.73955370055225 1:0.66454 2:-0.75815 3:-0.12475 4:-0.72183 5:0.53234 6:-1 7:-0.37994 8:-0.26253 9:-0.49103 10:-0.01193 11:-1 12:0.3558 13:0.53176 14:0.33847 15:-0.41378 16:-1 17:0.42493 18:0.37337 19:-0.56522 20:-1 21:0.3052 22:-0.91597 23:-0.14957 24:0.04776 25:-0.63657 
-2.606926935051253 -0 0 1:0.84608 2:-0.35699 3:0.2137 4:-0.17417 5:0.80882 6:-1 7:-1 8:-0.02179 9:-1 10:0.16606 11:-1 12:0.62336 13:0.31294 14:0.31764 15:-0.161 16:-0.27645 17:0.39116 18:0.20307 19:-0.65217 20:-0.64941 21:0.35244 22:-0.81513 23:0.16848 24:-0.04557 25:-0.26476 
-0.8999701460486681 -0 0 1:0.64664 2:-0.69587 3:0.17277 4:-0.43842 5:0.15832 6:-1 7:-0.46613 8:-0.32898 9:-0.56178 10:-0.73486 11:-1 12:0.4016 13:0.56765 14:-0.11824 15:0.03689 16:-0.80273 17:0.28187 18:0.0287 19:-0.56522 20:-0.71094 21:-0.04063 22:-0.79832 23:0.48091 24:-0.08349 25:-0.56571 
-4 -0.9871452283888997 0 1:0.62209 2:0.01448 3:0.7442 4:0.22311 5:0.84507 6:-1 7:-0.34777 8:0.00163 9:-0.46462 10:-0.3633 11:-0.2099 12:0.56033 13:0.24059 14:-0.25839 15:0.00715 16:0.13993 17:0.5453 18:0.07449 19:-0.21739 20:-0.21582 21:0.46016 22:-0.86555 23:0.27574 24:0.2315 25:-0.48495 
-4 -0.1723022463730592 0.7778455754262484 1:0.46868 2:-0.33309 3:0.55608 4:-0.70412 5:-0.30908 6:-1 7:0.31688 8:-0.06863 9:-1 10:-0.15229 11:-1 12:0.31335 13:-0.32059 14:-0.25244 15:0.35087 16:-0.39113 17:0.08519 18:0.14066 19:-0.91304 20:-0.39355 21:0.04693 22:-0.79832 23:0.18645 24:-0.41888 25:-0.48724 
-0 -0 3.365940919897473 1:0.44362 2:0.07965 3:0.50413 4:-0.08024 5:0.58007 6:-0.55244 7:-0.25258 8:0.63017 9:-0.57054 10:0.14037 11:-0.27566 12:0.72807 13:-0.14294 14:0.60498 15:-0.18444 16:0.46007 17:0.75976 18:0.08546 19:-0.30435 20:-0.07227 21:0.11055 22:0.61345 23:0.13665 24:0.39045 25:-0.38362 
-0 -0.3225246727002078 0 1:0.45896 2:0.27661 3:0.25384 4:0.309 5:0.72587 6:-0.66933 7:-0.4478 8:0.60185 9:-0.63738 10:0.76514 11:-0.33107 12:0.70028 13:0.17765 14:0.454 15:-0.1507 16:0.52082 17:0.61928 18:-0.0632 19:-0.21739 20:-0.03223 21:-0.09354 22:0.69748 23:0.38581 24:0.42836 25:-0.3539 
-0.9639188108986908 -0 0 1:0.40066 2:0.18537 3:0.23101 4:0.25045 5:0.66588 6:-0.88196 7:-0.40858 8:0.34532 9:-0.80581 10:0.2156 11:-0.28356 12:0.62645 13:0.14059 14:0.40476 15:-0.11581 16:0.47167 17:0.5484 18:0.04501 19:-0.3913 20:0.00879 21:-0.18236 22:0.73109 23:0.33077 24:0.23514 25:-0.3539 
-0 -0 4 1:0.6047 2:0.2071 3:0.30893 4:0.04371 5:0.61972 6:-0.62701 7:0.37027 8:0.53105 9:-0.69324 10:-0.0578 11:-0.09459 12:0.67944 13:-0.26471 14:0.57468 15:-0.30169 16:0.23413 17:0.73012 18:0.36679 19:-0.21739 20:-0.08984 21:0.0948 22:0.69748 23:0.01198 24:0.31389 25:-0.47733 
-0 -0 4 1:0.50141 2:0.26575 3:0.39 4:0.03559 5:0.63459 6:-0.74782 7:0.07384 8:0.32244 9:-0.4815 10:-0.06514 11:-0.38785 12:0.64497 13:-0.11882 14:0.68047 15:-0.24964 16:0.24027 17:0.81157 18:0.23067 19:-0.30435 20:-0.08594 21:0.14898 22:0.81513 23:0.01123 24:0.25118 25:-0.45676 
-1.874243836516883 -0.03488825972373672 3.094154340636271 1:0.42521 2:0.37219 3:0.24911 4:0.14067 5:0.57303 6:-0.89026 7:-0.28527 8:0.18573 9:-0.81948 10:-0.30183 11:-0.60041 12:0.64291 13:-0.01824 14:0.09848 15:-0.19302 16:0.10239 17:0.54685 18:0.26172 19:1 20:0.00879 21:0.09795 22:0.89916 23:0.04343 24:0.41451 25:-0.29295 
-4 -0 2.137447391944397 1:0.41959 2:0.22375 3:0.08461 4:0.34346 5:0.57955 6:-0.65152 7:-0.65082 8:0.59259 9:-0.66562 10:0.0367 11:-0.15402 12:0.7116 13:0.10118 14:0.63231 15:-0.23992 16:0.28532 17:0.60433 18:0.17422 19:-0.56522 20:0.08691 21:0.05953 22:0.37815 23:0.08929 24:0.20306 25:-0.45448 
-0 -0 4 1:0.34799 2:0.18827 3:0.43015 4:-0.34466 5:0.58451 6:-0.70211 7:-0.17917 8:0.48366 9:-0.69374 10:-0.13119 11:-0.09606 12:0.65243 13:-0.22059 14:0.80276 15:-0.33943 16:0.21229 17:0.80539 18:0.33981 19:0.21739 20:0.04688 21:0.20504 22:0.47899 23:-0.23231 24:0.33212 25:-0.34171 
-0 -0.07087531731116321 4 1:0.573 2:0.25199 3:0.55293 4:-0.16728 5:0.53417 6:-0.86457 7:0.2891 8:0.40305 9:-0.38739 10:0.26422 11:0.15063 12:0.8266 13:-0.22941 14:0.72186 15:-0.33314 16:0.33311 17:0.79147 18:0.3856 19:-0.04348 20:0.22461 21:0.48157 22:0.68067 23:-0.26133 24:0.41159 25:-0.36 
-4 -3.766734710430717 0 1:0.09486 2:0.51846 3:0.27902 4:-0.01856 5:0.43036 6:0.01471 7:-0.49164 8:0.22004 9:-0.86091 10:0.21927 11:-0.58945 12:0.75302 13:0.07412 14:0.83009 15:-0.57564 16:0.58908 17:0.77136 18:0.33731 19:-0.73913 20:0.32617 21:0.19307 22:-0.2437 23:-0.13179 24:0.46117 25:-0.28914 
-4 -0.1426891008862456 0 1:0.41959 2:-0.02172 3:0.77332 4:-0.25457 5:0.13354 6:-0.63491 7:-0.6342 8:0.64434 9:-1 10:0.19725 11:-1 12:0.69591 13:0.13353 14:0.3585 15:-0.44981 16:0.40614 17:0.75306 18:0.23224 19:-0.73913 20:0.67383 21:0.24346 22:-0.14286 23:-0.0219 24:0.8097 25:-0.25181 
-4 -2.151408969926424 0 1:0.28151 2:0.04127 3:0.268 4:-0.2639 5:0.42645 6:-0.28591 7:-0.2845 8:0.18954 9:-0.85316 10:0.05596 11:-1 12:0.75354 13:-0.36412 14:0.8033 15:-0.58536 16:0.57201 17:0.72522 18:0.38341 19:-0.73913 20:0.44727 21:0.15591 22:-0.39496 23:-0.28884 24:0.40503 25:-0.29829 
-4 -0 0 1:0.73766 2:0.28458 3:0.33255 4:0.76895 5:0.91367 6:-0.58117 7:-0.58036 8:-0.05501 9:-0.4833 10:-0.33394 11:-0.49163 12:0.88835 13:0.43765 14:0.62013 15:0.2851 16:0.69556 17:0.85359 18:-0.13753 19:-0.21739 20:0.0459 21:-0.39591 22:-0.76471 23:0.52134 24:0.42399 25:-0.2419 
-3.708166289235495 -1.256430973346967 0 1:1 2:0.39247 3:-0.26643 4:0.4822 5:0.69901 6:-0.42018 7:-0.41902 8:-0.59913 9:-1 10:-0.17339 11:-1 12:0.97685 13:0.11588 14:0.671 15:0.04604 16:0.65188 17:0.86493 18:-0.02211 19:-0.47826 20:-0.19824 21:0.07528 22:-0.78151 23:0.28472 24:0.42618 25:-0.2861 
-0.5603487839588062 -1.277885064220315 -4 1:0.4293 2:0.07096 3:0.40811 4:-0.19067 5:0.56964 6:-1 7:-0.12435 8:0.3317 9:-0.60795 10:0.15688 11:-0.42142 12:0.77412 13:-0.00118 14:0.74811 15:-0.48585 16:0.32287 17:0.72574 18:0.28179 19:-0.04348 20:-0.25781 21:0.34236 22:0.69748 23:-0.15575 24:0.27087 25:-0.22438 
-2.078459717739423 -0 -4 1:0.46612 2:0.07241 3:0.35931 4:-0.19006 5:0.48644 6:-1 7:-0.0923 8:0.35349 9:-0.50328 10:-0.25229 11:-0.26695 12:0.7875 13:-0.44353 14:0.67235 15:-0.26394 16:0.22116 17:0.74636 18:0.39721 19:0.04348 20:0.01563 21:0.1874 22:0.51261 23:-0.16118 24:0.11921 25:-0.54286 
-0.05536429421768793 -0 -3.532630640719246 1:0.42214 2:0.02969 3:0.70956 4:-0.51988 5:0.44627 6:-0.81853 7:1 8:0.60022 9:-0.40302 10:-0.14771 11:0.32152 12:0.60921 13:-0.48059 14:0.79735 15:-0.29139 16:-0.01706 17:0.7925 18:0.47342 19:0.13043 20:-0.22559 21:0.21575 22:0.42857 23:-0.18233 24:0.11411 25:-0.50171 
-0.7664578752772252 -0.6317507892785128 -0.9719359830548259 1:0.01304 2:-0.30051 3:0.92916 4:-0.54686 5:0.99009 6:-1 7:-1 8:0.77015 9:0.04609 10:0.6055 11:0.54379 12:0.48392 13:-0.55412 14:0.37798 15:-0.4052 16:-0.89625 17:0.32079 18:0.35205 19:-0.91304 20:-0.92773 21:0.43433 22:-1 23:-0.23325 24:-0.80386 25:-1 
-1.606372835109623 -1.319617128445473 -1.744604433334619 1:0.17566 2:0.10355 3:-1 4:-0.06697 5:0.13459 6:-1 7:-0.35084 8:-0.94553 9:-0.46714 10:0.71468 11:-1 12:0.74376 13:0.03824 14:-0.20184 15:-1 16:-0.29352 17:0.15814 18:0.33731 19:-0.65217 20:-0.72461 21:0.49984 22:-0.96639 23:-0.04568 24:-1 25:-0.92686 
-0.7406660123995118 -0 -3.615599195261456 1:0.4472 2:0.13903 3:0.53562 4:-0.08624 5:0.51148 6:-1 7:-0.36182 8:0.41449 9:-0.18512 10:0.01835 11:-0.31281 12:0.77386 13:-0.16294 14:0.76813 15:-0.41779 16:0.20273 17:0.71594 18:0.47185 19:-0.21739 20:-0.04687 21:0.22205 22:0.51261 23:-0.17428 24:0.07546 25:-0.39962 
-1.204921220781313 -0.6794732261707819 -0.3782337045611281 1:0.83636 2:-0.41564 3:0.67021 4:-0.19857 5:0.20344 6:-1 7:0.21826 8:0.59096 9:1 10:0.09725 11:-1 12:0.84693 13:0.08471 14:0.05763 15:-0.98399 16:-0.59386 17:-0.04343 18:0.73028 19:-0.56522 20:-0.33301 21:0.17732 22:-0.98319 23:-0.53182 24:-0.50201 25:-0.96114 
-0 -0 -4 1:0.39862 2:0.02317 3:0.37348 4:0.02142 5:0.52686 6:-1 7:-0.17776 8:0.43954 9:-0.43756 10:-0.15872 11:-0.16996 12:0.70671 13:-0.11588 14:0.6875 15:-0.3646 16:0.243 17:0.79585 18:0.25827 19:-0.13043 20:-0.01953 21:0.17354 22:0.64706 23:0.00768 24:0.1841 25:-0.456 
-0.6908502600399934 -1.148269649393828 -4 1:0.43032 2:0.36857 3:0.2806 4:0.488 5:0.65649 6:-0.60852 7:-0.41161 8:0.27288 9:-0.43653 10:0.24771 11:-0.40604 12:0.73193 13:0.09059 14:0.70455 15:-0.12496 16:0.3884 17:0.7144 18:0.39 19:0.56522 20:0.11328 21:0.39906 22:1 23:-0.09154 24:0.22275 25:-0.24114 
-1.929285039939553 -1.239669658936099 -0.63517050523615 1:0.37561 2:-0.01448 3:0.15702 4:-0.31163 5:0.33438 6:-0.83581 7:0.06933 8:0.38181 9:-0.18977 10:-0.1 11:-0.20286 12:0.76897 13:-0.28059 14:0.73079 15:-0.41836 16:0.22253 17:0.68965 18:0.67665 19:-0.13043 20:-0.0625 21:0.33417 22:0.39496 23:-0.40771 24:0.21619 25:-0.47733 
-1.798487961648414 -0.0416257536519087 -3.544645175464717 1:0.30504 2:0.13541 3:0.56002 4:0.12498 5:0.60198 6:-1 7:0.1685 8:0.5915 9:-0.30727 10:0.06972 11:-0.3709 12:0.73038 13:-0.17882 14:0.65476 15:-0.51158 16:0.35768 17:0.74301 18:0.42575 19:-0.30435 20:-0.11133 21:0.38772 22:0.4958 23:-0.22258 24:0.18119 25:-0.26933 
