svm_type c_svc
kernel_type rbf
gamma 0.03125
nr_class 2
total_sv 296
rho 0.8293
label 1 -1
probA -3.24838
probB -0.0184685
nr_sv 142 154
SV
0.6317002576832853 1:-1 2:0.49 3:-1 4:0.31833 5:-0.7582 6:-0.44921 7:0.33535 8:-1 9:-1 10:-1 11:-0.92141 12:-0.1545 13:-0.6836 14:-1 15:-1 16:-0.10955 17:-0.69647 18:-0.5209 19:-1 20:-1 21:-0.17146 22:-0.00098 23:-1 24:-1 25:-1 26:-0.75241 27:0.08434 28:-1 29:-0.72991 30:-1 31:-0.37062 32:-1 33:-1 34:-0.18395 35:-1 36:-0.16373 37:0.06018 38:-1 39:-1 40:-1 41:-0.49953 42:-1 43:-0.69198 44:0.21061 45:-0.14759 46:-0.36657 47:0.33762 48:0.09968 49:-0.41207 50:-0.26173 51:0.13106 52:0.10845 53:-1 54:-1 55:0.23547 56:-0.64218 57:-0.55315 58:-1 59:-0.90839 60:-0.68734 61:-1 62:-0.12405 63:-0.15372 64:-0.78837 65:-0.33119 66:-0.20486 67:-0.60686 68:-1 69:-1 70:-0.76954 71:-0.69637 72:-0.63087 73:-0.28778 74:0.61353 75:0.01608 76:-1 77:-1 78:-1 79:-1 80:0.61786 81:0.26042 82:0.38428 83:-0.62701 84:-1 85:-1 86:0.0422 87:-1 88:-0.63624 89:-0.46303 90:-1 91:-1 92:-0.67068 93:-0.62187 94:-1 95:-1 96:-1 97:-0.12111 98:-1 99:-0.67752 100:0.29693 101:-1 102:0.48936 103:-0.68328 104:-0.28297 105:-0.54663 106:0.54724 107:-1 108:-0.3805 109:0.51095 110:-0.56056 111:-1 112:-0.27974 113:-0.65917 114:0.11166 115:-0.67441 116:-0.19686 117:-1 118:-0.8024 119:-0.34647 120:0.21323 121:0.54609 122:0.31251 123:-0.07927 124:-0.6112 125:-0.3543 126:-0.55628 127:0.13306 128:-0.15542 129:-0.44481 130:-1 131:-0.7283 132:0.37075 133:-0.98161 134:0.0418 135:-0.88249 136:-0.48232 137:-1 138:0.42395 139:0.22632 140:-0.52412 141:0.25038 142:-0.67425 143:-0.59717 144:-0.10564 145:0.51026 146:-0.16511 147:-1 148:0.50615 149:0.22571 150:0.13122 151:0.66438 152:-0.87785 153:-0.01937 154:-0.46951 155:-0.77939 156:0.37442 157:0.31071 158:-0.11886 159:-0.34199 160:-0.87847 161:0.10536 162:-0.7962 163:-0.29104 164:0.23947 165:-0.12809 166:0.35679 167:0.52292 168:-0.86885 169:0.27578 170:0.59731 171:0.67429 172:0.53121 
0.4422798688339188 1:-0.33438 2:0.43393 3:-0.22852 4:-0.67817 5:-0.29167 6:-0.86554 7:0.68466 8:-0.76844 9:-0.56483 10:-1 11:-0.07474 12:-0.03749 13:-0.69105 14:-1 15:-0.53846 16:-0.38111 17:-0.8518 18:-0.76608 19:-1 20:-1 21:0.29746 22:0.47137 23:-0.51858 24:-1 25:-1 26:0.08791 27:0.1759 28:-0.3708 29:-0.86813 30:-0.04435 31:0.21644 32:-1 33:-0.70721 34:0.20283 35:-0.62114 36:0.60808 37:-0.43057 38:-0.63421 39:-1 40:-1 41:-0.25685 42:-0.83359 43:0.50252 44:-1 45:0.30092 46:-0.69073 47:-1 48:-1 49:-0.5479 50:-1 51:0.44943 52:0.47584 53:-1 54:-0.60675 55:0.65815 56:-0.82485 57:0.28893 58:0.14948 59:-0.74684 60:0.08987 61:-0.78689 62:-0.28527 63:0.25911 64:0.60089 65:-0.83673 66:-0.31677 67:0.43838 68:-1 69:-1 70:-0.24431 71:-0.85176 72:-0.81978 73:-1 74:0.33275 75:-1 76:-1 77:-0.3047 78:-0.81057 79:-1 80:0.6777 81:0.37354 82:1 83:-0.6358 84:-1 85:-0.66719 86:-0.02344 87:-1 88:0.08385 89:-1 90:-0.735 91:-0.67818 92:0.5236 93:-0.63077 94:-1 95:-0.79984 96:0.00078 97:-1 98:-1 99:-0.14478 100:0.64588 101:-1 102:0.23199 103:-0.53611 104:-0.64991 105:-1 106:0.63525 107:-0.69529 108:0.23658 109:0.11459 110:-1 111:-0.81685 112:-0.82417 113:-0.50078 114:-0.15207 115:-0.69558 116:0.34958 117:-0.83987 118:-0.61404 119:-0.68092 120:0.36449 121:0.7569 122:-0.17047 123:-0.00217 124:0.50558 125:0.66395 126:-0.56672 127:0.70727 128:-0.01421 129:-1 130:-1 131:-0.86734 132:0.10569 133:-0.72396 134:-1 135:-0.5453 136:0.01098 137:-1 138:0.0954 139:0.59156 140:-1 141:-0.73791 142:-0.57612 143:-0.38221 144:-0.1619 145:0.44339 146:0.01304 147:-0.82173 148:-0.29265 149:-0.45771 150:-0.36555 151:0.65576 152:-0.72791 153:0.66045 154:0.1197 155:0.14819 156:0.69045 157:-0.0794 158:-0.20801 159:-0.30901 160:0.31041 161:0.41526 162:-0.34675 163:0.61388 164:0.03781 165:-0.61343 166:0.37268 167:0.52773 168:-0.65574 169:0.67589 170:0.42453 171:0.30583 172:-0.28505 
0.792867938283969 1:-0.57143 2:0.24964 3:-0.53639 4:-0.58557 5:-0.74663 6:-0.76915 7:0.69436 8:-0.80121 9:-0.62642 10:-0.87331 11:0.03626 12:0.27115 13:-0.66846 14:-0.71429 15:-0.90094 16:-0.14717 17:-0.55471 18:-0.89959 19:-0.79335 20:-0.84726 21:0.32754 22:0.28392 23:-0.48338 24:-0.56031 25:-0.64421 26:-0.94811 27:0.15904 28:-0.81995 29:-0.83019 30:-0.67183 31:0.1999 32:-0.90251 33:-0.87432 34:0.06896 35:-0.67476 36:0.58172 37:-0.50763 38:-1 39:-0.81267 40:-1 41:-0.37819 42:-0.85714 43:0.13096 44:-0.49259 45:0.44756 46:-0.46901 47:-0.90655 48:-0.5967 49:0.24947 50:-0.45849 51:0.27439 52:0.48354 53:-0.66239 54:-0.32479 55:0.62843 56:-0.60412 57:0.23342 58:-0.70395 59:-0.80714 60:-0.00633 61:-0.90852 62:-0.27541 63:-0.03447 64:-0.98854 65:-0.78975 66:-0.20016 67:0.05398 68:-0.68194 69:-0.63342 70:0.10386 71:-0.49095 72:-0.69057 73:-0.40297 74:0.66969 75:-0.68059 76:-0.89218 77:-0.77615 78:-0.91868 79:-0.72641 80:0.33172 81:0.36087 82:0.80058 83:-0.76549 84:-0.46755 85:-0.85714 86:0.19287 87:-0.90071 88:0.09897 89:-1 90:-0.77251 91:-0.67767 92:0.44106 93:-0.76226 94:-0.82928 95:-0.91408 96:-0.82817 97:-0.72371 98:-0.88746 99:-0.241 100:0.78057 101:-0.87825 102:0.30658 103:-0.7345 104:-0.84972 105:-0.90498 106:0.57519 107:-0.73842 108:-0.06613 109:0.3691 110:-0.81581 111:-0.44968 112:-0.54717 113:-0.57143 114:-0.01757 115:-0.72661 116:0.13025 117:-0.93126 118:-0.79255 119:-0.86303 120:0.27726 121:0.36488 122:-0.34241 123:-0.01954 124:0.09902 125:0.46831 126:-0.25607 127:0.33675 128:0.02575 129:-0.65094 130:-0.91105 131:-0.65836 132:0.0077 133:-0.66052 134:-0.45417 135:-0.30911 136:-0.45754 137:-0.74477 138:0.34163 139:0.43204 140:-0.7008 141:-0.21179 142:-0.89743 143:-0.57228 144:0.35688 145:0.54935 146:-0.37187 147:-0.77044 148:0.30489 149:-0.12938 150:-0.07264 151:0.58016 152:-0.62948 153:0.4894 154:-0.19932 155:0.20901 156:0.70535 157:0.16111 158:-0.02721 159:-0.40069 160:0.19528 161:0.08963 162:-0.70995 163:0.42984 164:0.13495 165:-0.21337 166:0.3575 167:0.61816 168:-0.29508 169:0.63706 170:0.81241 171:0.22064 172:0.06469 
3.194175000448395 1:-1 2:0.07786 3:-1 4:-1 5:-0.41706 6:-0.33607 7:0.66574 8:-1 9:-0.28372 10:-1 11:0.24002 12:0.54791 13:-1 14:-1 15:-1 16:-0.31329 17:-0.26822 18:-1 19:-1 20:-1 21:-0.0752 22:0.73667 23:-1 24:0.01162 25:-1 26:-1 27:0.26506 28:-1 29:-1 30:-0.05621 31:0.33074 32:-1 33:0.44572 34:0.10808 35:-1 36:0.30325 37:-0.17334 38:-1 39:-1 40:-1 41:-0.02174 42:-1 43:0.1759 44:-1 45:0.32611 46:-1 47:-1 48:-1 49:-0.14215 50:0.77985 51:0.10248 52:0.34587 53:-1 54:-1 55:0.84453 56:-0.45657 57:0.15848 58:-1 59:-0.75653 60:0.23392 61:-1 62:-0.2678 63:-0.27417 64:-0.16683 65:0.6124 66:-0.0417 67:0.12324 68:-0.08528 69:-1 70:0.50593 71:-0.268 72:-1 73:-1 74:0.55773 75:-1 76:-1 77:-1 78:-1 79:-1 80:0.23404 81:0.47471 82:0.64026 83:-1 84:-1 85:-1 86:-0.08784 87:-1 88:-0.10551 89:-1 90:-1 91:-0.47029 92:0.49336 93:-0.08838 94:-1 95:-1 96:-1 97:-1 98:-1 99:0.13023 100:0.62246 101:-1 102:0.25229 103:-1 104:-1 105:-1 106:0.62139 107:-1 108:0.10231 109:0.00611 110:-1 111:-1 112:-1 113:-1 114:0.61505 115:-0.45847 116:0.12429 117:-1 118:-1 119:-1 120:0.17886 121:0.11505 122:-0.20304 123:-0.05532 124:0.33576 125:0.46207 126:-1 127:0.31372 128:-0.2198 129:-1 130:-1 131:-0.34496 132:-0.0321 133:-0.2263 134:-1 135:-0.0607 136:0.24805 137:-1 138:0.11625 139:0.25291 140:0.14728 141:-0.46412 142:-0.36964 143:-0.39074 144:0.06313 145:-0.06832 146:0.33564 147:-1 148:0.45629 149:0.12064 150:0.14997 151:0.53019 152:-0.02685 153:0.3432 154:-0.22706 155:-0.37338 156:0.55811 157:-0.00482 158:-0.26931 159:0.05599 160:0.20808 161:-0.09321 162:-0.81882 163:-0.11175 164:0.08208 165:-0.06487 166:0.31607 167:0.5854 168:-0.81967 169:0.40355 170:0.80375 171:0.17154 172:-0.29989 
0.08980590800787208 1:-1 2:0.27821 3:-1 4:-0.30271 5:-0.23265 6:-1 7:0.64512 8:-0.49829 9:-1 10:-1 11:0.0156 12:0.02155 13:-1 14:-1 15:-1 16:-0.4998 17:-0.67891 18:-1 19:-1 20:-1 21:0.19719 22:0.6698 23:-0.73923 24:-1 25:-1 26:-0.21428 27:0.29639 28:-0.54557 29:-1 30:-0.58588 31:-0.24611 32:-1 33:-1 34:-0.1074 35:-1 36:0.26486 37:-0.34651 38:-1 39:-1 40:-1 41:-0.50898 42:-1 43:0.08873 44:-0.57313 45:0.48677 46:-1 47:-1 48:-1 49:-0.86591 50:-0.60952 51:0.53918 52:0.54083 53:-1 54:-0.14796 55:0.60276 56:-0.75986 57:0.39384 58:-0.00379 59:-0.43502 60:0.01139 61:-0.53827 62:-0.30587 63:0.09113 64:-0.98709 65:-1 66:0.08589 67:0.03151 68:-1 69:-1 70:0.26261 71:-0.67881 72:-0.60952 73:-1 74:0.33136 75:-1 76:-1 77:-1 78:-0.58956 79:-1 80:0.43723 81:0.44955 82:0.82387 83:-1 84:-1 85:-0.75963 86:0.23414 87:-1 88:-0.13917 89:-1 90:-1 91:-0.76757 92:0.39857 93:1 94:-1 95:-1 96:-1 97:-1 98:-1 99:0.04493 100:0.64623 101:-1 102:0.51377 103:-0.32994 104:-1 105:-1 106:0.37376 107:-1 108:0.11397 109:0.15303 110:-1 111:-1 112:0.14286 113:-0.27891 114:0.00955 115:-0.36999 116:0.4032 117:-1 118:-0.16528 119:-1 120:0.15501 121:0.85019 122:0.35469 123:0.02942 124:0.5033 125:0.41359 126:-1 127:0.31679 128:-0.19938 129:-1 130:-1 131:-1 132:0.25174 133:0.03026 134:-0.44897 135:-0.04446 136:-1 137:-1 138:-0.01235 139:0.42173 140:-0.49659 141:-0.81106 142:-0.34378 143:-0.18894 144:-0.07304 145:0.3497 146:0.33172 147:-1 148:-0.52972 149:-0.32095 150:-0.02988 151:0.5104 152:-0.35519 153:0.4492 154:-0.32685 155:-0.25347 156:0.53381 157:0.0882 158:-0.2959 159:-0.26458 160:0.49071 161:-0.26246 162:-0.74464 163:0.24205 164:0.10606 165:-0.18505 166:-0.01604 167:0.43178 168:-0.7541 169:0.12763 170:0.80491 171:0.43177 172:-0.2602 
4 1:-1 2:0.15393 3:-0.76819 4:-1 5:-0.29056 6:-1 7:0.59442 8:-1 9:-0.78207 10:-1 11:-0.01114 12:-0.03061 13:-0.76792 14:-1 15:-0.6533 16:-0.31806 17:-0.33207 18:-1 19:-1 20:-0.7327 21:0.25167 22:0.43706 23:0.0849 24:0.23113 25:-1 26:-0.8184 27:0.09719 28:-1 29:-1 30:-0.42571 31:0.24514 32:-0.31761 33:-1 34:0.13708 35:-1 36:0.27661 37:-0.38818 38:-1 39:-1 40:-0.60283 41:-0.20431 42:-1 43:0.22937 44:-0.40802 45:0.21294 46:-1 47:-1 48:-0.79835 49:-0.46957 50:-0.72924 51:0.2217 52:0.43081 53:-1 54:-0.60613 55:0.3415 56:-0.65407 57:0.48487 58:-0.65461 59:-0.69173 60:0.27291 61:-0.67983 62:-0.29422 63:-0.09033 64:-0.96764 65:-1 66:-0.01451 67:0.20624 68:-1 69:-1 70:0.16222 71:-0.77729 72:-0.72924 73:0.04481 74:0.62609 75:-1 76:-1 77:-1 78:-1 79:-0.68082 80:0.38596 81:0.27897 82:0.71865 83:-1 84:-1 85:-0.33333 86:0.39294 87:-1 88:0.10404 89:-0.60613 90:-0.60188 91:-0.67767 92:0.47579 93:-1 94:-1 95:-0.39858 96:-1 97:-0.67767 98:-1 99:0.23954 100:0.6793 101:-1 102:0.26206 103:-0.76769 104:-1 105:-1 106:0.59875 107:-1 108:0.34673 109:0.02101 110:-1 111:-0.72484 112:-0.73585 113:-0.5 114:-0.17864 115:-0.38765 116:0.41348 117:-1 118:-1 119:-0.52063 120:0.25062 121:0.46715 122:-0.332 123:0.10038 124:0.47872 125:0.47096 126:-1 127:0.37615 128:-0.10124 129:-1 130:-1 131:-1 132:-0.12221 133:-0.46447 134:-1 135:-0.17691 136:-1 137:-0.70224 138:0.00558 139:0.79993 140:-1 141:-0.31155 142:-0.44059 143:-0.45637 144:-0.12514 145:0.92441 146:-0.22118 147:-1 148:-0.65312 149:-0.44296 150:-0.31927 151:0.42694 152:-0.91038 153:0.80336 154:-0.1269 155:0.57839 156:0.70309 157:0.20763 158:-0.36128 159:-0.24108 160:0.19248 161:0.04172 162:-0.67894 163:0.47338 164:-0.08208 165:-0.84557 166:0.32593 167:0.13574 168:-0.81967 169:0.3091 170:0.69139 171:0.41106 172:-0.02565 
4 1:-0.70555 2:0.11893 3:-0.45396 4:-1 5:-0.58222 6:-1 7:0.4809 8:-0.59027 9:-1 10:-1 11:0.11201 12:0.09111 13:-1 14:-1 15:-1 16:-0.46801 17:-0.73778 18:-0.58611 19:-0.57407 20:0.25926 21:0.26404 22:0.68725 23:-0.78704 24:-1 25:-1 26:-1 27:0.17831 28:-1 29:-0.76666 30:-1 31:0.1284 32:-1 33:-1 34:-0.37211 35:-0.66481 36:0.26343 37:-0.70163 38:-1 39:-1 40:-1 41:-0.31771 42:-0.70555 43:-0.2561 44:-0.30277 45:0.38221 46:0.09445 47:-1 48:-1 49:-0.5308 50:-1 51:0.55258 52:0.13097 53:-0.53611 54:-0.30417 55:-0.2716 56:-0.53291 57:0.04302 58:0.22036 59:-0.47968 60:0.24557 61:-0.62291 62:-0.33005 63:0.03962 64:-0.03867 65:-1 66:-0.19205 67:-0.14571 68:-0.34444 69:-1 70:0.01484 71:-0.7377 72:-1 73:-1 74:0.38577 75:-0.56111 76:-1 77:-1 78:-1 79:-1 80:0.5308 81:0.14016 82:0.7409 83:-0.67778 84:-0.45128 85:-0.6074 86:0.17662 87:-1 88:-0.09579 89:-1 90:-1 91:-0.81018 92:0.26047 93:-1 94:-1 95:-1 96:-1 97:-1 98:-0.53611 99:-0.64351 100:0.82122 101:-0.49814 102:0.65671 103:-0.72639 104:-0.38055 105:-1 106:0.44352 107:-1 108:0.23819 109:0.80897 110:-0.62037 111:-1 112:-0.68889 113:0.47223 114:-0.03584 115:-0.28947 116:0.35337 117:-1 118:-0.82949 119:-1 120:0.08626 121:0.57704 122:-0.30129 123:-0.06804 124:0.48964 125:0.39006 126:-0.23333 127:0.28199 128:0.28952 129:-1 130:-0.63333 131:-1 132:0.19917 133:-0.3751 134:-0.09999 135:-0.44482 136:-1 137:-1 138:-0.37858 139:0.50615 140:-1 141:-0.69124 142:-0.6104 143:-0.15004 144:0.49529 145:0.20885 146:0.19488 147:-1 148:-0.42206 149:-0.29382 150:-0.20152 151:0.32141 152:-0.23947 153:0.54532 154:0.22688 155:0.40608 156:0.4052 157:0.44982 158:-0.31279 159:-0.12589 160:0.23246 161:0.28105 162:-0.81732 163:0.50978 164:0.18598 165:-0.43958 166:-0.3769 167:0.05777 168:-0.88525 169:0.44568 170:0.8051 171:0.23334 172:-0.35699 
0.7388266004053514 1:-0.54113 2:0.52857 3:-0.57452 4:-1 5:-0.34892 6:-1 7:0.77029 8:-1 9:1 10:-1 11:0.34616 12:0.06901 13:-0.57403 14:-1 15:-0.36364 16:-0.55756 17:-1 18:-1 19:-1 20:-0.50938 21:-0.12166 22:0.72059 23:-0.66811 24:0.12987 25:-1 26:1 27:-0.39036 28:-0.42165 29:-1 30:-0.47294 31:0.17364 32:-1 33:-1 34:-0.27601 35:-0.47763 36:0.58287 37:-0.6517 38:-1 39:-1 40:-1 41:-0.28256 42:-1 43:0.2561 44:-1 45:0.58782 46:-1 47:-0.39971 48:-0.62987 49:0.20957 50:-1 51:0.41862 52:0.50349 53:-0.27705 54:-0.63853 55:0.92131 56:-0.80032 57:0.45767 58:-1 59:-0.77955 60:-0.39975 61:0.17532 62:-0.2678 63:-0.16759 64:-0.62863 65:-1 66:-0.13767 67:0.51201 68:-1 69:-1 70:-0.15232 71:-0.18244 72:-0.00606 73:-1 74:0.44193 75:0.36797 76:-1 77:-1 78:-1 79:-1 80:0.73977 81:0.33875 82:0.97754 83:-1 84:-1 85:-0.38817 86:0.39294 87:-1 88:0.058 89:-0.27705 90:-1 91:-0.40837 92:0.30746 93:-1 94:-1 95:-1 96:-1 97:-1 98:-1 99:0.60713 100:0.70996 101:-1 102:-0.84163 103:-1 104:-1 105:-1 106:0.61931 107:-1 108:0.09869 109:-0.65847 110:-1 111:-1 112:-0.51515 113:0.37662 114:0.31064 115:-0.84659 116:-0.21744 117:-1 118:-0.73469 119:-1 120:0.29101 121:0.40121 122:-0.4161 123:-0.18662 124:-0.20738 125:0.24796 126:0.1948 127:0.26612 128:-0.19227 129:-0.25253 130:-1 131:-0.6342 132:-0.159 133:-0.73577 134:-1 135:-0.74834 136:-0.30303 137:-1 138:-0.14241 139:0.64673 140:-1 141:-0.81984 142:-0.56355 143:-0.3559 144:-0.39588 145:0.82006 146:0.2851 147:-0.50842 148:0.30126 149:0.09879 150:-0.14704 151:0.58853 152:-0.87226 153:0.50292 154:-0.35459 155:-0.05603 156:0.86183 157:0.11754 158:-0.40413 159:0.15026 160:-0.78413 161:-0.1006 162:-0.87812 163:-0.56557 164:-0.15463 165:-0.65229 166:1 167:0.2607 168:-0.86885 169:0.38207 170:0.88956 171:0.23067 172:-0.45894 
0.7685683259905761 1:1 2:0.37857 3:-1 4:0.28931 5:-1 6:-1 7:0.70358 8:-1 9:-1 10:-1 11:-0.61191 12:0.21717 13:-0.38113 14:0.33333 15:-0.07547 16:-0.30057 17:-1 18:-1 19:-1 20:-1 21:0.31049 22:0.78373 23:-1 24:-1 25:-1 26:0.45283 27:0.33253 28:-1 29:0.0566 30:-1 31:-0.27724 32:-1 33:-1 34:0.39976 35:-1 36:0.262 37:-0.13257 38:0.46541 39:-1 40:0.05912 41:-0.244 42:-1 43:0.1852 44:-1 45:0.30316 46:-1 47:-1 48:-1 49:-0.66638 50:-1 51:0.41371 52:0.47613 53:-1 54:-1 55:0.43611 56:-0.89781 57:-0.36164 58:-1 59:-0.87819 60:0.13063 61:-1 62:-0.33766 63:0.1355 64:0.44218 65:-1 66:-0.72624 67:-0.14696 68:-1 69:-1 70:0.29773 71:-0.40611 72:-0.27799 73:-1 74:0.5661 75:-1 76:-1 77:-1 78:-1 79:-1 80:0.5843 81:0.70185 82:0.80516 83:-0.27044 84:-1 85:-1 86:0.78368 87:-1 88:-0.43721 89:-1 90:-1 91:-0.14046 92:-0.44883 93:-0.26038 94:-1 95:-1 96:-1 97:-1 98:-1 99:0.92052 100:0.76748 101:-1 102:-1 103:-0.3805 104:0.40252 105:-0.11321 106:0.62693 107:-1 108:0.17467 109:-1 110:-1 111:-1 112:0.40881 113:-1 114:-0.33693 115:-0.30092 116:0.03331 117:-1 118:-1 119:-1 120:0.12214 121:0.54609 122:0.01455 123:0.06864 124:0.34669 125:0.32669 126:-1 127:0.62743 128:0.29796 129:-1 130:-1 131:0.06289 132:0.55848 133:-0.59184 134:-1 135:-0.80502 136:-1 137:-1 138:-0.15997 139:0.51246 140:-1 141:-0.73875 142:-0.35471 143:-0.57975 144:-0.70561 145:0.7729 146:1 147:-1 148:-0.2931 149:-0.54475 150:0.02285 151:0.28945 152:-0.86768 153:0.51864 154:0.71251 155:-0.83362 156:0.57755 157:-0.76367 158:-0.31811 159:-0.45557 160:0.15491 161:1 162:-1 163:0.50842 164:0.61389 165:-0.25486 166:0.95666 167:0.09462 168:-0.86885 169:0.87003 170:0.95171 171:0.2918 172:-0.22246 
3.185780563269847 1:0.16058 2:0.555 3:-1 4:-1 5:-0.72555 6:-1 7:0.73196 8:-1 9:-1 10:-1 11:0.04719 12:0.18819 13:-0.64088 14:-1 15:-0.46351 16:0.22029 17:-0.65548 18:-1 19:-0.4404 20:-1 21:0.0371 22:0.59922 23:-0.7202 24:-1 25:-0.51825 26:-0.71898 27:0.24819 28:-1 29:-1 30:-0.55566 31:-0.02286 32:-1 33:-1 34:-0.29759 35:-1 36:0.46025 37:-0.21807 38:-0.14964 39:-0.49271 40:-0.38541 41:-0.00057 42:-0.22627 43:0.23131 44:-0.08394 45:-0.38763 46:-1 47:-1 48:-0.06387 49:-0.47478 50:-0.58103 51:0.47756 52:0.28003 53:-1 54:-0.39051 55:0.4556 56:-0.66334 57:0.36053 58:-0.46554 59:-0.72339 60:0.36506 61:-0.75228 62:-0.2678 63:-0.10103 64:-0.90581 65:-0.24087 66:-0.16956 67:0.12949 68:-0.56935 69:0.98542 70:0.35559 71:-1 72:-1 73:-0.59581 74:0.57586 75:-1 76:-1 77:-1 78:-1 79:-1 80:-0.00867 81:0.30574 82:0.77313 83:-1 84:-1 85:-1 86:0.22226 87:-1 88:-0.46379 89:-1 90:-1 91:-1 92:0.27477 93:-1 94:-1 95:-0.06934 96:-0.53468 97:-1 98:-0.39051 99:0.13532 100:0.4454 101:-1 102:0.18297 103:-1 104:-1 105:-1 106:0.27674 107:-0.29163 108:-0.31497 109:0.1432 110:-0.50122 111:-0.57421 112:-0.59124 113:-1 114:0.05023 115:-0.62142 116:0.2456 117:-1 118:-0.77593 119:-1 120:0.02589 121:0.5869 122:-0.1638 123:0.06909 124:0.44229 125:0.21579 126:-1 127:0.24207 128:-0.00844 129:-0.36984 130:-0.51825 131:-0.69161 132:-0.0137 133:-0.57394 134:-1 135:0.11764 136:0.17518 137:-0.53924 138:0.00265 139:0.52476 140:-1 141:-0.18935 142:-0.55794 143:-0.44855 144:-0.16094 145:0.51349 146:-0.05365 147:-1 148:0.02011 149:0.19184 150:0.27241 151:0.77144 152:-0.63066 153:0.24488 154:-0.06728 155:-0.10367 156:0.69612 157:0.13597 158:0.01501 159:-0.46677 160:0.15611 161:0.16019 162:-0.47938 163:0.22266 164:0.34829 165:0.35891 166:0.18938 167:0.51473 168:-0.77049 169:0.35151 170:0.61943 171:-0.08201 172:-0.10147 
3.921878907989352 1:-0.51152 2:0.03964 3:-1 4:-1 5:-1 6:-1 7:0.47095 8:-0.32027 9:-0.57419 10:-1 11:-0.24124 12:-0.00924 13:-0.54654 14:-1 15:-1 16:0.08677 17:-0.56498 18:-1 19:-1 20:-0.47773 21:0.34893 22:0.23922 23:-1 24:-0.39862 25:-1 26:-0.64516 27:-0.13655 28:-0.38433 29:-0.2258 30:-0.43894 31:1 32:-0.33333 33:-0.14056 34:0.01703 35:-1 36:0.07664 37:-0.15789 38:-1 39:-0.35945 40:-1 41:0.05954 42:0.95392 43:0.54824 44:-1 45:-0.24036 46:-0.09217 47:-1 48:-0.60599 49:-0.37638 50:-1 51:0.01853 52:0.14037 53:-1 54:-1 55:0.3812 56:-0.48874 57:0.47655 58:-1 59:-0.83651 60:-0.19899 61:-1 62:-0.2678 63:-0.14976 64:0.67527 65:-0.52074 66:0.2535 67:0.60062 68:-0.45622 69:-1 70:-0.45994 71:-0.12969 72:-1 73:-0.48963 74:0.45309 75:-1 76:-1 77:-0.48974 78:-1 79:-1 80:0.52969 81:-0.06843 82:0.76149 83:-0.46544 84:-0.08968 85:-1 86:0.17787 87:-1 88:-0.1197 89:-0.23041 90:-1 91:-0.6851 92:0.05659 93:-0.45806 94:0.16744 95:-1 96:-1 97:-1 98:-1 99:-0.255 100:0.34723 101:-1 102:0.61375 103:-1 104:-1 105:-0.35023 106:0.47263 107:-1 108:0.02754 109:0.28476 110:-0.3702 111:-1 112:0.03226 113:0.46544 114:-0.26747 115:-0.45019 116:0.35445 117:-1 118:-1 119:-1 120:0.24697 121:0.18592 122:0.15926 123:0.19814 124:0.25108 125:0.35382 126:0.27189 127:-0.29017 128:-0.09991 129:-1 130:-1 131:-1 132:0.10982 133:-0.30435 134:-1 135:-0.41895 136:-1 137:-0.4182 138:-0.07692 139:0.06248 140:-0.31797 141:-0.23297 142:-0.16938 143:-1 144:-0.21304 145:0.51704 146:-0.57655 147:-1 148:0.58139 149:-0.24829 150:-0.59344 151:0.40538 152:-0.6698 153:0.43092 154:-0.23444 155:-0.68727 156:0.93164 157:0.19045 158:-0.55615 159:0.20145 160:0.17969 161:-0.2553 162:-0.36607 163:0.58258 164:-0.15463 165:-0.17188 166:0.28581 167:0.55443 168:-0.95082 169:0.13287 170:0.35681 171:-0.02121 172:-0.27601 
1.062660065504901 1:-1 2:0.40857 3:-0.61557 4:-0.73272 5:-0.41173 6:-0.88833 7:0.61043 8:-0.42308 9:-0.87953 10:-1 11:-0.03464 12:-0.07988 13:-0.35854 14:-0.7236 15:-0.80834 16:0.18241 17:-0.75384 18:-1 19:-1 20:-0.85224 21:0.31049 22:0.3951 23:-0.70013 24:-0.65971 25:-0.8279 26:-0.49804 27:0.16466 28:-0.82581 29:-0.78096 30:-1 31:0.17218 32:-0.62277 33:-0.51368 34:0.1101 35:-0.84267 36:0.61238 37:-0.55595 38:-0.69621 39:-0.81877 40:-1 41:0.05311 42:-0.03259 43:0.23286 44:-0.83637 45:0.05674 46:-0.4863 47:-0.63841 48:-1 49:0.16619 50:-0.70065 51:0.21634 52:0.43509 53:-0.56453 54:-0.78227 55:0.59681 56:-0.59245 57:0.26672 58:-0.80907 59:-0.93076 60:-0.19013 61:-0.73452 62:-0.3408 63:0.23336 64:-0.33155 65:-0.86441 66:-0.40646 67:0.12137 68:-0.84615 69:-1 70:-0.3269 71:-0.63066 72:-0.55098 73:-0.42243 74:0.73387 75:-0.794 76:-1 77:-0.56691 78:-0.52804 79:-0.6471 80:0.6145 81:0.05469 82:0.70909 83:-0.84876 84:-1 85:-0.90786 86:0.29103 87:-1 88:0.09084 89:-0.78226 90:-0.77992 91:-0.82181 92:0.63841 93:-0.84667 94:-0.6697 95:-1 96:-0.83377 97:-1 98:-0.56453 99:-0.47472 100:0.66414 101:-0.76445 102:0.51416 103:-0.87158 104:-0.4185 105:0.103 106:0.79071 107:0.26529 108:0.06975 109:0.44449 110:-1 111:-0.69578 112:-0.56193 113:-0.5854 114:0.38232 115:-0.5985 116:0.27647 117:-0.60105 118:-0.83995 119:-0.47001 120:0.43087 121:0.50213 122:-0.45374 123:-0.02088 124:0.21011 125:0.45007 126:-0.64015 127:0.3741 128:0.08126 129:-0.77488 130:-0.8279 131:-0.66949 132:0.04562 133:-0.7421 134:-0.36637 135:-0.6268 136:-0.79009 137:-1 138:-0.02003 139:0.37188 140:-0.61407 141:-0.56458 142:-0.73751 143:-0.60122 144:0.25012 145:0.63011 146:-0.29941 147:-0.85195 148:0.43419 149:0.04325 150:-0.04921 151:0.39498 152:-0.68573 153:0.41667 154:-0.06188 155:0.13903 156:0.67863 157:0.30149 158:-0.33031 159:-0.26877 160:-0.08415 161:0.26722 162:-0.10279 163:0.04848 164:0.12573 165:-0.04906 166:0.16716 167:0.5838 168:-0.57377 169:0.48644 170:0.1519 171:0.23969 172:-0.28763 
4 1:-0.73956 2:0.20536 3:-0.75851 4:-0.49632 5:-0.72285 6:-1 7:0.66574 8:-0.63759 9:-0.77297 10:-0.76904 11:-0.01519 12:0.20196 13:-0.63735 14:-0.73956 15:0.26413 16:-0.54325 17:-0.76806 18:-0.63391 19:-0.43489 20:-0.58231 21:0.10561 22:0.38216 23:-0.52908 24:-0.35872 25:-1 26:-0.71622 27:0.12851 28:-0.83587 29:-0.58722 30:-0.70086 31:0.01751 32:-1 33:-0.77089 34:0.00927 35:-1 36:0.10529 37:-0.48267 38:-1 39:-1 40:-0.79312 41:-0.27915 42:-0.34889 43:0.21542 44:-0.53747 45:0.53076 46:-0.75799 47:-0.82965 48:-0.68489 49:-0.16074 50:-0.5769 51:0.26055 52:0.37267 53:-0.79484 54:0.0258 55:0.44372 56:-0.53945 57:0.07355 58:-0.82009 59:-0.82181 60:-0.11797 61:-0.58308 62:-0.32288 63:0.05269 64:-0.98099 65:-0.74447 66:-0.03543 67:0.24306 68:-0.42015 69:-1 70:0.3269 71:-0.53598 72:-0.85897 73:-0.72789 74:0.53994 75:-0.61179 76:-1 77:-0.86397 78:-1 79:-0.50123 80:0.18259 81:0.38906 82:0.72572 83:-1 84:-1 85:-0.56593 86:0.14348 87:-1 88:0.06634 89:-1 90:-0.79263 91:-0.74816 92:0.00797 93:-0.71106 94:-1 95:-0.68673 96:-1 97:-0.49631 98:-1 99:0.253 100:0.62039 101:-0.77805 102:0.21558 103:-0.51597 104:-0.45209 105:-1 106:0.50335 107:-0.76155 108:0.30372 109:0.0228 110:-0.66421 111:-0.85668 112:-0.86241 113:-0.21867 114:0.21018 115:-0.07877 116:-0.04035 117:-1 118:-0.92428 119:-1 120:0.1505 121:0.4362 122:0.19477 123:0.20488 124:0.07535 125:0.46663 126:-0.4914 127:0.34647 128:-0.15764 129:-1 130:-0.83784 131:-0.89619 132:0.11658 133:-0.52451 134:-0.80098 135:0.03458 136:-1 137:-0.8449 138:-0.08698 139:0.37521 140:-0.81818 141:-0.28201 142:-0.64543 143:-0.40582 144:-0.10372 145:0.46858 146:-0.17319 147:-0.72099 148:-0.04606 149:-0.28508 150:-0.13064 151:0.39066 152:-0.38263 153:0.67288 154:-0.27425 155:0.25198 156:0.60395 157:-0.17662 158:-0.29809 159:-0.47846 160:0.04058 161:-0.27867 162:-0.7371 163:0.2662 164:0.05257 165:-0.59335 166:0.36474 167:0.1393 168:-0.59016 169:0.57373 170:0.78644 171:0.23501 172:-0.12728 
0.3910996650150531 1:-0.75688 2:0.28571 3:-0.32372 4:-0.52981 5:-0.82752 6:-1 7:0.52699 8:-0.32339 9:-1 10:-0.5688 11:-0.14766 12:0.23927 13:-1 14:-1 15:-0.66284 16:-0.09789 17:-0.35046 18:-1 19:-0.29663 20:-0.74006 21:0.10027 22:0.39608 23:-0.47248 24:-1 25:-0.69724 26:-0.47019 27:0.00161 28:-1 29:-1 30:-0.16227 31:-0.1143 32:-1 33:-1 34:-0.19541 35:-0.72324 36:0.43848 37:-0.20065 38:-1 39:-0.68119 40:-1 41:-0.22321 42:-1 43:-0.29368 44:-0.71215 45:-0.34619 46:-0.54816 47:-1 48:-0.60779 49:0.30202 50:-1 51:0.22349 52:0.5813 53:-0.61697 54:-1 55:0.68145 56:-0.65734 57:0.22176 58:-1 59:-0.78771 60:-0.24051 61:-1 62:-0.19077 63:-0.46593 64:-0.81236 65:-0.76147 66:-0.42032 67:0.02902 68:-0.45871 69:-1 70:-0.3452 71:-0.13368 72:-1 73:-0.49197 74:0.57377 75:-0.63761 76:-0.26605 77:-0.49207 78:-0.72324 79:-1 80:0.4458 81:0.11607 82:0.64317 83:-0.73394 84:-1 85:-0.83792 86:0.07096 87:-1 88:-0.32232 89:0.91515 90:0.16147 91:-0.84327 92:0.01083 93:-1 94:-0.41895 95:-1 96:-1 97:-0.37308 98:-1 99:-0.38087 100:0.32863 101:-1 102:0.30248 103:-1 104:-1 105:-0.3532 106:0.11758 107:-1 108:-0.68281 109:0.28654 110:-0.68654 111:-0.46483 112:-0.74312 113:-0.75688 114:0.20603 115:-0.62381 116:-0.60466 117:-1 118:-0.85903 119:-1 120:0.07595 121:0.34066 122:0.29382 123:0.01834 124:-0.73503 125:0.1217 126:-0.36697 127:-0.02456 128:-0.20115 129:-1 130:-1 131:-0.41858 132:0.51643 133:-0.8674 134:-1 135:-0.49409 136:-0.63073 137:-0.42087 138:0.11223 139:0.27185 140:0.01834 141:0.02034 142:-0.68889 143:-0.60698 144:-0.06505 145:0.18559 146:-0.06265 147:-0.4791 148:0.5704 149:9e-05 150:0.14411 151:0.37697 152:-0.70928 153:-0.23538 154:-0.28614 155:-0.43275 156:0.57042 157:0.02326 158:-0.25149 159:-0.53495 160:-0.36758 161:0.00453 162:-0.7092 163:-0.40636 164:0.37289 165:0.35364 166:0.32472 167:0.74864 168:-0.70492 169:0.52774 170:0.67658 171:0.93319 172:0.05565 
2.627232736533614 1:-0.72251 2:-0.13929 3:0.02917 4:-1 5:-1 6:-1 7:0.66574 8:-1 9:-1 10:-1 11:-0.62973 12:-0.00924 13:-0.22723 14:0.10994 15:0.15445 16:0.94675 17:-1 18:-0.60995 19:-1 20:-1 21:0.31049 22:0.17176 23:-1 24:0.02487 25:-1 26:-1 27:0.27068 28:0.04921 29:-1 30:-0.36257 31:0.10846 32:-0.62129 33:-0.02356 34:-0.50599 35:-1 36:-0.48804 37:0.17747 38:-1 39:-1 40:-0.55916 41:1 42:-1 43:0.54824 44:-1 45:-0.78196 46:-1 47:-1 48:-1 49:0.26707 50:-1 51:0.27439 52:0.36041 53:-1 54:-1 55:-0.02294 56:-0.40444 57:0.15848 58:-0.61664 59:-0.76528 60:0.52608 61:-1 62:-0.73533 63:-0.77456 64:-0.69145 65:-1 66:-0.64466 67:0.16131 68:-1 69:-1 70:-0.77943 71:-1 72:-1 73:-0.13024 74:0.48308 75:0.65445 76:0.25654 77:-0.13041 78:-1 79:-1 80:0.3649 81:-0.33982 82:0.32231 83:-1 84:0.55135 85:-1 86:-0.05595 87:-1 88:-0.06901 89:-0.12565 90:-1 91:-0.46335 92:-0.62697 93:-0.69215 94:-1 95:-0.66623 96:-0.33246 97:-1 98:0.7487 99:0.1737 100:0.52911 101:-1 102:-0.2273 103:-1 104:-1 105:-1 106:0.57196 107:0.01621 108:-0.11477 109:-0.18671 110:-0.64223 111:-1 112:-1 113:0.10995 114:-0.55306 115:-0.09787 116:-0.13079 117:0.06806 118:-1 119:-1 120:0.24138 121:0.54609 122:-0.08744 123:-0.1679 124:-0.11769 125:0.73908 126:-0.27749 127:-0.02764 128:-0.33881 129:-1 130:-1 131:-1 132:0.34072 133:-0.57504 134:-1 135:-0.28493 136:-1 137:-1 138:-0.24705 139:-0.02891 140:-1 141:-1 142:-0.83343 143:-1 144:-0.32364 145:0.92441 146:-0.68247 147:-1 148:-0.55363 149:-1 150:-0.18219 151:0.09665 152:-1 153:0.54605 154:-0.29641 155:1 156:0.93164 157:-0.42342 158:-0.26931 159:-0.62823 160:-0.32041 161:0.29082 162:0.39105 163:0.93366 164:0.12634 165:-0.13237 166:0.33447 167:0.26462 168:-0.81967 169:0.44981 170:-0.2229 171:0.26207 172:-0.4241 
0.7219713552533599 1:-1 2:1 3:-0.29291 4:-1 5:-1 6:-1 7:0.62232 8:0.06115 9:0.99424 10:-1 11:-0.2777 12:-0.13856 13:-1 14:-1 15:0.05755 16:0.19618 17:-0.32087 18:-1 19:-1 20:-0.18466 21:-1 22:0.55667 23:-1 24:0.8777 25:-1 26:-1 27:0.24257 28:-1 29:-1 30:-0.12411 31:0.59144 32:-1 33:0.34171 34:-0.44326 35:-1 36:0.38977 37:-0.58326 38:-1 39:1 40:-1 41:0.72255 42:-1 43:0.75591 44:-1 45:-0.86994 46:-1 47:-1 48:-1 49:0.66142 50:-1 51:0.67314 52:0.92133 53:0.20144 54:-1 55:0.25068 56:-0.72758 57:-0.33722 58:-1 59:-0.75801 60:-0.73544 61:-1 62:0.45186 63:0.40055 64:0.61962 65:-0.2518 66:-0.03804 67:0.02028 68:-0.15109 69:-1 70:-0.48566 71:-1 72:-0.17411 73:-0.20324 74:0.64388 75:0.13669 76:-1 77:-1 78:-1 79:-0.02638 80:0.65495 81:0.42314 82:0.25868 83:-1 84:-1 85:-1 86:0.16974 87:-1 88:-0.04618 89:-1 90:-1 91:-1 92:0.20695 93:-0.15396 94:-1 95:-1 96:-1 97:-1 98:-1 99:-0.10913 100:0.88288 101:-1 102:0.33509 103:-0.29137 104:-1 105:-1 106:0.71957 107:-1 108:0.70412 109:0.45105 110:-1 111:0.67865 112:-0.19425 113:-1 114:-0.10834 115:-0.757 116:-0.61928 117:-1 118:-0.56048 119:-1 120:0.36169 121:0.4658 122:-0.24683 123:-0.06146 124:-0.68814 125:0.13946 126:-0.0072 127:0.98158 128:-0.3659 129:-1 130:-1 131:-0.39209 132:0.01445 133:-0.81967 134:0.16546 135:-0.79631 136:-1 137:-0.09173 138:0.23918 139:0.01562 140:-1 141:-0.60192 142:-0.5538 143:-0.86041 144:-0.00272 145:0.52059 146:0.71178 147:-0.18306 148:0.89427 149:0.04052 150:0.31049 151:0.27245 152:-0.84871 153:0.0625 154:-0.68225 155:-0.23283 156:0.84482 157:-0.34381 158:-0.10166 159:0.06559 160:-0.8329 161:-0.15852 162:-0.83174 163:-0.70165 164:0.06486 165:-0.13731 166:0.69433 167:0.24005 168:-0.90164 169:0.23723 170:0.81433 171:-0.14047 172:-0.53928 
0.7686988378164044 1:-0.68358 2:0.14464 3:-0.41322 4:0.22387 5:-0.55105 6:-1 7:0.79212 8:-1 9:-0.44836 10:-1 11:-0.36804 12:0.07155 13:-0.41254 14:-1 15:-0.12239 16:-0.10346 17:-0.71821 18:-0.55522 19:-1 20:-1 21:0.63369 22:0.59451 23:-1 24:-1 25:-0.60597 26:-0.77015 27:0.25462 28:-1 29:-0.49851 30:-0.27314 31:-0.1036 32:-0.56816 33:-0.44328 34:0.32962 35:-1 36:0.39407 37:-0.50602 38:-1 39:-1 40:-1 41:-0.275 42:-1 43:0.20225 44:0.12387 45:0.02869 46:-1 47:-0.58607 48:-0.48956 49:-0.32705 50:-0.65731 51:0.20786 52:0.58615 53:-1 54:-0.75074 55:0.15535 56:-0.85397 57:-0.25451 58:-0.56285 59:-0.86217 60:0.39418 61:-1 62:-0.53426 63:0.28843 64:0.59453 65:-0.06866 66:-0.19728 67:-0.17504 68:-0.29553 69:-1 70:0.14688 71:-0.71812 72:-1 73:-0.6694 74:0.78898 75:-1 76:-1 77:-0.33895 78:-1 79:-0.59602 80:0.39771 81:0.65938 82:0.95363 83:-1 84:-1 85:-1 86:0.16036 87:-1 88:-0.4247 89:-1 90:-1 91:-0.59204 92:0.3287 93:-1 94:-1 95:-1 96:-1 97:-1 98:-1 99:-0.41579 100:0.82122 101:-1 102:0.76743 103:-0.70597 104:-1 105:-1 106:0.53407 107:-1 108:0.1598 109:0.57056 110:-1 111:-1 112:-0.66567 113:-1 114:0.26968 115:-0.71435 116:0.37937 117:-1 118:-0.63373 119:-1 120:0.03276 121:0.74613 122:-0.02496 123:0.3772 124:0.2315 125:-0.01008 126:-1 127:0.09826 128:0.01732 129:-0.48457 130:-1 131:-0.49553 132:0.7676 133:-0.62801 134:-0.03285 135:-0.48798 136:-1 137:-1 138:-0.15723 139:0.20339 140:-1 141:-0.37801 142:-0.58705 143:-0.73597 144:0.00208 145:0.44371 146:0.07188 147:-1 148:0.37911 149:0.51744 150:-0.22086 151:0.80086 152:-0.60949 153:0.78509 154:0.02513 155:-0.54144 156:0.75087 157:0.04211 158:-0.38567 159:-0.87091 160:0.02738 161:0.44791 162:-0.64302 163:-0.68158 164:0.16569 165:-0.6862 166:0.27042 167:0.53502 168:-0.78689 169:0.43797 170:0.76566 171:0.47586 172:0.07985 
1.767476213928981 1:-1 2:0.29071 3:-1 4:-1 5:-0.66278 6:-1 7:0.58448 8:-1 9:-0.1713 10:-0.15695 11:-0.09662 12:0.35446 13:-0.55874 14:-1 15:-0.34081 16:-0.18241 17:-0.15336 18:-1 19:-0.31241 20:-1 21:0.34793 22:0.36863 23:-1 24:-0.4148 25:-1 26:-1 27:0.04578 28:-0.4009 29:-0.62332 30:-0.45404 31:-0.21206 32:-1 33:-1 34:-0.09695 35:-1 36:0.28749 37:0.21538 38:0.04484 39:-1 40:-0.24484 41:-0.26101 42:-1 43:0.24564 44:-1 45:0.25343 46:-1 47:-1 48:-0.23318 49:-0.40092 50:-1 51:0.22438 52:0.56506 53:-1 54:-0.62556 55:0.42018 56:-0.82965 57:0.03469 58:-1 59:-0.77002 60:-0.01038 61:-1 62:-0.41782 63:0.30349 64:-0.99175 65:-1 66:-0.17793 67:0.31295 68:-1 69:-1 70:0.22057 71:-1 72:-1 73:0.48991 74:0.58144 75:-1 76:-1 77:-0.00693 78:-1 79:-0.39312 80:0.31494 81:0.28789 82:0.72156 83:-1 84:-1 85:-0.68311 86:0.18349 87:-0.33932 88:-0.71039 89:-1 90:-0.24305 91:-1 92:0.38958 93:-1 94:-1 95:-1 96:-0.42825 97:0.22571 98:-1 99:-0.1737 100:0.32174 101:-1 102:0.42628 103:-1 104:1 105:-1 106:0.53407 107:-1 108:-0.04965 109:0.30502 110:-1 111:-1 112:-0.49776 113:-0.52466 114:0.15677 115:-0.41375 116:0.11779 117:-1 118:-0.45029 119:-1 120:0.06478 121:0.54609 122:-0.04472 123:-0.00142 124:0.41771 125:0.17691 126:-1 127:0.19345 128:0.09991 129:-0.22571 130:-1 131:-1 132:0.13985 133:-0.26831 134:-1 135:-0.26297 136:-1 137:0.69843 138:0.05973 139:0.43835 140:-1 141:0.05741 142:0.07405 143:-0.47223 144:0.02573 145:0.49184 146:-0.29641 147:0.01844 148:0.07768 149:0.21934 150:-0.00293 151:0.30086 152:-0.65981 153:0.52705 154:-0.25624 155:-0.57638 156:0.62452 157:0.10455 158:-0.19956 159:0.00615 160:0.32441 161:-0.29678 162:-0.17736 163:0.17469 164:0.05134 165:-0.19592 166:0.24046 167:0.52844 168:-0.86885 169:0.51976 170:0.32987 171:0.3516 172:0.07985 
0.2018442713199856 1:-0.78189 2:0.63679 3:-0.59553 4:-1 5:-1 6:-1 7:0.75282 8:-0.6965 9:-1 10:-0.61317 11:-0.35264 12:0.21391 13:-0.79753 14:-0.56379 15:-0.39506 16:-0.42138 17:-0.61152 18:-1 19:-1 20:-1 21:0.41344 22:0.56412 23:-1 24:-0.73148 25:-1 26:-0.68313 27:-0.29157 28:-0.72511 29:-1 30:-0.49897 31:0.28064 32:-1 33:-1 34:0.09931 35:-0.75172 36:0.15227 37:-0.20909 38:-1 39:-0.42799 40:-0.6535 41:-0.23379 42:-0.78189 43:0.2499 44:0.29115 45:0.31304 46:-0.59465 47:-0.71468 48:-0.82408 49:-0.42075 50:-1 51:0.41192 52:0.6822 53:-1 54:-0.48457 55:0.4663 56:-0.75386 57:0.35776 58:-1 59:-0.89167 60:-0.11013 61:-0.72068 62:-0.35961 63:-0.02575 64:-0.89352 65:-0.57202 66:-0.36279 67:0.11513 68:0.21399 69:-1 70:-0.1093 71:-0.02851 72:-1 73:-0.77212 74:0.49913 75:-1 76:-0.67078 77:-0.54434 78:-0.75172 79:-0.72154 80:0.3237 81:-0.11214 82:0.67977 83:-0.76132 84:-1 85:-0.8546 86:0.84245 87:-0.69685 88:-0.30718 89:-1 90:-0.65268 91:-0.71879 92:-0.162 93:-0.75803 94:-1 95:-1 96:-0.73766 97:-0.71879 98:-1 99:-0.31248 100:0.67964 101:-1 102:0.14685 103:-1 104:-1 105:-1 106:0.67729 107:-1 108:-0.31578 109:0.25644 110:-1 111:-0.75995 112:-0.5391 113:-0.78189 114:0.25585 115:-0.53915 116:0.15137 117:-1 118:-0.87381 119:-1 120:0.19497 121:0.49989 122:-0.17501 123:-0.10547 124:0.25928 125:0.25876 126:-1 127:0.47083 128:-0.18561 129:-1 130:-0.7284 131:-0.82613 132:0.10306 133:-0.6347 134:-1 135:-0.56207 136:-0.66873 137:-0.74023 138:0.11113 139:0.09937 140:-1 141:-0.2848 142:-0.78776 143:-0.75944 144:0.03372 145:0.47666 146:0.03911 147:-0.76635 148:0.21163 149:-0.02777 150:-0.43585 151:0.60807 152:-0.71317 153:0.56287 154:0.30379 155:-0.42911 156:0.75703 157:0.15609 158:-0.04442 159:-0.29498 160:0.05896 161:0.09631 162:-0.76792 163:-0.04337 164:-0.02859 165:-0.33421 166:0.46368 167:0.63507 168:-0.72131 169:0.38896 170:0.82338 171:0.3389 172:0.15535 
1.956064569591298 1:-0.69628 2:0.54107 3:-0.85919 4:-1 5:-0.24584 6:-0.75459 7:0.7698 8:-0.57737 9:-0.86762 10:-0.73065 11:0.05489 12:0.19797 13:-0.71805 14:-1 15:-0.36819 16:0.0465 17:-0.86475 18:-0.78653 19:-0.78032 20:-0.67527 21:0.28643 22:0.38922 23:-0.23113 24:-0.62608 25:-0.43266 26:-0.66905 27:0.32932 28:-0.42579 29:-0.75931 30:-0.82557 31:0.07004 32:-1 33:-0.46562 34:0.11077 35:-0.82712 36:0.5121 37:-0.44171 38:-0.66618 39:-0.60172 40:-0.51748 41:-0.05576 42:-0.24069 43:0.0217 44:-0.8202 45:0.0322 46:-0.43554 47:-0.80133 48:-0.75502 49:-0.25765 50:-0.83553 51:0.22661 52:0.42226 53:-0.76074 54:-0.28223 55:0.76798 56:-0.53694 57:0.11851 58:-0.58039 59:-0.73063 60:-0.12532 61:-0.70827 62:-0.21988 63:0.24485 64:-0.98348 65:-0.70201 66:-0.43888 67:0.06459 68:-0.83094 69:-0.6103 70:-0.04451 71:-0.053 72:-0.67106 73:-0.68267 74:0.69341 75:-0.54728 76:-0.77077 77:-0.84136 78:-0.65425 79:-1 80:0.42175 81:0.28272 82:0.87357 83:-1 84:-1 85:-0.79752 86:0.37043 87:-1 88:0.14496 89:-1 90:-0.2745 91:-0.8042 92:0.26496 93:-0.66304 94:-0.63705 95:-0.45201 96:-0.63467 97:-0.8042 98:-0.52149 99:-0.237 100:0.80882 101:-1 102:0.43878 103:-0.71777 104:-0.68051 105:-0.59599 106:0.769 107:-1 108:0.31618 109:0.3226 110:-1 111:-1 112:-1 113:-0.84813 114:0.07984 115:-0.57479 116:0.30842 117:-0.70774 118:-0.73592 119:-1 120:0.12343 121:0.25723 122:-0.48445 123:-0.05652 124:0.33349 125:0.55881 126:-0.60459 127:0.72569 128:0.11012 129:-1 130:-0.81088 131:-0.63682 132:-0.32082 133:-0.73686 134:-1 135:-0.39347 136:-0.76934 137:-0.09563 138:0.19967 139:0.443 140:-0.78796 141:-0.58144 142:-0.7953 143:-0.3783 144:0.13313 145:0.5894 146:-0.17111 147:-1 148:0.13446 149:-0.06219 150:-0.21207 151:0.50761 152:-0.63066 153:0.43969 154:-0.19337 155:0.40804 156:0.55536 157:0.20888 158:-0.07914 159:-0.13192 160:0.20608 161:0.18188 162:-0.38653 163:0.50774 164:0.19705 165:-0.23016 166:0.24991 167:0.59982 168:-0.72131 169:0.57098 170:0.51842 171:0.13412 172:-0.21633 
3.489388923991285 1:-0.78969 2:0.47214 3:-0.80499 4:-1 5:-0.55238 6:-0.66013 7:0.80982 8:0.17064 9:-1 10:-1 11:0.16427 12:-0.00924 13:-0.60952 14:-0.15872 15:-1 16:-0.18426 17:-0.8127 18:-1 19:-0.39153 20:-0.77514 21:0.52574 22:0.37549 23:-0.69576 24:-1 25:0.04762 26:-0.84722 27:0.0755 28:-0.73492 29:-0.5 30:-0.51686 31:0.16196 32:-0.42592 33:-1 34:0.14517 35:-1 36:0.62871 37:-0.53799 38:-1 39:-0.72421 40:-1 41:-0.35097 42:-0.36904 43:0.26036 44:-1 45:0.32196 46:-1 47:-0.1746 48:-0.83036 49:-0.59896 50:0.82222 51:0.42934 52:0.60752 53:-0.66865 54:-0.17163 55:0.58564 56:-0.65494 57:0.3511 58:-1 59:-0.91851 60:-0.36228 61:-0.86533 62:-0.31214 63:0.27892 64:-0.26528 65:-0.38095 66:-0.14002 67:0.30484 68:0.17063 69:-1 70:-0.19585 71:-0.25057 72:-1 73:-0.78026 74:0.58214 75:-1 76:-1 77:-0.34091 78:-1 79:-0.46296 80:0.61506 81:0.39013 82:0.73238 83:-0.76984 84:-0.60806 85:-1 86:0.23789 87:-0.70768 88:-0.15396 89:-0.66865 90:-1 91:-0.86442 92:0.18774 93:-1 94:-1 95:-1 96:-0.74703 97:-0.72884 98:-1 99:-0.63241 100:0.82122 101:-0.64154 102:0.53095 103:-0.41369 104:-1 105:-0.44047 106:0.47748 107:-1 108:0.34915 109:0.71152 110:-1 111:-1 112:-0.55555 113:-0.78969 114:0.28158 115:-0.7465 116:0.51367 117:-1 118:-0.87812 119:-1 120:0.26222 121:0.34604 122:-0.43559 123:0.0917 124:0.45777 125:0.53697 126:-0.7262 127:0.42835 128:0.01732 129:-1 130:-0.7381 131:-1 132:-0.02347 133:-0.85132 134:-0.35714 135:-0.5466 136:0.59721 137:-0.24851 138:0.10583 139:0.33533 140:-1 141:-0.00669 142:-0.33314 143:-0.65612 144:0.35912 145:0.63657 146:-0.20295 147:-1 148:0.40586 149:0.26213 150:-0.46807 151:0.73795 152:-0.6144 153:0.83077 154:0.07791 155:-0.16557 156:0.89957 157:0.49969 158:0.05568 159:-0.25806 160:0.25565 161:0.44148 162:-0.25503 163:0.24341 164:-0.06302 165:-0.81725 166:0.24428 167:0.62403 168:-0.68852 169:0.85433 170:0.34295 171:0.44179 172:0.03888 
0.1483904667159218 1:-1 2:0.37179 3:-0.47859 4:-1 5:-1 6:-0.77282 7:0.61771 8:-1 9:-1 10:-1 11:-0.37128 12:-0.2726 13:-1 14:-1 15:0.16977 16:0.27328 17:-0.49921 18:-0.60478 19:-1 20:-0.69938 21:0.4873 22:0.39216 23:-1 24:-0.65385 25:-1 26:-0.18302 27:-0.09719 28:-0.64563 29:-0.55438 30:-0.35412 31:0.36284 32:-1 33:-1 34:-0.11111 35:-1 36:0.23077 37:-0.7981 38:-1 39:-1 40:-1 41:-0.24362 42:-0.43767 43:0.34328 44:0.33156 45:-0.22027 46:-1 47:-0.63219 48:-0.54642 49:0.22221 50:-0.39099 51:0.06765 52:0.33875 53:-0.55703 54:-0.77852 55:0.32604 56:-0.71896 57:0.41549 58:-1 59:-0.8399 60:0.22481 61:-0.81996 62:-0.47515 63:0.25911 64:-0.98476 65:-1 66:-0.29899 67:0.40842 68:0.56498 69:-1 70:-0.62957 71:-0.74953 72:-0.69549 73:-0.41247 74:0.56993 75:-0.16181 76:-0.5756 77:-1 78:-1 79:-1 80:0.35632 81:-0.2126 82:0.62882 83:-1 84:-0.47603 85:-0.81256 86:0.31041 87:-1 88:-0.04777 89:-0.55703 90:-0.55226 91:-0.81875 92:-0.04964 93:-1 94:-1 95:-1 96:-0.66181 97:0.08754 98:-1 99:-0.35886 100:0.79848 101:-1 102:0.63015 103:-0.47746 104:-1 105:-0.626 106:0.65997 107:-1 108:0.64824 109:0.70109 110:-1 111:-0.07162 112:-0.40584 113:-0.43767 114:-0.2968 115:-0.27212 116:0.14703 117:-1 118:-0.67436 119:-1 120:0.22247 121:0.39762 122:-0.20117 123:0.20278 124:-0.03938 125:0.15218 126:0.46419 127:-0.13869 128:0.00977 129:-1 130:-0.29974 131:-1 132:-0.3456 133:-0.92353 134:-0.14059 135:-0.58196 136:0.70822 137:-0.33024 138:-0.06393 139:0.29678 140:-0.60743 141:0.21639 142:-0.48064 143:-0.81206 144:0.08391 145:0.30512 146:-0.34672 147:-0.39759 148:0.24766 149:0.01175 150:-0.37083 151:-0.16261 152:-0.59695 153:0.7098 154:-0.20112 155:-0.0572 156:0.86734 157:0.25707 158:-0.41414 159:-0.34814 160:0.01059 161:0.04005 162:-0.79441 163:0.39377 164:-0.15463 165:-0.64241 166:0.22226 167:0.46471 168:-0.78689 169:0.7541 170:0.88802 171:-0.24202 172:-0.3386 
1.610953731441871 1:-1 2:0.5725 3:-0.77249 4:-1 5:-1 6:-1 7:0.56774 8:-0.65857 9:-0.78611 10:-0.56482 11:-0.22017 12:-0.00924 13:-1 14:-0.50926 15:-0.65972 16:-0.14956 17:-0.56296 18:-1 19:-1 20:-0.73766 21:0.61932 22:0.53392 23:-1 24:-0.69792 25:-0.38889 26:-1 27:0.32691 28:-1 29:-0.61111 30:-0.71817 31:0.02189 32:-1 33:-1 34:-0.1971 35:-1 36:0.46798 37:-0.358 38:-1 39:-0.67824 40:-0.61019 41:-0.34795 42:-1 43:-0.18946 44:-0.41899 45:0.24609 46:-0.54399 47:-1 48:-0.60417 49:-0.19841 50:-0.73426 51:0.0422 52:0.41684 53:-0.61343 54:-0.80671 55:0.7347 56:-0.78603 57:0.19067 58:-1 59:-0.93453 60:-0.29139 61:-0.84288 62:-0.19033 63:0.30468 64:-0.89406 65:-0.27778 66:-0.59942 67:-0.1532 68:-0.72685 69:-1 70:-0.26459 71:-0.12566 72:-0.73426 73:-0.74364 74:0.71155 75:-0.26852 76:-0.25926 77:-1 78:-0.72068 79:-1 80:0.94557 81:0.30645 82:0.712 83:-1 84:-1 85:-1 86:0.17662 87:-1 88:-0.37218 89:-0.22685 90:-0.21852 91:-1 92:0.05291 93:-1 94:0.17284 95:-0.40973 96:-1 97:-0.68364 98:-0.22685 99:-0.64751 100:0.86083 101:-1 102:0.62293 103:-0.77199 104:-1 105:0.30556 106:0.53661 107:-1 108:0.09427 109:0.72642 110:-1 111:-1 112:0.2963 113:-1 114:0.0696 115:-0.78469 116:0.13404 117:-1 118:-0.8578 119:-1 120:0.35611 121:0.41646 122:-0.0028 123:0.00771 124:-0.06761 125:-0.0084 126:-0.68056 127:0.38229 128:-0.09991 129:-0.60031 130:-1 131:-0.6088 132:0.156 133:-1 134:-1 135:-0.71338 136:-0.62732 137:0.46123 138:0.22492 139:0.29113 140:-1 141:0.38373 142:-0.4666 143:-0.55891 144:0.24085 145:0.40236 146:0.04927 147:-0.47428 148:0.44427 149:0.34572 150:0.01523 151:0.52029 152:-0.63829 153:0.15314 154:-0.14041 155:-0.39944 156:0.56718 157:0.23696 158:-0.30529 159:-0.61962 160:-0.09974 161:0.34708 162:-0.67394 163:-0.1257 164:0.0581 165:0.13862 166:0.1932 167:0.92043 168:-0.72131 169:0.66818 170:0.64079 171:0.42242 172:0.30182 
1.475834182201981 1:-0.8 2:0.12 3:-0.44366 4:-0.61321 5:-1 6:-0.8384 7:0.62013 8:-0.7217 9:-0.82566 10:-1 11:-0.31659 12:0.26354 13:-1 14:-0.6 15:-0.72264 16:-0.13075 17:-0.82189 18:-0.71887 19:-0.71069 20:-0.57233 21:0.49933 22:0.49471 23:-0.42138 24:-1 25:-1 26:-0.27358 27:0.52289 28:-1 29:-0.52453 30:-0.77028 31:0.28502 32:-1 33:-1 34:0.21632 35:-0.77233 36:0.58315 37:0.05227 38:-1 39:-0.47547 40:-0.68226 41:-0.12871 42:-0.8 43:-0.25378 44:-0.76321 45:0.05547 46:-1 47:-1 48:-0.83868 49:0.02094 50:-1 51:0.31637 52:0.31025 53:-0.36981 54:-0.6849 55:0.93415 56:-0.66672 57:0.02803 58:-1 59:-0.75239 60:0.34734 61:-0.74387 62:-0.28885 63:0.01664 64:-0.98559 65:-0.80377 66:-0.27546 67:0.41903 68:-0.55472 69:-1 70:-0.2453 71:-0.28733 72:-0.56679 73:-0.79104 74:0.56435 75:-0.40377 76:-1 77:-1 78:-1 79:-0.74465 80:0.44245 81:0.33553 82:0.7748 83:-0.78113 84:-1 85:-0.86667 86:0.30478 87:-1 88:-0.22841 89:-0.6849 90:-0.68151 91:-0.87107 92:0.22574 93:-0.77811 94:-1 95:-1 96:-1 97:-0.22641 98:-1 99:-0.34231 100:0.39959 101:-1 102:0.32123 103:-0.44245 104:-1 105:-0.73396 106:0.47378 107:-0.63378 108:0.18593 109:0.40516 110:-1 111:-0.33962 112:-0.36603 113:-0.8 114:-0.13629 115:-0.68762 116:0.00514 117:-0.80755 118:-1 119:-1 120:0.25814 121:0.60933 122:-0.16567 123:0.21132 124:-0.23333 125:0.43399 126:-0.21887 127:0.49028 128:0.05551 129:-0.67421 130:-0.75094 131:-0.84057 132:0.08579 133:-0.91452 134:-0.38868 135:-0.64318 136:-0.69623 137:-0.04717 138:0.29553 139:0.59721 140:-0.72075 141:0.25958 142:-0.38147 143:-0.50772 144:0.07719 145:0.25569 146:0.18495 147:0.07128 148:0.44405 149:-0.17691 150:-0.25015 151:0.62963 152:-0.6493 153:0.35636 154:0.15266 155:-0.3255 156:0.71815 157:0.12382 158:-0.16609 159:-0.49951 160:-0.25405 161:0.08081 162:-0.8093 163:0.24545 164:0.16385 165:-0.27198 166:0.31748 167:0.77944 168:-0.81967 169:0.8659 170:0.843 171:0.08903 172:0.47121 
2.658373956011887 1:-1 2:-0.17321 3:-0.33365 4:-1 5:-1 6:-0.70967 7:0.62474 8:1 9:-1 10:-1 11:-0.18979 12:0.57182 13:-0.33288 14:-1 15:-1 16:-0.14399 17:-1 18:-0.49492 19:0.03955 20:-0.61582 21:0.67747 22:0.93196 23:-0.74012 24:-0.55763 25:-0.55255 26:-1 27:0.15904 28:-1 29:-0.71526 30:-0.58729 31:0.16634 32:-1 33:-1 34:0.09223 35:0.22712 36:-0.09526 37:-0.36393 38:-1 39:-1 40:-1 41:0.22283 42:0.79662 43:0.31926 44:-0.57458 45:-0.18234 46:-0.33221 47:-0.05988 48:-1 49:-0.11364 50:-1 51:0.19893 52:-0.08451 53:-0.4339 54:-0.71695 55:0.34292 56:-0.29473 57:0.25229 58:-1 59:-0.9464 60:-0.24278 61:-1 62:-0.23018 63:-0.042 64:1 65:-0.64746 66:-0.04876 67:-0.02028 68:0.2 69:-1 70:0.01187 71:-0.3598 72:-1 73:-0.62458 74:0.68678 75:0.07119 76:-1 77:-1 78:-1 79:-1 80:0.53323 81:-0.0306 82:0.17634 83:-1 84:-1 85:-0.76045 86:0.23476 87:-1 88:-0.32676 89:-1 90:-1 91:-1 92:-0.2903 93:-1 94:-1 95:-1 96:-0.5678 97:-1 98:-1 99:-0.7992 100:0.70479 101:-1 102:0.61394 103:-1 104:-1 105:-0.04406 106:0.35597 107:-1 108:0.38693 109:0.63344 110:-1 111:-0.60452 112:-1 113:-0.28135 114:0.10087 115:0.13097 116:-0.1909 117:-1 118:-0.37581 119:-1 120:0.26523 121:0.35681 122:-0.09785 123:0.03017 124:0.11996 125:0.27292 126:-0.0644 127:-0.07062 128:-0.12389 129:-1 130:-1 131:-1 132:0.50329 133:-0.39763 134:-1 135:-0.51345 136:-0.45424 137:-1 138:-0.65426 139:0.47757 140:-1 141:-0.52933 142:-0.67145 143:-0.76015 144:0.44191 145:0.46083 146:0.1928 147:-1 148:0.23338 149:-0.01575 150:-0.27885 151:0.01903 152:-0.59966 153:0.7595 154:0.06854 155:0.25165 156:0.78116 157:0.40792 158:0.28527 159:0.21228 160:0.35599 161:0.46365 162:-0.88057 163:-0.07093 164:0.10483 165:-0.74416 166:0.02639 167:0.09088 168:-0.90164 169:0.26917 170:0.85416 171:0.17622 172:-0.15148 
1.948197352686263 1:-0.76233 2:0.11071 3:-0.55926 4:-0.54035 5:0.01166 6:-0.80796 7:0.53014 8:-1 9:-0.58565 10:-1 11:-0.02937 12:0.21355 13:-0.77937 14:-1 15:-0.6704 16:-0.0616 17:-1 18:-1 19:-1 20:-1 21:0.21691 22:0.40196 23:0.03139 24:-1 25:-1 26:-0.48206 27:-0.08916 28:-0.4009 29:-0.62332 30:-0.45404 31:0.52091 32:-0.35127 33:-1 34:-0.22914 35:-0.45889 36:0.38232 37:-0.38818 38:-1 39:-1 40:-0.62241 41:-0.09053 42:-0.76233 43:0.37505 44:-0.7186 45:0.02072 46:-1 47:-0.37818 48:-0.61659 49:-0.23237 50:-1 51:0.37441 52:0.53313 53:-0.62555 54:-0.81278 55:0.29989 56:-0.65887 57:0.06522 58:-0.67164 59:-0.61283 60:0.1438 61:-0.39126 62:-0.64353 63:-0.05111 64:-0.99621 65:-1 66:-0.41064 67:0.38284 68:-0.47085 69:-0.39012 70:-0.02819 71:-0.36483 72:-0.7426 73:-0.75168 74:0.61981 75:-0.29148 76:-0.64125 77:-1 78:-0.45889 79:-0.69656 80:0.66651 81:0.20742 82:0.5236 83:-0.21973 84:-1 85:-0.52466 86:0.35792 87:-1 88:0.00979 89:-1 90:-1 91:-0.54036 92:0.22901 93:-0.73632 94:-1 95:-0.71412 96:-1 97:-0.69357 98:-1 99:-0.21226 100:0.74406 101:-1 102:0.61062 103:-0.5583 104:-1 105:-0.68385 106:0.79164 107:-0.12962 108:0.24141 109:0.50291 110:-0.69357 111:-1 112:-0.74887 113:-0.52466 114:0.08095 115:-0.31509 116:-0.0046 117:-1 118:-0.72484 119:-1 120:0.4356 121:0.49585 122:-0.07275 123:0.07343 124:0.08582 125:0.41695 126:-0.69058 127:-0.00819 128:-0.12345 129:-1 130:0.18386 131:-0.81053 132:-0.06889 133:-0.45559 134:0.08969 135:-0.54933 136:-0.27803 137:-0.71692 138:0.03851 139:0.40146 140:-1 141:-0.18949 142:-0.36787 143:-0.31281 144:0.29199 145:0.34647 146:-0.19234 147:-0.74539 148:-0.06182 149:-0.22589 150:-0.36204 151:0.54084 152:-0.49835 153:0.81213 154:-0.21589 155:0.15655 156:0.53333 157:0.29143 158:-0.30435 159:-0.25966 160:0.1677 161:0.11514 162:-0.37116 163:0.306 164:-0.1202 165:-0.70958 166:0.20728 167:0.37873 168:-0.81967 169:0.31901 170:0.63983 171:0.0162 172:-0.0092 
1.309337443903658 1:-0.47525 2:0.42393 3:-1 4:-1 5:-0.62772 6:-0.576 7:0.74069 8:-1 9:-1 10:-0.53466 11:0.13389 12:0.34867 13:-0.75644 14:-1 15:-1 16:-0.53981 17:-0.29901 18:-0.63119 19:-1 20:-0.71948 21:0.45488 22:0.72784 23:-0.62046 24:-0.67699 25:-0.34653 26:-0.04703 27:0.6 28:-0.66931 29:-1 30:-1 31:0.5107 32:-1 33:-1 34:-0.04266 35:-1 36:0.48059 37:-0.65637 38:-1 39:-1 40:-0.58318 41:-0.38008 42:-1 43:0.28516 44:-0.37871 45:0.27255 46:-0.02475 47:-1 48:-0.78837 49:-0.24551 50:-1 51:0.38468 52:0.75859 53:-1 54:-0.79332 55:0.41923 56:-0.85866 57:0.15848 58:-1 59:-0.88026 60:-0.16076 61:-1 62:-0.54411 63:0.4794 64:-0.49016 65:-0.22773 66:-0.41875 67:0.39719 68:-1 69:-1 70:0.18991 71:-0.53253 72:-1 73:-1 74:0.87129 75:-1 76:-1 77:0.09631 78:-1 79:-0.66502 80:0.73325 81:0.58016 82:0.83323 83:-1 84:-1 85:-1 86:0.23851 87:-1 88:-0.18584 89:-1 90:-1 91:-0.66172 92:0.24413 93:-1 94:-1 95:-0.68441 96:-0.68441 97:-1 98:-0.58664 99:-0.19953 100:0.73614 101:-1 102:0.4093 103:-0.26857 104:-1 105:-1 106:0.82906 107:-0.51957 108:0.29005 109:0.52108 110:-1 111:0.44389 112:-0.44554 113:-1 114:0.36793 115:-0.70624 116:0.27322 117:-0.74753 118:-0.84795 119:-0.49692 120:0.31335 121:0.49092 122:-0.37392 123:0.01999 124:0.2957 125:0.04345 126:-1 127:0.2651 128:-0.07638 129:-0.57262 130:-0.67327 131:-0.58168 132:0.11958 133:-0.55166 134:-0.19802 135:-0.79579 136:-1 137:-0.68751 138:-0.16345 139:0.19143 140:-1 141:-0.24314 142:-0.51655 143:-0.52443 144:0.12738 145:0.60523 146:0.39702 147:-0.71893 148:0.48881 149:0.21406 150:-0.16462 151:0.49036 152:-0.74909 153:0.43421 154:0.17013 155:-0.44989 156:0.89163 157:0.16824 158:0.19393 159:-0.60017 160:0.1729 161:0.19666 162:-0.36956 163:-0.09406 164:0.45281 165:-0.42772 166:0.4132 167:0.38425 168:-0.60656 169:0.65717 170:0.53632 171:0.32921 172:0.15309 
4 1:-0.8634 2:0.34071 3:-0.87334 4:0.05669 5:-0.80619 6:-0.88963 7:0.69703 8:-0.61985 9:-0.88092 10:-1 11:-0.00709 12:0.30556 13:-0.74639 14:-0.7268 15:-0.4317 16:0.13313 17:-0.7567 18:-0.80798 19:-0.60481 20:-1 21:0.2891 22:0.41784 23:-0.70361 24:-0.66366 25:-0.6598 26:-0.6031 27:0.21446 28:-0.65567 29:-0.67526 30:-0.8431 31:0.08025 32:-0.62715 33:-0.51934 34:0.18429 35:-0.8445 36:0.32904 37:-0.35387 38:-0.69973 39:-0.82087 40:-1 41:-0.00624 42:-0.04382 43:0.18675 44:-0.51482 45:0.00638 46:0.26933 47:-0.46392 48:-0.88982 49:-0.20139 50:-0.70413 51:0.28868 52:0.51005 53:-0.35438 54:-0.35438 55:0.52336 56:-0.59027 57:0.28337 58:-0.43385 59:-0.92863 60:-0.27114 61:-1 62:-0.23914 63:0.19532 64:-0.50465 65:-0.86598 66:-0.25768 67:0.20312 68:-1 69:-0.64947 70:0.01385 71:-0.75663 72:-0.70413 73:-0.85728 74:0.6798 75:-0.79638 76:-0.79381 77:-1 78:-0.8445 79:-0.6512 80:0.46966 81:0.25025 82:0.73238 83:-1 84:-0.74543 85:-0.81787 86:0.21163 87:-0.81013 88:0.05881 89:-1 90:-0.34742 91:-0.82388 92:0.5191 93:-0.84845 94:-0.67353 95:-0.83569 96:-0.17848 97:-1 98:-0.78479 99:-0.37577 100:0.69928 101:-0.30154 102:0.4876 103:-0.74614 104:-0.71262 105:-0.6366 106:0.61307 107:-0.49976 108:0.3206 109:0.36522 110:-1 111:-0.69932 112:-0.71134 113:-0.72681 114:-0.08122 115:-0.61935 116:0.15732 117:-0.86855 118:-0.92059 119:-0.73807 120:0.52261 121:0.56044 122:-0.3635 123:-0.07089 124:0.40724 125:0.36078 126:-0.82216 127:0.39458 128:-0.03464 129:-1 130:-1 131:-0.8911 132:-0.07941 133:-0.87008 134:-0.79123 135:-0.44027 136:-0.58506 137:-0.67462 138:0.09723 139:0.26354 140:-1 141:-0.35447 142:-0.71091 143:-0.54043 144:0.06057 145:0.44629 146:-0.14826 147:-0.41467 148:0.34546 149:-0.03906 150:-0.35618 151:0.41527 152:-0.67302 153:0.66996 154:-0.04152 155:0.11783 156:0.74925 157:0.45192 158:-0.36003 159:-0.13143 160:-0.07615 161:0.24315 162:-0.12174 163:0.25532 164:0.04334 165:-0.18801 166:0.20798 167:0.69791 168:-0.57377 169:0.74721 170:0.25964 171:0.1829 172:-0.18535 
4 1:-0.88352 2:0.1175 3:-0.78399 4:-0.32418 5:-0.91736 6:-0.81176 7:0.59927 8:-0.51374 9:-0.89846 10:-0.58681 11:0.00628 12:-0.04909 13:-0.89187 14:-1 15:-0.67692 16:-0.54696 17:-0.68879 18:-1 19:-0.8315 20:-1 21:0.27373 22:0.36549 23:-0.41026 24:-0.71319 25:-0.85495 26:-0.83077 27:0.26426 28:-1 29:-0.72308 30:-0.73242 31:0.11722 32:-0.84103 33:-1 34:-0.07739 35:-0.8674 36:0.23306 37:-0.63535 38:-1 39:-0.38901 40:-1 41:-0.33359 42:-0.41758 43:0.02751 44:-1 45:0.54511 46:-1 47:-0.54286 48:-0.90604 49:-0.08886 50:-0.87385 51:0.11498 52:0.52601 53:-0.08241 54:-0.44945 55:0.64888 56:-0.65036 57:0.21954 58:-1 59:-0.39041 60:0.04 61:-0.70165 62:-0.40305 63:0.01981 64:-0.99629 65:-0.65714 66:0.02209 67:0.07207 68:0.03736 69:-1 70:0.22057 71:-0.6887 72:-0.62154 73:-0.51319 74:0.57726 75:-0.82637 76:-0.47253 77:-0.75664 78:-0.337 79:-1 80:0.35185 81:0.31341 82:0.73175 83:-0.61758 84:-0.78292 85:-0.53407 86:0.23851 87:-1 88:0.22532 89:-0.81648 90:-0.44352 91:-0.47436 92:0.13463 93:-1 94:-0.72161 95:-0.57967 96:-0.85989 97:-0.54945 98:-1 99:-0.03856 100:0.67 101:-1 102:0.1572 103:-0.78352 104:-1 105:-0.69011 106:0.51374 107:-1 108:0.33427 109:0.13754 110:-0.84982 111:-0.61539 112:-1 113:-0.88352 114:-0.06711 115:-0.45051 116:0.27322 117:-0.88791 118:-0.59434 119:-0.5533 120:0.14405 121:0.39852 122:-0.4743 123:0.02298 124:0.39859 125:0.43615 126:-0.6967 127:0.4826 128:0.03641 129:-1 130:-0.56484 131:-0.90714 132:-0.20743 133:-0.76816 134:-0.46594 135:-0.31769 136:-0.64616 137:-0.58379 138:0.20187 139:0.47192 140:-0.67473 141:-0.31169 142:-0.54656 143:-0.35924 144:0.01135 145:0.48118 146:-0.23318 147:-0.25128 148:0.31316 149:-0.26049 150:-0.25249 151:0.50254 152:-0.54951 153:0.53436 154:-0.12834 155:0.07014 156:0.61626 157:0.04169 158:-0.31217 159:-0.77701 160:0.39476 161:0.09678 162:-0.67715 163:0.46692 164:0.08146 165:-0.35528 166:0.45764 167:0.71268 168:-0.42623 169:0.47184 170:0.79336 171:-0.03959 172:-0.22923 
0.03012557316584049 1:-1 2:0.25679 3:-1 4:-1 5:-0.54608 6:0.03397 7:0.64148 8:-1 9:-0.81408 10:-0.24347 11:0.18574 12:0.24543 13:-0.60403 14:-1 15:-1 16:-0.224 17:-0.81006 18:-1 19:-0.38297 20:-0.08786 21:0.20989 22:0.36863 23:-0.69149 24:-0.73742 25:-0.7344 26:-0.38028 27:0.15743 28:-0.19357 29:-1 30:-0.02012 31:0.35506 32:-0.70892 33:-0.62474 34:-0.00489 35:-1 36:0.6118 37:-0.29801 38:-1 39:-1 40:-0.66116 41:-0.24854 42:-1 43:-0.21 44:-1 45:-0.19796 46:-0.60362 47:-0.16298 48:-0.65594 49:0.00806 50:-0.53803 51:0.20697 52:0.57931 53:-0.66398 54:-0.83199 55:0.60585 56:-0.59562 57:0.32556 58:-1 59:-0.68425 60:-0.58937 61:-0.72686 62:-0.33542 63:-0.4168 64:-0.84751 65:-0.58149 66:-0.69722 67:0.30546 68:-0.52516 69:-0.45271 70:-0.4001 71:-0.05001 72:-0.76901 73:-0.55433 74:0.85804 75:-0.04628 76:-0.67806 77:-0.77721 78:-1 79:-1 80:0.39491 81:0.21652 82:0.67644 83:-1 84:-0.20508 85:-1 86:0.29853 87:-1 88:-0.06634 89:-0.66398 90:-0.66036 91:-0.86251 92:0.28458 93:-1 94:-0.49027 95:-0.74346 96:-1 97:-0.45004 98:-1 99:-0.13678 100:0.44092 101:-0.63648 102:0.22261 103:-0.40544 104:-1 105:-0.4326 106:0.34511 107:-0.21894 108:-0.4191 109:0.19923 110:-1 111:-0.53052 112:-1 113:-0.36016 114:0.2517 115:-0.71817 116:-0.05714 117:-1 118:-0.25823 119:-1 120:0.17134 121:0.34335 122:0.07783 123:-0.04559 124:-0.57341 125:0.05305 126:-0.44468 127:0.01382 128:0.26332 129:-0.65258 130:-1 131:-0.48994 132:0.13159 133:-0.7824 134:-0.67404 135:-0.53984 136:-0.67605 137:0.0161 138:0.21998 139:0.41974 140:-1 141:-0.21666 142:-0.54537 143:-0.5245 144:-0.31852 145:0.35713 146:0.21934 147:-0.77151 148:0.47804 149:0.06037 150:0.0621 151:0.45789 152:-0.68539 153:-0.0508 154:-0.07935 155:-0.14866 156:0.6472 157:-0.04714 158:-0.1908 159:-0.41115 160:-0.63022 161:0.06222 162:-0.67875 163:-0.39582 164:-0.03105 165:-0.02009 166:0.46971 167:0.86773 168:-0.7377 169:0.57814 170:0.78759 171:0.51528 172:-0.03533 
1.292525926666332 1:-0.65696 2:0.35286 3:-1 4:-1 5:-0.87832 6:-0.86141 7:0.63639 8:-0.64199 9:-0.70097 10:-0.6958 11:-0.14523 12:0.08604 13:-0.68156 14:-1 15:-0.76214 16:-0.16466 17:-0.84725 18:-0.87944 19:-0.62783 20:-0.54153 21:0.52674 22:0.51235 23:-0.44174 24:-0.89441 25:-0.67961 26:-0.25243 27:0.37751 28:-0.78382 29:-0.52427 30:-0.50748 31:0.25195 32:-0.76592 33:-1 34:-0.19879 35:-0.90237 36:0.33018 37:-0.59368 38:-1 39:-0.66262 40:-0.86375 41:-0.28256 42:-0.5712 43:0.18791 44:-0.59386 45:0.37552 46:-0.84061 47:-0.77562 48:-0.58495 49:-0.12381 50:-1 51:0.22036 52:0.53057 53:-0.59466 54:-0.66222 55:0.65244 56:-0.57108 57:0.14738 58:-0.76304 59:-0.90497 60:-0.01595 61:-0.78034 62:-0.29512 63:-0.01307 64:-0.88061 65:-0.83172 66:-0.16407 67:0.30608 68:-0.80906 69:-0.55987 70:0.19041 71:-0.54161 72:-0.90712 73:-0.91039 74:0.67457 75:-0.36084 76:-0.61165 77:-0.82083 78:-0.70712 79:-0.78102 80:0.48271 81:0.37943 82:0.68912 83:-0.90614 84:-0.68036 85:-0.77131 86:0.30478 87:-0.88079 88:-0.09351 89:-0.86488 90:-0.72686 91:-0.66828 92:0.19183 93:-0.80971 94:-1 95:-0.79369 96:-0.69053 97:-0.88942 98:-1 99:-0.00582 100:0.77954 101:-0.85382 102:0.31224 103:-0.60154 104:-0.45873 105:-1 106:0.67521 107:-0.84296 108:0.16382 109:0.25376 110:-1 111:-0.90561 112:-0.81877 113:-0.82848 114:0.02837 115:-0.59071 116:0.13566 117:-0.91747 118:-0.80117 119:-1 120:0.19261 121:0.38282 122:-0.11254 123:0.06295 124:0.26747 125:0.40927 126:-0.66505 127:0.28301 128:0.07682 129:-0.5809 130:-0.57282 131:-0.7949 132:0.02835 133:-0.63507 134:-0.60679 135:-0.39204 136:-0.47897 137:-0.79572 138:0.2165 139:0.34031 140:-1 141:-0.27909 142:-0.90378 143:-0.52855 144:0.06089 145:0.5067 146:0.14619 147:-0.90812 148:0.37356 149:-0.20514 150:0.00644 151:0.56646 152:-0.54511 153:0.39949 154:-0.12528 155:-0.05706 156:0.66664 157:0.1653 158:-0.17454 159:-0.46579 160:0.14811 161:0.17712 162:-0.65386 163:0.32199 164:0.24316 165:-0.22621 166:0.46026 167:0.67245 168:-0.21311 169:0.59328 170:0.65637 171:0.30282 172:-0.03307 
1.749099938108713 1:-0.576 2:0.11571 3:-0.60686 4:-1 5:-0.6992 6:-1 7:0.62935 8:-0.705 9:-0.8152 10:-0.624 11:-0.27972 12:0.33418 13:-0.8032 14:-1 15:-1 16:-0.38826 17:-0.8112 18:-1 19:-1 20:-0.77333 21:0.24365 22:0.54333 23:-0.69333 24:-0.739 25:-1 26:-1 27:0.23614 28:-1 29:-0.328 30:-0.7565 31:0.16099 32:-0.71067 33:-1 34:0.23048 35:-0.75867 36:0.14167 37:-0.57015 38:-1 39:-0.722 40:-1 41:-0.38424 42:-0.364 43:0.04572 44:-0.498 45:0.39592 46:-0.212 47:-0.72267 48:-0.316 49:-0.0492 50:-0.7704 51:0.43023 52:0.45133 53:-1 54:-0.499 55:0.52431 56:-0.67926 57:-0.03525 58:-0.70711 59:-0.78851 60:-0.26886 61:-0.59275 62:-0.4017 63:-0.09667 64:0.23344 65:-0.376 66:-0.21428 67:0.27426 68:-0.528 69:-0.456 70:-0.00148 71:0.13314 72:-0.7704 73:-0.557 74:0.77119 75:-0.684 76:-1 77:-1 78:-0.75867 79:-1 80:0.25976 81:0.25471 82:0.56436 83:-0.768 84:-0.60492 85:-0.85867 86:0.01844 87:-1 88:-0.08193 89:-0.666 90:0.0128 91:-0.86333 92:0.08274 93:-0.7648 94:-1 95:-1 96:-1 97:-0.72667 98:-0.666 99:0.1988 100:0.66655 101:-1 102:0.07186 103:-0.803 104:-0.108 105:-1 106:0.55532 107:-0.22362 108:-0.21327 109:0.15959 110:-1 111:-0.76667 112:-0.776 113:-1 114:0.12301 115:-0.21515 116:0.08151 117:-1 118:-0.63127 119:-0.5935 120:0.18466 121:0.18816 122:-0.02042 123:0.0905 124:-0.04439 125:0.17643 126:0.104 127:0.32446 128:-0.22602 129:0.036 130:-0.736 131:-0.662 132:0.11019 133:-0.66831 134:-0.676 135:-0.27285 136:-0.678 137:-0.7475 138:0.03009 139:0.26952 140:-1 141:-0.30472 142:-0.75111 143:-0.47515 144:-0.20121 145:0.23179 146:0.05342 147:-0.77289 148:0.32189 149:0.05399 150:0.26303 151:0.34551 152:-0.39229 153:0.17361 154:-0.16167 155:-0.11666 156:0.68122 157:-0.16908 158:-0.37848 159:-0.52043 160:0.3328 161:-0.19857 162:-0.76029 163:0.06855 164:0.42822 165:0.23642 166:0.42678 167:0.48767 168:-0.77049 169:0.45615 170:0.77893 171:0.17889 172:0.01049 
0.3761443402703595 1:-0.60594 2:0.29143 3:0.4615 4:-1 5:-0.44089 6:-1 7:0.80061 8:0.09665 9:-1 10:0.39776 11:-0.36601 12:-0.00924 13:-1 14:-1 15:-1 16:-0.34349 17:-1 18:-1 19:-1 20:-0.15738 21:0.27941 22:0.40765 23:-0.42999 24:-0.51487 25:-1 26:-0.71375 27:0.6996 28:-1 29:-0.68773 30:-1 31:0.28551 32:-1 33:-1 34:-0.20924 35:-1 36:0.48059 37:-0.85037 38:-1 39:-0.48327 40:-1 41:-0.2285 42:-1 43:-0.09725 44:-1 45:0.38062 46:0.46467 47:-0.48451 48:-0.68215 49:0.73355 50:-0.14647 51:0.31592 52:0.4596 53:-1 54:-1 55:0.69048 56:-0.69737 57:-0.869 58:0.0888 59:-0.71742 60:-0.96709 61:-1 62:-0.64084 63:-0.95008 64:-0.64381 65:-0.22677 66:0.46634 67:0.18502 68:-0.56134 69:-1 70:-0.37438 71:-0.29793 72:-0.14647 73:-1 74:0.69899 75:-1 76:-1 77:-0.58837 78:-0.10286 79:-1 80:0.22882 81:0.20046 82:0.5575 83:-1 84:-1 85:-0.4746 86:0.45108 87:-1 88:0.16964 89:-1 90:-0.37248 91:-1 92:0.23146 93:-1 94:-0.05823 95:-0.52602 96:-1 97:-1 98:-1 99:-0.27756 100:0.82122 101:-1 102:-0.06385 103:-1 104:-1 105:0.04832 106:0.65096 107:-1 108:0.00503 109:0.23648 110:-0.49194 111:-0.56629 112:-0.58364 113:-0.60594 114:-0.16867 115:-0.55442 116:-0.46168 117:-1 118:-0.77224 119:-0.24442 120:0.41283 121:0.54609 122:-0.20117 123:0.20473 124:-0.7842 125:-0.39102 126:0.02601 127:0.80194 128:0.11545 129:-1 130:-0.50929 131:-0.68587 132:-0.04261 133:-0.81406 134:-0.39777 135:-0.46406 136:-1 137:-1 138:-0.24211 139:0.00665 140:0.10037 141:-0.48391 142:0.53636 143:-0.5806 144:-0.20697 145:0.20691 146:0.04304 147:-1 148:0.7014 149:0.1465 150:0.66667 151:0.06824 152:-0.37366 153:0.02887 154:-0.37981 155:0.16996 156:0.90168 157:0.09072 158:0.04911 159:0.53569 160:-0.92245 161:-0.36949 162:-0.7732 163:-0.66797 164:0.41469 165:-0.1024 166:0.52159 167:0.68545 168:-0.78689 169:0.57208 170:0.79144 171:-0.08301 172:-0.09566 
1.288712043698759 1:-0.31169 2:0.23 3:-0.68089 4:-1 5:-0.75584 6:-1 7:0.64609 8:-0.5211 9:-1 10:-1 11:-0.11242 12:0.13748 13:-1 14:-1 15:-0.52272 16:0.24334 17:-1 18:-1 19:-1 20:-0.26407 21:0.49967 22:0.77392 23:-0.75108 24:-0.57629 25:-1 26:-0.25 27:-0.95341 28:-1 29:-0.72727 30:-0.20942 31:0.01605 32:-1 33:-1 34:-0.34918 35:-1 36:0.49749 37:-0.91288 38:-1 39:-1 40:-1 41:0.17596 42:-0.65584 43:0.20341 44:0.2224 45:-0.05579 46:-0.36038 47:0.35065 48:-1 49:0.31813 50:-1 51:0.6718 52:0.2883 53:-1 54:-0.45779 55:0.24878 56:-0.69148 57:0.11352 58:-0.52453 59:-0.86349 60:0.46456 61:-1 62:-0.37662 63:-0.18938 64:0.05827 65:-1 66:-0.36959 67:-0.16069 68:-0.61688 69:-0.11687 70:0.58061 71:-0.38683 72:-1 73:-1 74:0.55424 75:-0.487 76:-1 77:-1 78:-1 79:-1 80:0.4184 81:0.24222 82:0.51237 83:0.12987 84:-1 85:-0.77056 86:0.39294 87:-1 88:-0.16988 89:-0.45778 90:-0.45194 91:-1 92:0.40633 93:-0.61818 94:-0.17747 95:-1 96:-1 97:-1 98:-1 99:-0.42488 100:0.76542 101:-1 102:0.23316 103:-0.68019 104:-1 105:-0.08442 106:0.35782 107:-1 108:-0.6808 109:0.19297 110:-1 111:-1 112:-1 113:-1 114:-0.30677 115:-0.60646 116:0.19036 117:-1 118:-0.80055 119:-1 120:0.19218 121:0.50976 122:-0.45161 123:-0.08227 124:-0.07353 125:0.3507 126:0.34416 127:0.16888 128:-0.55151 129:-0.43939 130:-0.14286 131:-0.72564 132:0.04374 133:-0.45096 134:0.05195 135:-0.5245 136:-1 137:-0.59009 138:-0.2412 139:0.25291 140:-1 141:-0.54912 142:-0.59385 143:-0.75304 144:0.22167 145:0.50638 146:0.21195 147:-0.63131 148:0.28234 149:-0.23391 150:-1 151:0.4584 152:-0.6986 153:0.44335 154:0.184 155:-0.10265 156:0.70892 157:0.24157 158:-0.16797 159:0.12971 160:0.30122 161:0.06627 162:-1 163:0.27335 164:-1 165:0.30721 166:0.28933 167:0.51758 168:-0.83607 169:0.44844 170:0.95171 171:0.05996 172:-0.13696 
3.417153320741793 1:-0.39197 2:0.55821 3:-0.43622 4:-1 5:0.29407 6:-0.83624 7:0.65409 8:-1 9:-0.82333 10:-1 11:-0.26393 12:0.31896 13:-1 14:-1 15:-0.71894 16:-0.47119 17:-0.09752 18:-0.71511 19:-0.41364 20:-1 21:0.23061 22:0.48039 23:-0.56023 24:-0.50096 25:-0.24283 26:-0.41109 27:-0.50361 28:-0.74456 29:-0.83939 30:-0.06883 31:0.26119 32:-0.44678 33:-1 34:-0.05379 35:-1 36:0.49835 37:-0.17963 38:-1 39:-0.73423 40:-0.67802 41:-0.37063 42:-0.79733 43:-0.48586 44:-1 45:0.14919 46:-0.62334 47:-1 48:-0.83652 49:-0.33994 50:-0.56099 51:0.14668 52:0.37466 53:-0.68069 54:-0.52104 55:0.45893 56:-0.57424 57:0.13183 58:-0.72 59:-0.88203 60:0.09139 61:-1 62:-0.39588 63:-0.11886 64:-0.8283 65:-1 66:-0.13348 67:0.24306 68:-0.77438 69:-1 70:-0.06231 71:-0.6389 72:-0.7805 73:-1 74:0.54343 75:-0.6979 76:-0.69408 77:-1 78:-0.30784 79:-1 80:0.62084 81:0.29735 82:0.83136 83:-0.33461 84:-1 85:-0.59465 86:0.54236 87:-1 88:-0.25489 89:-1 90:-0.67725 91:-1 92:0.22084 93:-0.77515 94:-1 95:-0.26865 96:-0.51243 97:-1 98:-0.68069 99:-0.16133 100:0.37754 101:-1 102:0.12771 103:-1 104:-0.57362 105:-0.4608 106:0.6341 107:-1 108:-0.2209 109:0.33989 110:-1 111:-0.77693 112:-0.78586 113:-0.59464 114:-0.01204 115:-0.67489 116:-0.07934 117:-1 118:-0.88243 119:-1 120:0.59179 121:0.48195 122:0.23642 123:0.09679 124:-0.33349 125:0.39558 126:-0.73614 127:0.21904 128:-0.00666 129:-1 130:-0.24283 131:-0.67686 132:0.46687 133:-0.78021 134:-1 135:-0.66281 136:-1 137:-0.03442 138:0.31071 139:0.45896 140:-1 141:-0.28201 142:-0.46675 143:-0.34594 144:-0.37254 145:0.10838 146:0.34972 147:-0.56575 148:0.26863 149:-0.23555 150:-0.30228 151:0.70117 152:-0.63643 153:0.3655 154:0.24435 155:-0.3788 156:0.53786 157:-0.00105 158:-0.43353 159:-0.50751 160:-0.18929 161:0 162:-0.72145 163:0.17129 164:-0.35998 165:-0.51235 166:0.36816 167:0.67388 168:-0.77049 169:0.39364 170:0.67638 171:0.34525 172:0.06824 
2.085664983181923 1:-0.61077 2:0.19536 3:-0.7594 4:-0.74908 5:-0.72387 6:-1 7:0.68805 8:-0.81946 9:-0.8869 10:-0.76989 11:-0.08933 12:0.11248 13:-1 14:-0.74051 15:-0.82007 16:-0.15697 17:-0.42227 18:-0.08812 19:-0.81232 20:-1 21:0.48429 22:0.5251 23:-0.71848 24:-0.68054 25:-1 26:-0.52876 27:0.37349 28:-1 29:-0.48592 30:-0.85098 31:0.30107 32:-1 33:-1 34:0.28747 35:-1 36:0.47486 37:-0.21142 38:-1 39:-0.82986 40:-0.79388 41:-0.23531 42:-1 43:0.11003 44:-0.38555 45:0.44501 46:-0.27662 47:-1 48:-0.47674 49:-0.10423 50:-0.71897 51:0.35611 52:0.66082 53:-0.79559 54:-0.79559 55:0.35077 56:-0.74688 57:0.09076 58:-0.64151 59:-0.89835 60:-0.14633 61:-0.66768 62:-0.50067 63:0.35578 64:0.69265 65:-0.74541 66:-0.24513 67:0.39532 68:-0.42227 69:-1 70:0.0544 71:-0.65326 72:-0.71897 73:-0.86444 74:0.69027 75:-0.80661 76:-0.80416 77:-1 78:-1 79:-0.83435 80:0.53714 81:0.37907 82:0.82845 83:-0.71603 84:-0.75821 85:-0.74051 86:0.25914 87:-0.81966 88:-0.46076 89:0.43085 90:-0.79339 91:-0.5818 92:0.02268 93:-0.85606 94:-1 95:-0.84394 96:-1 97:-0.66544 98:-0.59118 99:-0.29556 100:0.67379 101:-0.55773 102:0.55731 103:-0.75887 104:-0.72705 105:-1 106:0.60337 107:-1 108:0.13246 109:0.42602 110:-0.66544 111:-0.286 112:-0.86291 113:-0.74051 114:0.04718 115:-0.56906 116:-0.03872 117:-0.87515 118:-0.8498 119:-1 120:0.39478 121:0.55999 122:-0.12588 123:0.14545 124:0.04985 125:0.3651 126:-0.49327 127:0.47288 128:0.01909 129:-0.78866 130:-0.83843 131:-1 132:0.16088 133:-0.4965 134:-0.80171 135:-0.61172 136:-0.40881 137:-0.22735 138:-0.1351 139:0.14124 140:0.0869 141:0.09015 142:-0.75939 143:-0.63614 144:0.23094 145:0.6776 146:-0.04142 147:-0.72202 148:0.24823 149:-0.02049 150:0.11834 151:0.68645 152:-0.84989 153:0.32785 154:0.05575 155:-0.31079 156:0.71394 157:0.14561 158:0.05568 159:-0.88875 160:-0.05497 161:0.11633 162:-0.72946 163:0.13353 164:0.18352 165:-0.15212 166:0.29305 167:0.40721 168:-0.44262 169:0.44844 170:0.71063 171:0.34625 172:0.28537 
1.085627842429977 1:-0.84921 2:0.33786 3:-0.58057 4:-0.41678 5:-0.89303 6:-0.87817 7:0.95852 8:-0.79018 9:-0.47425 10:-1 11:-0.1748 12:0.1708 13:-0.72005 14:-0.69843 15:-0.37269 16:0.22639 17:-0.73143 18:-0.78805 19:-1 20:-0.35515 21:0.31049 22:0.31804 23:-0.89094 24:-0.07183 25:-0.4367 26:-0.67141 27:0.04177 28:-1 29:-0.76102 30:-0.65362 31:0.22714 32:-1 33:-1 34:-0.1654 35:-0.82835 36:0.29036 37:-0.21107 38:-1 39:-0.60455 40:-0.76045 41:0.3264 42:-0.54766 43:0.45176 44:-0.28592 45:-0.17501 46:-0.43954 47:-0.80275 48:-0.63514 49:0.26311 50:-0.5101 51:0.25832 52:0.57532 53:-0.28734 54:-0.64367 55:0.63342 56:-0.57871 57:0.21787 58:-1 59:-0.87819 60:-0.38937 61:-0.8069 62:-0.36319 63:0.16046 64:-0.92086 65:-0.85206 66:-0.47758 67:0.17629 68:0.00712 69:-0.22616 70:0.00989 71:-0.46271 72:-0.1835 73:-0.52739 74:0.79386 75:0.12376 76:-0.5448 77:-0.68498 78:-0.82835 79:-0.80749 80:0.5843 81:0.08306 82:0.64566 83:-1 84:-1 85:-0.89948 86:0.39294 87:-1 88:-0.07249 89:-0.76244 90:-0.75988 91:-0.70839 92:0.48478 93:-1 94:-1 95:-1 96:-1 97:-0.80559 98:-0.76244 99:-0.30648 100:0.52773 101:-1 102:0.53212 103:-0.43955 104:-0.68278 105:-0.59886 106:0.67937 107:-1 108:-0.35317 109:0.63403 110:-1 111:-0.33618 112:-0.84068 113:-0.24608 114:0.35962 115:-0.59532 116:0.15624 117:-1 118:-0.65035 119:-0.71088 120:0.46976 121:0.4187 122:-0.36377 123:0.04634 124:0.07808 125:0.3471 126:-0.2148 127:0.5435 128:-0.06483 129:-0.26316 130:-1 131:-0.8798 132:-0.16088 133:-0.6263 134:-0.53911 135:-0.58586 136:-0.54196 137:-0.64082 138:0.26004 139:0.21735 140:-1 141:-0.08959 142:-0.4428 143:-0.71023 144:0.05833 145:0.32806 146:-0.19926 147:-0.67693 148:0.57799 149:0.08641 150:-0.21383 151:0.4551 152:-0.64524 153:0.37865 154:-0.04692 155:-0.15744 156:0.7418 157:0.07689 158:0.11949 159:-0.1969 160:-0.03218 161:-0.10584 162:-0.76255 163:-0.00765 164:-0.15463 165:-0.0023 166:0.35478 167:0.76733 168:-0.55738 169:0.46523 170:0.7468 171:0.27543 172:0.21729 
0.2160847266657907 1:-0.27147 2:0.30643 3:-0.66225 4:-1 5:-0.74158 6:-0.41136 7:0.7487 8:0.01375 9:-1 10:-1 11:0.04922 12:0.08386 13:-1 14:-0.27149 15:0.01032 16:0.23248 17:-0.3512 18:-1 19:-0.47309 20:-1 21:0.0244 22:0.28922 23:-1 24:0.34536 25:-1 26:-0.7354 27:0.16225 28:-1 29:-0.42268 30:-0.58162 31:0.53891 32:-0.50287 33:-1 34:0.06491 35:-1 36:0.45567 37:-0.47764 38:-0.19932 39:-0.52234 40:-1 41:0.14118 42:-1 43:0.48198 44:-0.13745 45:0.01881 46:0.35396 47:-0.52349 48:-0.70619 49:0.24179 50:-1 51:0.15963 52:0.32108 53:-1 54:-1 55:0.76322 56:-0.76673 57:0.63364 58:-0.49676 59:-0.7975 60:-0.16684 61:-0.76675 62:0.23063 63:0.15729 64:-0.30633 65:-1 66:0.1157 67:0.29672 68:-0.59451 69:-1 70:-0.20277 71:-0.02651 72:-0.21099 73:-0.61942 74:0.74363 75:0.08592 76:-0.45018 77:-1 78:-1 79:-0.53494 80:0.66987 81:0.56981 82:0.62633 83:-0.60138 84:-0.32118 85:-0.51432 86:0.49984 87:-0.49371 88:0.08208 89:-1 90:-1 91:-0.76518 92:0.43207 93:-0.59588 94:-1 95:-0.56186 96:-1 97:-0.53036 98:-1 99:0.02455 100:0.61488 101:-0.37916 102:0.25952 103:-0.66152 104:-1 105:-1 106:0.80388 107:-1 108:0.24784 109:-0.16048 110:-1 111:-0.59909 112:-1 113:-0.27147 114:0.13353 115:-0.67457 116:-0.06201 117:-1 118:-1 119:-1 120:0.42636 121:0.54609 122:-0.33894 123:0.0146 124:0.26656 125:0.5953 126:-0.52578 127:-0.08137 128:-0.08703 129:-0.40665 130:-1 131:-0.70962 132:-0.16013 133:-0.6386 134:-1 135:-0.72806 136:-1 137:-1 138:0.20168 139:0.39515 140:-1 141:-0.23659 142:-0.37836 143:-0.56986 144:-0.32683 145:0.81392 146:-0.1298 147:-0.60978 148:0.65244 149:-0.12683 150:-0.27534 151:0.63851 152:-0.78247 153:0.60015 154:-0.18851 155:-0.31737 156:0.73759 157:0.08401 158:0.05192 159:0.34494 160:0.14731 161:0.07986 162:-0.64557 163:0.2349 164:0.10852 165:-0.40138 166:0.85722 167:0.59217 168:-0.80328 169:0.49718 170:0.78701 171:0.00752 172:-0.12018 
1.563839913446524 1:-0.82479 2:0.25429 3:-0.67509 4:-1 5:-0.7514 6:-1 7:0.59563 8:-0.51239 9:-0.69454 10:-0.37851 11:-0.1667 12:0.05053 13:-0.83735 14:-1 15:-0.27107 16:-0.25421 17:-0.5319 18:-0.75372 19:-1 20:-1 21:0.25535 22:0.34157 23:-0.74656 24:-0.56859 25:-0.78182 26:-0.61818 27:-0.11084 28:-1 29:-0.58347 30:-0.19504 31:0.15029 32:-1 33:-1 34:-0.2025 35:-1 36:0.40897 37:-0.43758 38:-1 39:-1 40:-1 41:-0.03648 42:-0.82479 43:-0.07478 44:-0.79256 45:-0.1291 46:-1 47:-1 48:-0.71735 49:-0.38629 50:-0.62049 51:0.18241 52:0.50634 53:-0.17189 54:-1 55:0.7171 56:-0.63608 57:0.25007 58:-0.75794 59:-0.61996 60:-0.2562 61:-0.66343 62:-0.21227 63:-0.28011 64:-0.85825 65:-0.8281 66:-0.50451 67:0.44899 68:-0.80496 69:-0.55041 70:-0.35064 71:-0.84392 72:-0.81025 73:-0.26777 74:0.69131 75:-0.21652 76:-0.20661 77:-0.81698 78:-0.80055 79:-0.77631 80:0.26125 81:0.3739 82:0.73404 83:-0.80826 84:-1 85:0.40165 86:0.3673 87:-1 88:0.02821 89:-0.72396 90:-0.44198 91:-1 92:-0.01777 93:-0.80562 94:-1 95:-0.57851 96:-0.78926 97:-0.32231 98:-1 99:-0.22736 100:0.53703 101:-1 102:0.56473 103:-0.67438 104:-0.6314 105:-1 106:0.30053 107:-1 108:-0.2406 109:0.31128 110:-1 111:-0.42149 112:-0.2595 113:-0.47438 114:-0.07375 115:-0.48616 116:-0.03981 117:-1 118:-0.59372 119:-1 120:0.1578 121:0.43485 122:0.12695 123:0.11505 124:-0.1277 125:0.03673 126:-1 127:-0.13715 128:0.29929 129:-1 130:-0.78182 131:-0.86033 132:0.19016 133:-0.7309 134:-1 135:-0.50396 136:-0.20165 137:-1 138:0.39998 139:0.84214 140:-1 141:-0.10325 142:-0.58676 143:-0.46434 144:-0.41953 145:0.43143 146:-0.2258 147:-0.62461 148:-0.22285 149:-0.24884 150:-0.04277 151:0.36961 152:-0.69267 153:0.08662 154:-0.35585 155:0.22839 156:0.62436 157:0.11586 158:-0.16609 159:-0.43724 160:-0.19888 161:-0.14255 162:-0.82505 163:-0.20156 164:0.27636 165:0.06289 166:0.24197 167:0.55069 168:-0.72131 169:0.61118 170:0.68985 171:0.22699 172:0.21439 
0.8577245099307017 1:-0.63066 2:0.36607 3:-1 4:-1 5:-1 6:-1 7:0.70794 8:-0.48606 9:-1 10:-1 11:0.1193 12:0.11646 13:-1 14:-1 15:-0.48781 16:-0.66857 17:-0.01323 18:-1 19:0.60279 20:-0.21023 21:0.31049 22:0.37608 23:-1 24:-0.0906 25:-1 26:-1 27:0.23454 28:-1 29:-0.70732 30:-1 31:0.03502 32:-0.49594 33:-1 34:-0.28511 35:-0.57956 36:0.4508 37:-1 38:-1 39:-0.51568 40:-1 41:-0.66358 42:-0.63066 43:0.51453 44:-0.56272 45:0.50207 46:-0.31359 47:-1 48:-1 49:0.69339 50:1 51:-0.07435 52:0.76286 53:-0.41812 54:-1 55:0.74135 56:-0.82016 57:0.15848 58:-1 59:-0.97165 60:0.17443 61:-1 62:-0.54008 63:-0.22227 64:-0.33155 65:-0.63763 66:0.55497 67:0.18877 68:-0.58885 69:-0.05227 70:-0.08012 71:-0.34196 72:1 73:-1 74:0.83223 75:-0.44948 76:-1 77:-1 78:-0.57956 79:-1 80:0.48756 81:0.15104 82:0.42296 83:-1 84:-0.31172 85:-1 86:0.39294 87:-1 88:0.17939 89:0.16376 90:-1 91:-0.76191 92:0.60735 93:-1 94:-1 95:-1 96:-1 97:0.42858 98:-1 99:0.24063 100:0.82122 101:-1 102:-0.20348 103:-1 104:-1 105:-1 106:0.80319 107:-0.32371 108:-0.38332 109:-0.22843 110:0.42858 111:-0.187 112:-0.21951 113:-0.63066 114:-0.38481 115:-0.77944 116:-0.35229 117:-1 118:-1 119:-1 120:0.21904 121:0.00112 122:0.01455 123:-0.17 124:-0.29297 125:0.44743 126:0.44251 127:0.57421 128:-0.35702 129:-0.39838 130:-1 131:-0.41115 132:0.0704 133:-0.64457 134:-0.43554 135:-0.63395 136:0.68293 137:-0.56011 138:0.24559 139:0.28182 140:-0.48432 141:0.06437 142:-0.01375 143:-0.97533 144:-0.42432 145:0.08383 146:0.01765 147:-0.60434 148:0.8009 149:-0.62069 150:0.18571 151:0.85743 152:-0.04803 153:0.11952 154:-0.2339 155:-0.53262 156:0.91755 157:-0.03038 158:-0.2421 159:-0.08036 160:-0.65541 161:-0.3764 162:-0.82825 163:0.46113 164:0.48601 165:0.17945 166:0.84123 167:0.83249 168:-0.83607 169:0.4209 170:0.7847 171:0.32687 172:0.19181 
3.618850899812874 1:-0.54989 2:0.31964 3:-0.58265 4:-0.56476 5:-0.84034 6:-1 7:0.47314 8:-0.68684 9:-1 10:-0.60086 11:-0.13065 12:-0.25883 13:-0.79109 14:-1 15:-0.6879 16:-0.56709 17:-0.1983 18:-0.68366 19:-0.3489 20:-0.51875 21:0.08021 22:0.58686 23:-0.67445 24:-0.44586 25:-0.71975 26:-0.83652 27:-0.12932 28:-1 29:0.07007 30:-0.74151 31:-0.02967 32:-0.69286 33:-1 34:-0.21834 35:-1 36:-0.03481 37:-0.15574 38:-1 39:-1 40:-1 41:-0.69306 42:-0.77495 43:0.40449 44:-0.20064 45:0.4431 46:-1 47:-0.41118 48:0.2707 49:-0.34069 50:-1 51:0.39272 52:0.23301 53:-1 54:-0.82272 55:0.68073 56:-0.54469 57:0.335 58:-1 59:-0.79549 60:0.33848 61:-1 62:-0.29154 63:-0.07647 64:-0.99645 65:-0.55839 66:-0.24304 67:-0.12075 68:-0.74947 69:-0.42251 70:-0.32938 71:-0.79952 72:-0.75627 73:-0.76487 74:0.56052 75:-1 76:-1 77:-1 78:-0.74381 79:-0.71267 80:0.69522 81:0.40048 82:0.80183 83:-1 84:-1 85:-0.84997 86:0.26039 87:-1 88:-0.13662 89:-1 90:-0.64162 91:-0.85492 92:-0.03412 93:-0.75032 94:-0.46215 95:-0.72931 96:-1 97:-0.41967 98:-1 99:-0.30065 100:0.54771 101:-1 102:0.47237 103:-1 104:-0.52655 105:-1 106:0.70871 107:-1 108:0.06291 109:0.27909 110:-0.41967 111:-0.25691 112:-0.52441 113:-0.77495 114:-0.01093 115:-0.7492 116:0.08205 117:-1 118:-1 119:-1 120:0.30734 121:0.80758 122:-0.1686 123:0.15308 124:0.45959 125:0.19275 126:-0.70701 127:0.70727 128:-0.37789 129:-1 130:-0.71975 131:-0.8206 132:0.17627 133:-0.70119 134:-1 135:-0.64318 136:0.3673 137:-0.46391 138:0.24504 139:0.27052 140:-0.68578 141:0.29887 142:-0.77032 143:-0.82315 144:0.04523 145:-0.15199 146:0.09865 147:-0.75891 148:0.64961 149:0.003 150:-0.33978 151:0.59082 152:-0.27488 153:0.51096 154:0.26578 155:-0.6329 156:0.92306 157:0.14603 158:-0.16985 159:-0.79486 160:0.25365 161:0.04291 162:-0.8652 163:-0.0563 164:-0.12204 165:-0.10142 166:0.51496 167:0.82857 168:-0.47541 169:0.84166 170:0.88033 171:0.43878 172:0.12244 
4 1:-0.72539 2:0.23607 3:-0.23612 4:-1 5:-0.61037 6:-1 7:0.50904 8:-0.61787 9:-1 10:-1 11:0.05773 12:0.1545 13:-0.74508 14:-1 15:-1 16:-0.37555 17:-1 18:-0.61399 19:-1 20:-1 21:0.48329 22:0.64 23:-0.80138 24:-0.66191 25:-0.65803 26:-0.80052 27:0.00803 28:-1 29:-0.78238 30:-1 31:0.20525 32:-1 33:-1 34:0.10909 35:-0.68739 36:-0.01447 37:-0.73325 38:-1 39:-1 40:-1 41:-0.23455 42:-1 43:0.1728 44:0.30052 45:0.4855 46:-0.48963 47:-0.64076 48:-1 49:-0.06903 50:-0.70259 51:0.47622 52:0.16004 53:-1 54:-0.78368 55:0.10828 56:-0.44534 57:0.23009 58:-0.62061 59:-0.76819 60:-0.02962 61:-0.47247 62:-0.06538 63:-0.02258 64:-0.64279 65:-0.46115 66:-0.18891 67:0.2025 68:-0.38861 69:-1 70:0.50791 71:-0.51074 72:-1 73:-1 74:0.69027 75:-0.59067 76:-0.58549 77:-1 78:-0.37479 79:-1 80:0.31177 81:0.27754 82:0.5837 83:-0.39897 84:-1 85:-1 86:0.27165 87:-1 88:-0.10887 89:-1 90:-0.56269 91:-1 92:0.12319 93:-0.69533 94:-1 95:-1 96:-1 97:-1 98:-1 99:-0.52565 100:0.79883 101:-1 102:0.57411 103:-1 104:-1 105:-1 106:0.39593 107:-1 108:0.15095 109:0.57413 110:-1 111:-1 112:-0.70984 113:-0.17617 114:0.00097 115:-0.63797 116:0.54075 117:-1 118:-0.84118 119:-0.47344 120:0.27275 121:0.40121 122:-0.3878 123:-0.09619 124:0.06761 125:0.27412 126:-0.64248 127:0.47595 128:-0.13499 129:-1 130:-0.31607 131:-0.78109 132:0.21269 133:-0.66539 134:-1 135:-0.33407 136:-1 137:-0.67292 138:-0.0868 139:0.27451 140:-1 141:-0.42399 142:-0.73958 143:-0.51163 144:0.30542 145:-0.2838 146:-0.16119 147:-0.41163 148:0.0872 149:-0.01193 150:-0.41242 151:0.57788 152:-0.14917 153:0.81031 154:-0.13357 155:0.1792 156:0.60735 157:0.20805 158:-0.20863 159:0.04147 160:0.25645 161:0.16639 162:-0.91479 163:0.31859 164:-0.15463 165:-0.56767 166:-0.0644 167:0.52452 168:-0.85246 169:0.48919 170:0.8026 171:0.2594 172:-0.21568 
4 1:-0.74642 2:0.27679 3:-1 4:-1 5:-1 6:-0.79511 7:0.56434 8:-1 9:-1 10:-1 11:-0.8096 12:-0.13892 13:-0.7646 14:0.01435 15:-0.64833 16:-0.3064 17:-0.77417 18:-0.64355 19:-1 20:-0.72887 21:0.35027 22:0.63941 23:-0.81659 24:-1 25:-0.68422 26:-0.44737 27:-0.23614 28:-0.36077 29:-0.79905 30:-0.70874 31:0.24368 32:-1 33:-0.55384 34:-0.52453 35:-0.71133 36:0.20097 37:-0.29405 38:-0.44259 39:-0.66747 40:-0.19426 41:-0.7131 42:-0.74642 43:0.10926 44:-0.69977 45:0.10711 46:-1 47:-1 48:-1 49:-0.69439 50:-0.45072 51:-0.01853 52:0.76913 53:-1 54:-0.20096 55:0.10781 56:-0.78538 57:-1 58:-0.64966 59:-0.86012 60:0.14861 61:-0.67524 62:-0.74877 63:-0.28447 64:-0.57429 65:-1 66:0.01007 67:0.20562 68:-1 69:-1 70:0.04352 71:-0.54819 72:-1 73:-1 74:0.37286 75:-0.62202 76:-1 77:-0.73511 78:-0.71133 79:-0.67624 80:-0.09703 81:0.11446 82:0.25681 83:-1 84:-1 85:-1 86:0.20663 87:-1 88:-0.23561 89:0.5981 90:-1 91:-0.67305 92:-0.42676 93:-1 94:-1 95:-0.38995 96:-1 97:-0.67305 98:-0.60048 99:0.23554 100:0.6979 101:-1 102:-0.03671 103:-0.76436 104:-1 105:-0.66269 106:0.43012 107:-1 108:-0.37447 109:-0.29399 110:-1 111:-1 112:-1 113:-0.49282 114:-0.33831 115:-0.4817 116:-0.10533 117:-1 118:-0.41213 119:-1 120:-0.13782 121:0.27831 122:-0.11841 123:-0.04439 124:0.25746 125:0.59578 126:-0.66986 127:-0.1781 128:-0.31394 129:-1 130:-0.68422 131:-0.79785 132:0.05988 133:-0.22009 134:-1 135:-0.31002 136:-1 137:-1 138:-0.56462 139:-0.61881 140:-0.64594 141:-0.26836 142:-0.9026 143:-0.70789 144:-0.25172 145:-0.23017 146:0.01881 147:-0.72834 148:0.11349 149:-0.73923 150:0.31283 151:0.07509 152:-0.36434 153:-0.20066 154:-0.44682 155:-0.09704 156:0.72868 157:-0.47077 158:-0.38129 159:-0.67942 160:-0.02778 161:-0.45745 162:-0.90998 163:0.52781 164:-0.11774 165:-0.05631 166:0.53326 167:-0.34704 168:-0.7377 169:-0.17334 170:0.92881 171:0.09838 172:-0.48185 
0.4745159711340248 1:-0.60886 2:0.40429 3:-0.56479 4:-1 5:0.16547 6:-0.87358 7:0.6701 8:-1 9:-0.93181 10:-0.86126 11:0.04679 12:0.07082 13:-0.70952 14:-0.53063 15:-0.45757 16:-0.40548 17:-0.791 18:-0.89004 19:-0.54736 20:-0.91636 21:0.34759 22:0.45725 23:-0.37761 24:-0.51846 25:-0.90258 26:-0.54538 27:0.16305 28:-1 29:-0.93801 30:-0.73045 31:0.05253 32:-1 33:-1 34:-0.05918 35:-0.91095 36:0.58229 37:-0.06287 38:-1 39:-0.89742 40:-0.62716 41:-0.51011 42:-0.76532 43:-0.19411 44:-0.53691 45:0.57698 46:-0.41846 47:-1 48:-0.8738 49:-0.24402 50:-0.66111 51:0.25787 52:0.54938 53:-0.87675 54:-0.13727 55:0.43278 56:-0.86335 57:0.2917 58:0.18885 59:-0.54216 60:0.01291 61:-0.74954 62:-0.21003 63:0.12044 64:-0.98294 65:-0.92325 66:-0.48072 67:0.03588 68:-0.91292 69:-0.39779 70:-0.08012 71:-0.58187 72:-0.66111 73:-0.67307 74:0.66795 75:-0.8834 76:-1 77:-0.75485 78:-0.91095 79:-1 80:0.56753 81:0.26809 82:0.88501 83:-0.65757 84:-0.70843 85:0.04305 86:0.28915 87:-0.78254 88:0.17699 89:-1 90:-1 91:-0.69742 92:0.51175 93:-0.65284 94:-0.81304 95:-1 96:-0.81181 97:-0.89914 98:-1 99:-0.07439 100:0.60524 101:-1 102:0.06893 103:-0.63654 104:-0.83543 105:-1 106:0.66875 107:-0.71351 108:0.30332 109:0.2183 110:-0.79828 111:-0.8278 112:-0.58672 113:-0.45239 114:-0.21129 115:-0.78199 116:0.46114 117:-0.6989 118:-0.72792 119:-1 120:0.43732 121:0.52949 122:-0.2236 123:-0.37076 124:0.30344 125:0.43375 126:-0.59263 127:0.64125 128:0.03286 129:-0.87257 130:-1 131:-0.81292 132:-0.02309 133:-0.43452 134:-0.76089 135:-0.60718 136:-0.64355 137:-0.72048 138:0.16107 139:0.443 140:-0.89078 141:-0.60959 142:-0.93541 143:0.02418 144:0.03788 145:0.7099 146:-0.10442 147:-0.66478 148:-0.43442 149:-0.30165 150:-0.24546 151:0.57103 152:-0.81889 153:0.65205 154:-0.07394 155:0.29888 156:0.49899 157:0.27802 158:-0.17141 159:-0.38912 160:0.29762 161:0.17759 162:-0.71532 163:0.43834 164:0.01568 165:-0.54396 166:0.37077 167:0.383 168:-0.5082 169:0.09679 170:0.77797 171:0.27443 172:-0.06727 
0.4534780960521516 1:-0.5995 2:0.31036 3:-0.62865 4:-1 5:-0.62116 6:-0.89214 7:0.66574 8:-0.81424 9:-0.76725 10:-0.52645 11:-0.13267 12:0.45771 13:-0.75214 14:-1 15:0.11084 16:-0.29527 17:-0.88111 18:-0.62468 19:-1 20:-0.71453 21:0.23697 22:0.42451 23:-0.71033 24:-0.83565 25:-0.83376 26:-0.70907 27:0.05703 28:-1 29:-0.68262 30:-0.53999 31:-0.37257 32:-0.6356 33:-1 34:-0.00051 35:-0.84803 36:0.15972 37:-0.28417 38:-0.70656 39:-0.64987 40:-1 41:-0.31128 42:-1 43:-0.29175 44:-1 45:0.06886 46:-0.7519 47:-0.65071 48:-0.78463 49:-0.22593 50:-1 51:0.04979 52:0.3949 53:-0.57934 54:-0.57934 55:0.51575 56:-0.54152 57:0.1063 58:-0.81557 59:-0.68412 60:0.2157 61:-0.82903 62:-0.32423 63:0.04715 64:-0.9906 65:-0.86902 66:-0.21715 67:-0.22808 68:-0.70277 69:-1 70:-0.29278 71:-0.52429 72:-0.85542 73:-0.86052 74:0.3774 75:-0.60201 76:-0.19395 77:-0.58164 78:-0.84803 79:-0.82956 80:0.35371 81:0.02989 82:0.81701 83:-0.85391 84:-1 85:-0.822 86:0.25539 87:-0.81445 88:0.05353 89:-0.57934 90:-1 91:-0.74182 92:-0.09622 93:-0.70378 94:-1 95:-0.83943 96:-0.51827 97:-0.82788 98:-1 99:-0.23027 100:0.48536 101:-1 102:0.2894 103:-0.62784 104:-0.43828 105:-0.82242 106:0.58928 107:-1 108:-0.0802 109:0.25883 110:-0.82788 111:-0.26533 112:-0.85895 113:-0.46599 114:-0.10945 115:-0.37556 116:0.03006 117:-1 118:-0.92244 119:-0.48803 120:0.35546 121:0.17919 122:-0.10586 123:-0.07343 124:-0.11405 125:0.39198 126:-0.65239 127:0.27277 128:-0.09059 129:-1 130:-0.83376 131:-0.89358 132:-0.08466 133:-0.64286 134:-0.18388 135:-0.38464 136:-1 137:-0.841 138:0.209 139:0.3679 140:-0.81361 141:-0.24634 142:-0.47561 143:-0.33051 144:0.00559 145:0.10225 146:-0.06634 147:-0.14189 148:-0.13276 149:-0.4273 150:0.08202 151:0.48605 152:-0.37247 153:0.14839 154:-0.35873 155:-0.00385 156:0.53462 157:0.14938 158:-0.28902 159:-0.57987 160:-0.29962 161:0.15185 162:-0.68327 163:0.32403 164:0.19336 165:-0.08396 166:0.05776 167:0.62243 168:-0.65574 169:0.61917 170:0.72795 171:0.2938 172:0.0121 
0.363734351771509 1:-0.78926 2:0.43679 3:-0.8046 4:-0.1849 5:-0.40199 6:-0.82972 7:0.67787 8:-1 9:-0.8163 10:-0.62624 11:-0.29755 12:-0.0451 13:-0.60875 14:-0.15707 15:-0.12326 16:-0.23487 17:-0.43698 18:-0.40756 19:-0.08549 20:-0.77468 21:0.16143 22:0.38569 23:-0.54275 24:-1 25:-1 26:-0.08151 27:-0.00402 28:-1 29:-0.833 30:-1 31:0.01702 32:-1 33:-1 34:0.06188 35:-1 36:0.03223 37:-0.35064 38:-1 39:-1 40:-1 41:-0.42468 42:-0.36779 43:-0.45021 44:-1 45:-0.05802 46:-0.60834 47:-1 48:-1 49:-0.40092 50:-0.54354 51:0.09712 52:0.33875 53:-0.66799 54:-1 55:0.87995 56:-0.64884 57:0.46156 58:-0.70885 59:-0.78472 60:0.19975 61:-1 62:-0.2678 63:-0.09469 64:-0.87325 65:-1 66:-0.30762 67:-0.34477 68:-0.7654 69:-0.45923 70:-0.56429 71:-0.81227 72:-1 73:-0.33947 74:0.65085 75:-1 76:-0.36382 77:-0.77986 78:-1 79:-0.4619 80:0.55895 81:0.19511 82:0.86588 83:-1 84:-1 85:-1 86:-0.07221 87:-1 88:-0.22832 89:-0.00397 90:-1 91:-0.45659 92:0.0856 93:-0.29861 94:-1 95:-1 96:-1 97:-0.4566 98:-1 99:-0.1737 100:0.39408 101:-1 102:-0.08631 103:-0.60835 104:-0.55665 105:-0.71968 106:0.39663 107:0.15763 108:-0.06975 109:0.06184 110:-1 111:-0.53612 112:-0.77733 113:-0.57853 114:0.02311 115:-0.57272 116:-0.21148 117:-1 118:-1 119:-1 120:0.17628 121:0.25678 122:-0.06474 123:-0.04963 124:-0.26474 125:0.07297 126:-0.4513 127:0.09826 128:0.23757 129:-0.65672 130:-0.73757 131:-0.66402 132:0.05162 133:-0.85717 134:-0.67793 135:-0.58417 136:-0.03977 137:-1 138:0.34986 139:0.40113 140:-0.41154 141:-0.03246 142:-0.73751 143:-0.61352 144:-0.47962 145:0.71604 146:0.10603 147:-0.54849 148:0.56258 149:-0.24119 150:0.02578 151:0.47362 152:-0.80669 153:0.21455 154:0.01612 155:-0.61324 156:0.75492 157:-0.24827 158:-0.37785 159:-0.53446 160:-0.27963 161:0.00453 162:-0.86445 163:-0.0944 164:0.11958 165:-0.16332 166:0.52732 167:0.71126 168:-0.78689 169:0.54013 170:0.80856 171:0.24403 172:0.34344 
1.302500770091364 1:-1 2:0.53321 3:-0.52056 4:-1 5:-0.63317 6:-1 7:0.69509 8:-1 9:-1 10:-0.08294 11:0.13308 12:0.0346 13:-1 14:-1 15:-1 16:-1 17:-0.53952 18:-1 19:-0.25204 20:-0.44716 21:0.27005 22:0.50471 23:-1 24:-1 25:-0.3561 26:-1 27:-0.43373 28:-1 29:-1 30:0.18781 31:0.38959 32:-0.29432 33:-1 34:-0.38998 35:-1 36:0.48603 37:-0.80384 38:-1 39:0.3561 40:-1 41:-0.93914 42:-1 43:0.45409 44:-0.38781 45:0.92254 46:-1 47:-1 48:-0.58293 49:1 50:-0.44001 51:-0.15919 52:0.53057 53:-1 54:-1 55:0.55616 56:-0.32843 57:-0.04357 58:-1 59:-0.78507 60:0.71038 61:-1 62:-0.21361 63:-0.36569 64:-0.72784 65:-1 66:0.4632 67:0.24306 68:-1 69:-1 70:0.1004 71:-0.53938 72:-0.44001 73:-1 74:0.93512 75:-1 76:-1 77:-1 78:-0.41139 79:-1 80:0.52372 81:0.29985 82:0.47058 83:-1 84:-1 85:-1 86:0.39294 87:-1 88:0.29122 89:-1 90:-1 91:-0 92:0.52237 93:-1 94:-1 95:-0.37806 96:-1 97:1 98:-1 99:0.43961 100:0.8629 101:-1 102:-0.41515 103:-1 104:0.0878 105:-1 106:0.84338 107:-1 108:-0.58352 109:-0.58516 110:1 111:-1 112:-1 113:-1 114:-0.38508 115:-0.68348 116:-0.57595 117:-1 118:-1 119:-1 120:0.14878 121:0.11056 122:-0.62435 123:-0.38394 124:-0.16549 125:0.59337 126:-0.32684 127:0.70727 128:-0.64165 129:-1 130:-1 131:0.23658 132:-0.22959 133:-0.39726 134:-0.20977 135:-0.5245 136:0.57073 137:-1 138:-0.2412 139:0.53506 140:-0.27806 141:-0.25596 142:1 143:-0.88786 144:-0.07496 145:-0.05443 146:0.07257 147:0.66179 148:0.74548 149:-0.82318 150:0.89455 151:0.35591 152:0.0028 153:-0.79313 154:-0.51491 155:-0.08167 156:0.83332 157:-0.5374 158:-0.98999 159:0.74846 160:-0.03818 161:0.15304 162:-0.72579 163:0.8925 164:0.74055 165:1 166:0.79166 167:0.52488 168:-0.93443 169:0.9273 170:0.74161 171:0.30316 172:0.35828 
4 1:-0.52036 2:0.39571 3:-0.70351 4:-1 5:-0.88658 6:-0.74164 7:0.82098 8:-0.33258 9:-0.86063 10:-1 11:0.03828 12:0.20884 13:-0.40633 14:-0.68024 15:0.1086 16:0.18824 17:-0.57285 18:-1 19:-0.30618 20:-0.82906 21:0.3232 22:0.31196 23:-0.53746 24:-0.80317 25:-1 26:-0.76772 27:-0.01365 28:-1 29:-0.74661 30:-0.81636 31:0.34922 32:-0.5636 33:0.12519 34:0.02917 35:-0.818 36:0.50781 37:-0.5944 38:-1 39:-0.79035 40:-1 41:0.24362 42:-0.36048 43:0.41689 44:-0.81071 45:-0.19796 46:-0.40573 47:-1 48:-1 49:-0.2408 50:-0.65369 51:0.66109 52:0.58643 53:-0.74811 54:-0.74811 55:0.51337 56:-0.60652 57:0.45101 58:-1 59:-0.83562 60:-0.07392 61:-1 62:-0.38603 63:0.36371 64:-0.45045 65:-0.84314 66:-0.25088 67:0.07832 68:-0.82202 69:-1 70:-0.07715 71:-1 72:-0.65369 73:-0.83296 74:0.63028 75:-0.76169 76:-0.75867 77:-0.49897 78:-0.818 79:-0.79588 80:0.64209 81:0.37746 82:0.81992 83:-0.65007 84:-0.10616 85:-0.78683 86:0.29853 87:-0.77778 88:0.06469 89:-0.74811 90:-1 91:-0.58773 92:0.57181 93:-1 94:-0.23579 95:-0.61538 96:-0.61538 97:-0.3816 98:-0.49623 99:-0.36813 100:0.80813 101:-0.7275 102:0.47901 103:-0.85143 104:-1 105:-1 106:0.66066 107:-1 108:-0.14693 109:0.50887 110:-0.79387 111:-0.64806 112:-0.83107 113:-1 114:0.01979 115:-0.6803 116:0.52017 117:-1 118:-0.72176 119:-0.38688 120:0.4139 121:0.44472 122:-0.4468 123:-0.04933 124:0.27612 125:0.44983 126:-1 127:0.26407 128:0.08481 129:-0.73957 130:-0.60181 131:-0.87255 132:0.04674 133:-0.85266 134:-1 135:-0.63239 136:-1 137:-0.80958 138:0.02058 139:0.31539 140:-0.77677 141:-0.24453 142:-0.41694 143:-0.6345 144:0.06537 145:0.5109 146:-0.3871 147:-0.48617 148:0.24188 149:-0.20477 150:-0.01875 151:0.37189 152:-0.65574 153:0.34284 154:-0.07268 155:0.25903 156:0.80967 157:0.35261 158:-0.11636 159:-0.19025 160:0.1709 161:0.18188 162:-0.05811 163:0.40874 164:0.00769 165:-0.13599 166:0.27505 167:0.61567 168:-0.63934 169:0.89977 170:0.25022 171:0.29314 172:-0.10824 
2.618340874451578 1:-0.70555 2:0.11893 3:-1 4:-1 5:-0.79111 6:-1 7:0.56483 8:-1 9:0.02667 10:-1 11:-0.22463 12:0.21645 13:-0.72666 14:-1 15:-1 16:0.19248 17:-1 18:-1 19:-0.57407 20:-1 21:0.03275 22:0.47039 23:-1 24:0.08749 25:-1 26:-0.57222 27:0.51165 28:-0.62889 29:-0.76666 30:-0.6618 31:0.43191 32:-0.59815 33:-1 34:-0.20857 35:-0.66481 36:0.69976 37:-0.36662 38:-1 39:-0.22777 40:-1 41:0.3351 42:-1 43:0.30686 44:-0.30277 45:-0.56232 46:-0.45277 47:-0.61481 48:-0.7625 49:0.15578 50:-1 51:0.18151 52:0.24925 53:-0.53611 54:-0.76805 55:0.21954 56:-0.48798 57:0.04302 58:-1 59:-0.74816 60:0.35089 61:-0.81146 62:-0.60905 63:0.23177 64:0.0948 65:-1 66:-0.30082 67:0.50265 68:-1 69:-1 70:-0.42977 71:-0.47539 72:-0.68111 73:-0.69236 74:0.77224 75:-0.12221 76:-0.55555 77:-0.69242 78:-0.32962 79:-0.62407 80:0.68534 81:0.05397 82:0.46766 83:-0.67778 84:-1 85:-1 86:0.47984 87:-1 88:-0.22046 89:-0.53611 90:-1 91:-0.81018 92:-0.07865 93:-1 94:-1 95:-1 96:-0.64583 97:-0.24073 98:-1 99:0.1195 100:0.58285 101:-1 102:0.61629 103:-0.72639 104:-1 105:-0.21666 106:0.63548 107:-0.46084 108:0.12683 109:0.23201 110:-1 111:-0.35185 112:-0.68889 113:-0.41111 114:0.04054 115:-0.22406 116:-0.24668 117:-1 118:-0.31794 119:-1 120:0.44312 121:0.45279 122:0.26979 123:-0.17149 124:-0.23515 125:0.57297 126:-1 127:-0.42631 128:-0.29485 129:-1 130:-0.63333 131:-1 132:0.51079 133:-0.57613 134:-0.55 135:-0.53412 136:-0.10555 137:-0.6493 138:-0.17717 139:0.27584 140:-0.17777 141:-0.03511 142:-0.483 143:-0.58337 144:-0.21176 145:0.54418 146:-0.33103 147:-1 148:0.27135 149:-0.24338 150:0.00117 151:0.40918 152:-0.44939 153:0.41886 154:-0.04692 155:-0.03006 156:0.72981 157:0.04337 158:-0.22584 159:-0.32538 160:-0.07176 161:0.11585 162:-0.16671 163:0.22742 164:0.44113 165:-0.25716 166:0.4492 167:0.27726 168:-0.77049 169:0.2744 170:0.14093 171:0.32587 172:0.11179 
4 1:-0.31759 2:0.45179 3:-0.68363 4:-0.78004 5:-0.67726 6:-0.54052 7:0.7242 8:-0.36696 9:-0.90085 10:-1 11:-0.02451 12:0.22369 13:-0.89442 14:-0.3176 15:-0.3691 16:-0.58908 17:-0.79743 18:-0.68026 19:-0.67096 20:-0.63519 21:0.34626 22:0.4502 23:-0.75322 24:-1 25:-0.29185 26:-0.75214 27:0.04177 28:-1 29:-0.54936 30:-0.34684 31:0.14835 32:-0.68956 33:-1 34:-0.10302 35:-0.74106 36:0.46884 37:-0.56709 38:-0.74999 39:-1 40:-0.63863 41:-0.57929 42:-0.77253 43:0.29911 44:-0.73069 45:0.70099 46:-0.57726 47:-1 48:-0.72478 49:-0.17016 50:-0.75365 51:0.27439 52:0.58045 53:-0.82081 54:-0.46244 55:0.60894 56:-0.83053 57:0.17347 58:-0.84287 59:-0.77521 60:0.21418 61:-0.70869 62:-0.08777 63:0.07845 64:-0.98779 65:-0.88841 66:-0.16146 67:0.14259 68:-1 69:-1 70:0.39268 71:-0.69604 72:-0.5073 73:-0.76234 74:0.79002 75:0.01717 76:-0.82832 77:-0.76239 78:-0.48212 79:-0.85479 80:0.42735 81:0.34981 82:0.63236 83:-0.62661 84:-0.78804 85:-1 86:0.2754 87:-1 88:0.26731 89:-0.82081 90:-0.81888 91:-0.56008 92:0.23228 93:-0.74764 94:-1 95:-1 96:-0.86319 97:-0.56008 98:-1 99:0.18934 100:0.7475 101:-0.61231 102:0.18551 103:-0.78863 104:-0.04293 105:-0.69743 106:0.5216 107:-1 108:0.28402 109:0.02339 110:-0.70673 111:-0.74965 112:-0.63948 113:-0.54507 114:-0.26387 115:-0.54567 116:0.1779 117:-0.67167 118:-0.93413 119:-0.78191 120:0.33269 121:0.23346 122:-0.41103 123:-0.1164 124:0.3221 125:0.41119 126:-0.70387 127:0.48772 128:-0.12034 129:-1 130:-0.71674 131:-0.81867 132:0.01108 133:-0.62959 134:-0.65236 135:-0.2072 136:-0.30902 137:-0.72908 138:0.31108 139:0.42207 140:-0.8412 141:-0.31308 142:-0.49882 143:-0.56211 144:-0.00591 145:0.45695 146:-0.23134 147:-0.63448 148:-0.03915 149:-0.25831 150:-0.2437 151:0.42618 152:-0.45599 153:0.75037 154:-0.06476 155:0.03221 156:0.73208 157:-0.02661 158:-0.19393 159:-0.59193 160:0.38877 161:0.03504 162:-0.82071 163:0.56897 164:0.04334 165:-0.54857 166:0.62315 167:0.54019 168:-0.36066 169:0.37712 170:0.8176 171:0.20261 172:-0.05243 
1.624318181175366 1:-0.67683 2:0.33607 3:-0.60047 4:-0.375 5:-0.54146 6:-0.91296 7:0.68417 8:-0.5503 9:-0.90609 10:-0.42683 11:0.0634 12:-0.04619 13:-0.7 14:-0.78455 15:-0.55183 16:-0.45609 17:-0.61626 18:-0.84857 19:-0.84417 20:-0.76965 21:0.32754 22:0.38569 23:-0.92208 24:-0.86737 25:-0.86585 26:-0.76524 27:0.26185 28:-0.72846 29:-0.7439 30:-0.50509 31:0.18239 32:-0.85298 33:-0.81046 34:-0.1074 35:-0.75475 36:0.31185 37:-0.66283 38:-1 39:-0.71748 40:-1 41:-0.28936 42:-0.89227 43:0.10577 44:-0.3623 45:0.4176 46:-0.79979 47:-0.71816 48:-0.91311 49:-0.22915 50:-1 51:0.26323 52:0.48554 53:-0.32114 54:-0.83029 55:0.06121 56:-0.52516 57:0.0458 58:-1 59:-0.76493 60:0.28203 61:-0.72409 62:-0.38155 63:-0.00238 64:-0.93548 65:-0.78862 66:-0.14054 67:0.17941 68:-0.76017 69:-0.72356 70:0.13254 71:-0.71211 72:-0.76667 73:-0.66235 74:0.55668 75:-0.35773 76:-0.83739 77:-0.88747 78:-0.87737 79:-1 80:0.54814 81:0.34285 82:0.77313 83:-0.88211 84:-1 85:-0.85637 86:0.17099 87:-1 88:0.09477 89:-0.83028 90:-0.48536 91:-0.58333 92:0.00143 93:-0.64146 94:-0.4851 95:-0.74086 96:-1 97:-0.72222 98:-1 99:-0.11368 100:0.68998 101:-1 102:0.33802 103:-0.7998 104:-0.77336 105:-0.71342 106:0.78471 107:-1 108:0.22332 109:0.25019 110:-1 111:-0.64431 112:-0.77236 113:-0.35365 114:-0.20188 115:-0.45274 116:0.04576 117:-1 118:-0.87504 119:-0.79344 120:0.30283 121:0.43216 122:-0.24309 123:0.145 124:0.21876 125:0.48944 126:-0.29878 127:0.57728 128:-0.11634 129:-1 130:-0.59756 131:-0.82825 132:0.06965 133:-0.26429 134:-0.5061 135:-0.53438 136:-1 137:-0.87169 138:-0.08406 139:0.25291 140:-0.84959 141:-0.34931 142:-0.74121 143:-0.5016 144:0.04171 145:-0.27863 146:-0.14411 147:-0.65379 148:-0.1527 149:-0.40836 150:-0.06503 151:0.43557 152:0.33892 153:0.53947 154:-0.11357 155:0.15193 156:0.64801 157:0.04295 158:-0.25336 159:-0.81172 160:0.25765 161:0.04267 162:-0.70373 163:0.54516 164:0.03289 165:-0.34244 166:0.17179 167:0.27121 168:-0.27869 169:0.24742 170:0.75161 171:0.25004 172:-0.23568 
4 1:-0.55462 2:0.28429 3:-0.79352 4:-1 5:-0.68403 6:-0.82007 7:0.67835 8:-1 9:-1 10:-0.60505 11:-0.27689 12:0.08567 13:-1 14:-1 15:-0.69118 16:-0.35091 17:-0.80168 18:-0.68698 19:-1 20:-1 21:0.25802 22:0.2951 23:0.44958 24:-0.72585 25:-1 26:-0.19118 27:-0.04418 28:-1 29:-0.82353 30:-0.74423 31:0.12695 32:-1 33:-1 34:0.2433 35:-0.493 36:0.88884 37:-0.56727 38:-0.51051 39:-1 40:-1 41:-0.51692 42:-1 43:-0.18249 44:-0.47269 45:0.53236 46:0.24159 47:-0.70869 48:-0.82038 49:0.37687 50:-0.51764 51:0.36816 52:0.52031 53:-1 54:-0.29832 55:0.60775 56:-0.78287 57:0.21676 58:-0.38469 59:-0.46514 60:0.20759 61:-1 62:-0.17376 63:-0.0107 64:-0.84498 65:-1 66:0.17662 67:0.24306 68:-1 69:-1 70:0.29822 71:-0.60324 72:-0.27647 73:-0.53466 74:0.39937 75:-0.0042 76:-1 77:-1 78:-0.7465 79:-0.71569 80:0.2702 81:0.61816 82:0.65128 83:-0.26891 84:-1 85:-0.55462 86:0.22913 87:-0.69048 88:0.51385 89:-1 90:-0.64538 91:-0.56933 92:0.50766 93:-1 94:0.06444 95:-1 96:-1 97:-0.42577 98:-1 99:0.24827 100:0.64072 101:-0.62046 102:-0.04198 103:-0.3792 104:-1 105:-0.11135 106:0.78286 107:-1 108:0.25709 109:-0.07078 110:-0.71289 111:-0.5098 112:-0.76471 113:-1 114:-0.4515 115:-0.91088 116:-0.28188 117:-1 118:-0.6128 119:-1 120:0.72693 121:0.24064 122:-0.48285 123:-0.08915 124:-0.22832 125:0.58809 126:-1 127:0.30502 128:-0.16519 129:-1 130:-1 131:-1 132:-0.16351 133:-0.73589 134:-1 135:-0.31587 136:-0.32353 137:-0.73477 138:0.40071 139:0.33998 140:-1 141:-0.41577 142:-0.6611 143:-0.44919 144:0.01902 145:0.1969 146:-0.28349 147:-1 148:0.22217 149:-0.58008 150:-0.34212 151:0.5657 152:-0.30013 153:0.74561 154:-0.5041 155:0.20102 156:0.52442 157:-0.0484 158:-0.28558 159:-0.0886 160:-0.26644 161:-0.118 162:-0.90611 163:0.55945 164:-0.15463 165:-0.52585 166:0.57388 167:0.74722 168:-0.7377 169:0.32204 170:0.8811 171:-0.14381 172:-0.10276 
0.6309434832132013 1:-0.63322 2:0.52071 3:-1 4:-1 5:-0.47959 6:-0.70364 7:0.70746 8:0.53114 9:-1 10:-1 11:-0.0557 12:0.17805 13:-1 14:-1 15:-1 16:-0.03219 17:-1 18:-0.48443 19:-1 20:-1 21:0.05114 22:0.25627 23:-0.46944 24:-1 25:-1 26:-0.73356 27:0.51004 28:-1 29:-1 30:0.68512 31:0.03745 32:-1 33:-1 34:0.03625 35:-0.58247 36:0.37917 37:-0.78319 38:-0.19377 39:-1 40:-1 41:0.14837 42:-0.63322 43:0.14762 44:0.30276 45:0.12145 46:-0.31834 47:0.43944 48:-0.70415 49:-0.08935 50:0.58892 51:0.08194 52:0.58957 53:-1 54:-0.71107 55:0.80364 56:-0.65265 57:0.15848 58:-1 59:-0.87934 60:-0.08456 61:-1 62:-0.30631 63:0.05428 64:-0.99378 65:-1 66:-0.32906 67:0.35039 68:-0.1834 69:-1 70:0.09248 71:-0.34652 72:-1 73:-0.61678 74:0.47192 75:-0.45329 76:-1 77:-0.61686 78:-1 79:-0.06344 80:0.52316 81:0.47703 82:0.56997 83:-0.19723 84:-1 85:-1 86:-0.03845 87:-1 88:0.01144 89:-0.42214 90:-0.41592 91:-0.76355 92:0.18447 93:-1 94:-1 95:-0.55883 96:-1 97:0.89158 98:-1 99:-0.5291 100:0.79159 101:-1 102:0.32201 103:-1 104:-1 105:-0.02422 106:0.84338 107:-1 108:0.10754 109:0.3685 110:-1 111:0.21107 112:-1 113:-1 114:-0.21904 115:-0.63081 116:0.07392 117:-1 118:-0.57525 119:-0.29671 120:0.51767 121:0.42992 122:-0.49646 123:-0.2444 124:0.26292 125:0.32549 126:-1 127:0.26612 128:-0.08703 129:-1 130:-1 131:-1 132:0.13234 133:-0.70959 134:-1 135:-0.82673 136:0.11418 137:-0.56315 138:0.18412 139:0.22433 140:-0.48789 141:0.00892 142:-0.2279 143:-0.45865 144:-0.0871 145:0.47892 146:-0.2648 147:-0.21415 148:0.74435 149:-0.12082 150:0.02929 151:0.5066 152:-0.63507 153:0.44006 154:-0.4207 155:-0.39085 156:0.5688 157:0.11754 158:-0.56584 159:-0.00037 160:-0.30322 161:0.20238 162:-0.81317 163:0.43528 164:0.16323 165:-0.39677 166:0.69343 167:0.68082 168:-0.70492 169:0.39997 170:0.90188 171:0.12277 172:-0.14599 
